859 128
693 -0.117028184 0.14387597 -0.16742483 0.105987534 0.06163223 0.023075592 -0.11400309 -0.032980174 0.05853772 -0.03954508 0.0054672426 -0.043396816 -0.13350314 0.1099899 -0.024419097 -0.050245572 -0.16017377 0.08155477 0.19605851 -0.09189719 -0.3046895 -0.08637203 0.051403813 0.036002055 0.037309684 0.14110892 -0.062055152 0.17973153 0.15925899 0.09726485 -0.05215677 0.011818874 0.07203128 0.05488876 0.08213908 0.114136994 0.017784074 0.056590717 0.041805137 -0.053282004 0.089798175 0.088899426 -0.1048106 -0.023999635 0.0073655806 0.11134984 -0.0736131 -0.0090864245 0.091734715 0.108236805 -0.13828261 -0.1987934 0.12953189 0.011313176 -0.07157008 0.099943295 0.22126223 -0.16889343 0.13441631 -0.09471454 -0.13786529 -0.0077670724 0.042377375 -0.0948966 0.29938394 0.03890395 0.064940065 -0.024085484 -0.025225181 0.0026272072 0.15297621 0.025502766 -0.031200182 0.29686075 0.07132351 -0.23075065 -0.10773933 -0.108131334 0.015646804 0.010380671 -0.08704858 0.16682702 -0.049020875 0.052501116 0.059605647 -0.03435698 -0.024902161 0.14227659 -0.10772287 -0.038218822 0.18420392 0.08755544 0.16681007 0.16681072 0.16378367 -0.26965693 0.058688138 -0.021523789 0.02813403 -0.040136926 -0.2591828 -0.103106715 -0.1330128 -0.19237947 -0.08571637 0.038260892 0.041697428 -0.021174766 -0.015607375 0.18030879 0.10843762 0.046331115 0.14037193 -0.0606799 -0.015582942 0.058106963 0.08838265 0.0136161 -0.062244702 -0.104177944 0.020845065 -0.031557668 0.17098626 -0.06790928 0.23611501 0.03919075 0.035932463 0.3517436
328 -0.009003124 -0.027490288 -0.2279681 0.21046928 -0.027251594 0.0027445098 -0.14952153 0.014046997 -0.069071494 0.28432837 0.12037467 0.07282632 -0.46508154 0.11942805 0.28890184 -0.27285475 -0.18424049 -0.055965092 0.039496005 0.030739684 0.13607724 0.094382435 -0.07062709 -0.019740991 0.033106208 0.0134607125 -0.012037499 0.113932684 0.021941364 -0.17711447 0.43389168 0.10216171 -0.33434743 -0.08069373 0.12581955 0.13052608 -0.056810282 -0.05537784 -0.09845744 -0.25218436 0.054673888 -0.19982617 0.08607084 -0.17045155 -0.14789085 5.7195008e-05 -0.03389254 0.28105912 -0.06946427 0.048624672 0.010852904 -0.16647515 0.052641254 0.103947684 0.17069557 -0.05240658 0.044330608 -0.034065172 -0.03471944 -0.12553476 -0.22481959 -0.19303246 0.04596556 -0.04710058 -0.0151897585 0.41944942 0.43937197 -0.0025843394 -0.06934577 0.2839517 0.16010024 0.12710336 0.07532622 0.09979596 -0.1573092 -0.09660394 -0.035192907 -0.012273462 -0.11307568 0.21514244 0.14522742 0.122361965 -0.15991019 0.15391834 -0.15141267 -0.26270023 0.12709431 -0.18539327 -0.08428667 -0.21204539 -0.06803325 -0.2542164 0.2616296 -0.048279725 0.06572096 0.045831814 -0.16671905 0.1261902 -0.11059098 0.22846879 0.0974279 0.036693517 0.09173466 0.11774746 0.07013771 -0.17110994 -0.023251861 -0.29078186 0.048371926 -0.050140217 0.10070367 -0.037423957 -0.049694557 0.25610796 0.09530263 0.13763957 0.21425529 0.10922762 -0.419942 -0.10133314 -0.0042682136 -0.1836117 -0.040826812 0.07108294 -0.013054883 0.26786074 0.34369767 -0.083535105
380 -0.20487149 -0.057657294 -0.22890955 0.12663959 0.18736683 0.041011397 -0.30651483 -0.23696277 -0.13539994 0.06390311 0.13423498 0.208225 -0.05380954 0.15529603 0.19350307 -0.1350812 -0.18964647 0.013127209 0.36638173 -0.08574334 -0.15288827 -0.018214248 0.1512044 0.04614244 -0.20500097 -0.30516404 -0.091443494 -0.16530591 -0.22371589 0.14198044 -0.27151164 0.052912187 0.032096818 0.07786605 0.0258658 0.09608794 -0.14678177 -0.015376865 -0.19757815 -0.07433333 -0.13011906 -0.03824819 0.17076859 0.08247177 0.058103923 -0.025476946 0.030968357 0.16443516 -0.180233 0.19085927 -0.09282353 0.11572083 0.0542989 -0.42501876 0.095595196 0.4717696 0.15710716 -0.039886117 0.18748328 -0.20034988 0.16137943 0.084378935 -0.05378976 -0.10551615 0.11125671 0.118927084 -0.11003483 0.25424525 -0.43927124 0.18803014 -0.12694499 0.25230712 0.32682598 0.08722123 0.1063222 0.095822826 -0.22480261 0.108406685 0.23414119 0.025015675 -0.00084153947 0.25372347 0.0212364 0.2504283 -0.205331 -0.08295413 -0.17990586 0.1448483 0.015206313 -0.22640605 0.2516561 -0.2109653 -0.04154899 0.21435492 -0.08758645 -0.03511258 -0.20092425 -0.03105913 -0.027885212 -0.17818964 -0.14387158 -0.31318232 -0.30312183 -0.090027794 -0.17263238 -0.09235448 0.24069937 -0.009780192 0.388101 -0.036538847 0.16489154 0.3687762 -0.28095114 -0.20317484 -0.1052342 0.19285744 0.27404788 0.019868147 0.11844841 -0.23949626 -0.2522191 -0.1203665 -0.021762682 0.0794303 -0.19197893 0.18415928 0.07508021 0.19383208
698 -0.044417176 0.009146551 -0.4311795 -0.1687247 0.2636125 -0.162743 -0.17570324 0.069573544 -0.16220291 -0.15243426 0.029015293 0.08319471 -0.1695791 0.0639464 -0.039503194 -0.010782953 -0.06200065 -0.04173094 0.24434742 0.14879556 -0.18531837 -0.06524967 0.01769968 0.15493047 0.028522795 -0.0009927718 0.034953028 0.16379707 0.04759119 0.20871744 0.05107342 0.018612524 -0.3284788 -0.17712763 -0.19595264 -0.0043667234 -0.19690667 -0.13382345 -0.06295073 -0.22656998 0.27972952 -0.026449447 -0.025167692 -0.024950132 0.08225687 -0.14620654 -0.35890827 0.22838825 -0.09205102 -0.00013446335 0.01797326 0.14869179 0.11626108 -0.18798794 -0.057079487 0.06336965 0.19129278 -0.058684487 -0.03694172 -0.3166749 -0.28570527 -0.20153894 -0.11308492 0.36919662 -0.00069690926 -0.16517648 -0.0057363627 0.2921136 0.08370335 -0.068653844 -0.25447658 0.3096704 -0.044812486 -0.12330468 0.23989499 0.09342276 0.028581018 0.16318904 -0.046225075 0.07569807 0.07203969 0.12577793 -0.31566474 -0.15949312 0.1927029 -0.22087173 0.25166094 -0.31748793 0.13378415 -0.16525559 -0.054641914 0.28496116 -0.002431918 -0.15179461 -0.064461604 0.023423433 -0.17805687 0.06644612 0.20007062 -0.09267862 -0.20183462 0.116415516 0.11482769 -0.08637033 0.093325965 0.2212922 0.55790335 0.13728744 0.17973348 -0.1251479 0.24267904 -0.16418271 0.17923848 0.17522278 -0.26008058 -0.11957962 0.1536335 -0.23256136 -0.14202623 -0.10316877 0.18044043 0.058054097 0.08504528 0.24987325 0.2620204 0.29564014 0.066964775 -0.055707525
415 0.261062 0.005257258 -0.36090878 0.07727857 0.006113204 -0.24525267 0.15444112 -0.106119506 -0.3127482 0.080122486 0.057312552 0.01033965 -0.16743791 -0.32544038 -0.10011812 -0.09697144 0.12809467 0.130977 0.5619823 0.05986772 -0.2744274 -0.3165248 0.08681813 0.14511812 -0.15209785 -0.101641655 -0.042608045 0.16499418 0.22659466 -0.037428968 0.07267898 0.049866952 0.15912543 -0.16046926 -0.07119798 -0.1817634 -0.06482257 0.059057787 0.21546683 0.04778821 -0.18457505 -0.059771616 0.20970783 0.051180955 -0.0500258 0.07756012 -0.18923111 -0.03958194 -0.08174663 -0.08608874 0.052353527 -0.124983296 -0.26129633 0.04882977 -0.037728712 -0.09249712 -0.11491977 -0.00010203263 0.06905767 0.013143905 0.09106576 -0.25534678 0.30125028 -0.21882679 0.18314983 -0.08668695 0.25718144 0.2524151 -0.17736423 -0.02341828 -0.12072379 -0.03344881 0.07724631 0.1661548 0.042790588 -0.1681747 0.2608223 0.41428787 -0.095544584 0.19817325 0.23834617 0.042708993 -0.124268346 0.1588442 -0.1580499 0.050975062 0.33517745 -0.05606102 -0.045586668 -0.16448934 -0.2102695 -0.13331029 -0.07506192 -0.11566098 -0.06276274 0.14244881 0.10359369 -0.13039018 0.2719612 -0.07013731 -0.2598687 -0.22253127 0.053423338 -0.15009591 0.23241195 0.07090507 0.2133784 -0.13628368 0.10514021 0.024272019 0.3481231 0.41654536 0.10470473 0.38148412 -0.2441792 0.028187355 0.06512735 -0.16840185 0.2526521 0.13075468 -0.14032933 -0.12739067 0.2713023 0.0069941897 0.12112525 0.07071025 -0.1544817 0.172027
177 -0.25979906 -0.0041299076 0.06371691 -0.35195693 0.07190731 0.07102957 0.21319906 -0.02739309 -0.048560303 -0.021252971 0.13885881 -0.07803759 -0.24800706 -0.003751634 0.106140114 0.027177079 0.030928127 -0.07417301 0.59728724 0.29661015 -0.25659686 -0.22903292 -0.13964087 -0.06566347 0.123496205 -0.27536514 -0.12371097 -0.19136398 -0.18698548 -0.13645189 0.23507462 -0.0951347 0.041958112 -0.002506913 -0.37313363 -0.009176843 -0.04104916 0.1461692 0.12654874 0.1400649 -0.09177914 0.2501097 0.2619976 0.06433553 0.09018715 0.09125684 -0.12681913 -0.1684574 0.14487353 0.28945568 -0.16253455 0.19739951 -0.27524084 -0.25947434 -0.20259294 -0.09921558 -0.012703898 -0.14832333 -0.015145545 -0.17158051 -0.26482037 -0.040150348 0.08895461 0.0026814984 0.122726195 0.093172394 0.11213537 0.36296946 -0.20412888 -0.20475729 0.27581146 0.0040668948 0.06644862 0.12030883 0.31795198 -0.0050883074 0.16693296 0.15386228 -0.18332954 -0.15215132 0.089411706 0.00030865349 0.0136182625 -0.20515595 -0.26308748 -0.37147292 0.35772568 -0.24717218 0.04409065 -0.07133278 0.085453354 -0.08140448 0.2799382 -0.10326341 -0.17556465 0.033799347 0.18027003 -0.23906812 -0.16965547 -0.09876032 -0.096711606 0.030087728 0.050141294 -0.21555667 0.024984188 -0.105811425 0.42064178 0.03247127 0.19957334 0.22026962 0.045040224 0.1245576 0.04592554 0.35378364 0.2533575 -0.32004803 0.037684824 0.20603037 0.08896171 -0.030244734 -0.25439584 -0.16791536 0.07649978 -0.2460191 0.24002321 0.24511515 -0.108777955 0.091909006
381 -0.10827493 -0.16120343 -0.06532461 0.021274677 -0.20293328 -0.009550877 0.31233874 -0.2927193 0.06335659 0.13668728 0.21921812 -0.07752794 -0.038143612 0.0052834493 -0.23043282 0.0828066 -0.09617355 -0.015420578 0.40844917 0.07743517 -0.23273695 -0.17748898 0.15848128 0.3028055 0.002794043 -0.23553185 -0.20257016 0.07339155 0.025233854 -0.11367102 0.35646698 0.11754233 -0.07595287 -0.26752597 -0.029686322 -0.17981945 -0.2647243 -0.31572634 -0.09813633 0.07836582 -0.12513646 0.31668442 -0.023996474 -0.08057057 -0.18302847 0.13508895 -0.35763955 0.13363573 -0.10619515 -0.0424243 -0.19148283 0.015009461 0.018389856 -0.09353634 0.17507039 0.028684745 0.2200175 0.2338952 -0.06937401 -0.18358816 -0.044537168 -0.061641254 -0.06675482 0.14276125 -0.0069712894 0.08287223 -0.24032196 0.11935146 -0.20440459 -0.20493415 -0.19207928 0.14472017 -0.12559623 0.10343435 0.13495527 -0.34550267 0.291687 -0.043674562 0.048440244 0.07740293 0.24148464 0.03308993 0.09377834 -0.24876592 -0.260523 -0.068030804 -0.036734503 -0.19052795 0.009175103 -0.20226492 -0.08295719 -0.099280015 -0.034467757 0.20989467 0.21248604 0.19272123 0.19883296 0.13186228 -0.113199875 0.24081922 -0.03195059 -0.057725687 0.30656564 -0.36915872 -0.049717374 -0.18310568 0.38404956 0.18985143 -0.008885502 -0.08890902 -0.011340649 0.17355454 0.23763964 0.17305079 -0.07689949 -0.062486686 0.033595707 -0.08305294 0.20312592 -0.1589333 -0.037470087 -0.07427676 0.01759652 0.057712268 0.24353643 0.1239342 -0.055223167 0.30049562
 0.13573456 0.2948948 -0.23341069 -0.0008447198 0.3139015 -0.21703377 -0.060214154 0.17646778 0.04685547 0.17382985 -0.043655924 -0.29919586 -0.007675497 0.31554553 0.0040924833 0.07466142 0.06986464 0.0878632 0.3419821 0.20960438 -0.47807717 0.07358072 -0.09630229 -0.024398314 0.19128011 0.06258775 -0.21188378 0.41101098 0.12865524 0.29620466 -0.069190815 0.05022567 0.09797595 0.08200024 0.15775174 0.12741019 0.060397003 -0.08908348 0.059238665 -0.06541386 -0.19627519 0.14931622 0.015578362 0.0041555455 0.058626775 -0.116731726 -0.037624463 -0.31342208 0.16079685 -0.17347744 -0.17863162 -0.17295273 0.0009770568 -0.1703043 -0.2010259 -0.1229461 0.46482772 -0.18753727 0.38203588 -0.50808936 -0.34585777 0.013421183 0.17856537 0.028881136 0.43111333 0.114291616 0.13193351 -0.27892134 0.19169056 0.32068372 -0.08077289 -0.010197986 -0.17860073 0.4401611 0.18573017 -0.12803185 -0.04948452 -0.05662476 -0.07500149 0.0072672763 0.06561476 0.12348836 0.14087133 -0.10575021 -0.2325487 -0.015825413 -0.24124645 -0.012978889 -0.008930819 0.2358726 0.70899963 -0.08081023 0.011918726 0.21733984 0.31648138 -0.23348455 0.17601751 0.22370413 0.080258526 0.021026636 -0.2328821 -0.52585745 -0.32891068 -0.2604242 0.022497168 -0.08162072 -0.05827572 -0.2298188 -0.115688965 0.10084415 0.27832985 -0.029513206 0.013016712 -0.09210368 -0.12957676 -0.45184627 -0.019636922 -0.19137682 -0.14603208 0.326755 -0.018958583 0.042530563 0.26446655 -0.11210987 0.106002234 0.26164615 0.05432132 0.1513138
809 -0.10193154 0.02433216 -0.26423445 0.14987722 -0.18008001 0.05878951 -0.20720884 -0.20515308 0.11096897 -0.10605745 0.090075225 0.06461644 -0.09155092 -0.13496162 0.2155692 -0.22492038 -0.3992946 -0.1481101 0.06649822 0.05180874 0.09099821 0.20859392 -0.033530213 -0.085267134 0.03289366 0.27899474 0.008452072 0.075582825 -0.099554114 -0.004548656 0.17321299 -0.0052512465 -0.010931776 0.018435614 0.020234581 0.29799008 0.15535489 -0.03107213 -0.17557646 -0.07659161 0.15250732 0.053025674 0.23089835 -0.12654616 0.16622846 -0.22470084 -0.04613718 0.30224094 0.08757958 -0.009902196 -0.007164596 0.046981566 0.10052917 -0.28404617 0.11217911 0.2953286 0.14177705 -0.09430811 0.03345065 -0.17495385 0.0507633 -0.1691254 -0.05526376 -0.09793224 -0.29975197 0.024774017 0.41939622 0.070798345 -0.12248894 -0.05820376 0.4891187 0.35877222 0.05691775 0.13393356 -0.021602293 -0.20191117 -0.20693268 0.47596243 -0.023855058 0.15526782 0.18485768 0.20388319 -0.4197568 -0.14163613 0.15689874 -0.14743134 -0.17584746 0.21260916 0.08711569 -0.1898535 -0.21429053 -0.41367987 0.3459932 -0.09210865 -0.12745704 0.2319061 -0.25761843 0.03882577 -0.045522913 -0.018501103 0.06798937 -0.048646927 0.07510055 -0.1055324 -0.019985773 -0.24349183 0.452868 -0.09510891 0.12142544 0.20057186 0.13596454 -0.059652917 -0.103530385 0.15381543 -0.23895563 0.20753315 0.26309457 -0.012963299 -0.123286605 -0.08424998 0.12987384 -0.22622156 -0.12463464 -0.021263238 0.09057698 -0.22168769 0.113772556 0.0958497
623 -0.09631543 0.28949502 -0.18133293 -0.1259379 -0.0829032 -0.21557105 -0.034426928 -0.0015157473 -0.10405348 0.33071038 -0.10438342 0.116712555 -0.22125983 0.08635861 0.06045542 0.06537251 -0.07175844 -0.033288203 0.25554278 0.074804634 0.05312858 -0.10631384 0.009829796 -0.021423703 0.0564163 0.015506656 0.010850583 0.21804054 0.0047822637 0.30230775 0.38904312 0.2576222 -0.16544756 -0.0603174 -0.030238518 0.046784945 0.2861669 -0.2543736 0.26863393 -0.20668541 0.04004394 -0.09596742 0.090317644 0.04635909 -0.105348945 -0.094562106 -0.07121457 0.27446806 -0.21231379 0.12084401 0.08601096 0.16171727 0.19721712 -0.070925415 0.17946921 -0.009861623 -0.104150884 -0.32147828 -0.06971293 -0.098475754 -0.13198632 -0.15749964 0.012288326 -0.032447103 0.28374192 0.26429304 0.48972076 -0.08688551 -0.042252645 0.0033812274 0.053357184 0.03340141 -0.0006293961 0.12637468 0.18001269 -0.16133857 -0.23895943 -0.04716104 -0.1350577 0.1408789 0.0364014 0.012353448 -0.2625055 -0.07005457 -0.024211157 0.09402487 -0.039169915 -0.06612643 0.046039138 0.108940266 -0.17739227 -0.23462123 -0.0091179535 0.161479 -0.14462829 0.27763698 0.016041849 -0.15319383 -0.13609788 0.06737996 0.30025467 -0.033450153 0.0506104 -0.03791641 -0.0034850212 0.007800291 -0.021590488 -0.41016275 -0.25344238 -0.03173139 -0.07844861 -0.17941162 0.004092937 -0.16049382 -0.04241595 -0.11795934 -0.029645562 0.10354936 -0.26883456 -0.015881022 -0.19204067 0.005317116 -0.12688321 0.18906666 -0.16749343 0.19727601 0.29886946 0.18774474
852 0.054405313 0.2710134 -0.24797167 -0.19139855 -0.10541472 -0.18343303 0.0022022072 -0.0003444146 -0.1302276 0.3976596 -0.12622802 0.14484772 -0.19557802 0.07386143 0.017169869 0.124837965 -0.07494404 -0.017035186 0.3159163 0.0003464861 0.038445257 -0.06847624 0.051386274 -0.0069380593 0.09615706 -0.00834704 -0.014851192 0.34565187 -0.03454199 0.31001797 0.39695677 0.35745415 -0.23812072 -0.10341519 -0.03572843 0.017650682 0.34382287 -0.29881668 0.16124235 -0.14708635 0.11202049 -0.08488171 0.036031272 0.09427141 -0.18575971 -0.026354736 -0.08850957 0.27508625 -0.27385384 0.2147293 0.05097089 0.20031196 0.15062547 -0.10332446 0.17888235 -0.03195509 -0.0813099 -0.27958512 -0.084202245 -0.0665592 -0.18727045 -0.17977081 -0.062028613 -0.08519583 0.26169786 0.21459992 0.45384791 -0.09474556 -0.056952007 -0.03592416 0.09656188 -0.017457696 -0.019773735 0.11876098 0.048765603 -0.10755086 -0.24768569 -0.029781606 0.013380665 0.20330091 0.013363036 0.056364354 -0.28710014 -0.17456548 -0.068114534 0.09744892 -0.046724934 -0.028582174 0.06359432 0.0999083 -0.10312684 -0.16232157 0.04987082 0.13027672 -0.180453 0.27075392 0.08235762 -0.08724174 -0.11584945 0.00931885 0.30537835 -0.10085053 0.0097173285 -0.084831156 -0.016041147 0.030656524 0.05267317 -0.3998399 -0.3157469 -0.04761556 -0.0012339316 -0.13766664 0.013183997 -0.08157647 -0.027528148 -0.12482278 -0.047926694 0.19381456 -0.23831509 0.06644235 -0.22242706 -0.034178052 -0.087831475 0.15193002 -0.16625527 0.11736487 0.27266642 0.15363967
266 -0.21769276 0.027295858 0.0013135711 -0.11096347 -0.10813759 0.022864198 0.10897631 -0.036486167 -0.15023331 -0.11405963 0.12576064 -0.009689147 -0.042092647 -0.15796609 0.11272991 -0.21308772 0.16037315 0.081888035 0.3118452 0.20374681 0.07088234 0.09992204 -0.008381723 0.16613841 -0.06460697 -0.15550305 -0.035692483 0.16560301 0.2747324 0.20306182 0.6104913 -0.021682873 -0.10256557 0.02802896 0.025536112 -0.21947198 -0.09497295 -0.24419506 0.056375965 0.31160355 -0.35959268 -0.003931881 -0.45599493 0.20593236 -0.07421873 0.26352048 -0.111894324 -0.10871724 -0.2113693 -0.045158423 -0.1373037 -0.02257485 -0.19530196 -0.2977251 -0.14867724 0.07407813 0.24942033 0.119201526 0.21028973 -0.3740398 0.09126802 -0.06888865 0.064085856 0.25041252 0.10067171 -0.09239797 -0.12657073 0.16109775 -0.3645333 -0.025473421 -0.09699705 0.20092697 0.3327187 0.08570729 0.3095629 -0.3125613 0.17316285 -0.039673775 -0.074267305 0.35484326 -0.04807751 0.19541274 -0.45074192 0.050186444 -0.21036422 -0.36188874 0.32701805 -0.14743184 -0.19000846 -0.020833278 0.007320349 -0.01893421 -0.010041096 0.1638816 0.047187064 -0.16086678 0.13808681 -0.294774 -0.008268591 0.14132884 -0.11680008 -0.00040312397 0.14988917 -0.12514588 0.06955994 0.1656149 0.14855072 -0.31203145 -0.009470102 0.444608 0.1286561 0.41798493 0.20328957 0.05584689 0.019735388 -0.043458343 0.16601697 0.042020094 -0.07993062 0.22876722 -0.3505266 -0.3514715 0.010947411 0.12636372 0.19755834 0.10225453 0.26456273 0.0089440495
172 0.24456877 0.035914287 -0.1974146 0.07387856 0.17124206 -0.122575544 -0.12469403 0.03672867 -0.21643822 0.3868309 0.23319896 0.19258228 -0.153964 0.38315505 -0.22529505 -0.28375238 -0.16854782 0.074713975 0.33945498 -0.051100876 -0.1494195 -0.1187986 -0.13054433 0.12179446 0.05433583 -0.35646328 -0.27425954 -0.41435972 -0.21830049 0.16695811 -0.30458647 -0.16944069 -0.20648298 0.22645645 0.011148834 -0.072877295 -0.04428598 -0.080089234 -0.032053545 -0.033942584 -0.19435047 0.14578283 0.25998166 -0.1558636 0.042354252 0.26390404 0.028457047 0.15158466 -0.24760184 -0.12577285 -0.17556421 -0.04512538 0.095016114 -0.15166102 0.20086977 0.3393644 0.1422528 0.15598784 0.166506 -0.1686285 0.08447456 0.034713615 0.08316462 0.05458252 0.18316863 0.13736056 -0.2600305 0.15192665 -0.31587258 0.27471584 0.13590826 0.2312861 0.3141119 0.13962802 -0.044533543 -0.045416582 -0.44168696 0.5684029 -0.33743674 -0.09765366 -0.31344602 0.047059514 -0.20498674 0.22315522 0.34908825 -0.1728996 -0.44357765 0.1078458 -0.008780988 -0.3955728 -0.004333475 0.1557918 0.17519225 0.11651017 0.0064857625 -0.100686535 0.12534417 0.011555641 0.2597628 -0.21683496 -0.11496649 -0.26790217 -0.048743583 -0.459797 -0.28532907 -0.21439798 0.24990357 0.010853215 0.35747012 0.25456312 0.18483426 0.048477016 -0.15502325 -0.13102287 -0.058446433 0.2894244 0.25653827 0.15503383 0.19930644 0.13732031 -0.23600128 -0.05558126 -0.237779 0.040387988 0.016059436 0.056592755 0.15643573 -0.19563088
256 -0.21410623 0.1817048 -0.41918683 0.0642459 0.2552867 -0.04543847 -0.0070176143 0.20408092 -0.091105275 -0.033090632 -0.06988619 -0.061899964 -0.088439174 0.37152624 -0.0024421574 -0.10752206 0.013926814 -0.09003802 0.032528672 -0.0492576 -0.0125461705 -0.13958868 0.024717826 0.011794061 -0.08395903 0.14423847 0.17959023 0.039069466 0.14931493 -0.102076545 0.07853129 -0.10623263 -0.3913866 0.22258547 0.14488618 0.11730203 0.054724604 -0.037978284 -0.14542288 -0.0025356805 0.08663908 -0.11187845 0.2340365 0.24107018 -0.04459618 -0.23636296 -0.2346983 -0.16093373 -0.20603848 0.08262358 -0.14730774 0.14369376 -0.21009515 -0.05421639 -0.04017973 0.23390624 0.11864991 0.23621325 -0.06947523 -0.15262064 -0.098562755 0.007470589 0.22765256 -0.17775719 0.31411836 0.11266369 -0.048412897 -0.18849914 -0.24331172 0.33712262 -0.11856675 -0.3392479 0.38675013 0.15029486 0.15552619 -0.2995116 -0.37803024 0.220545 0.10326587 -0.2573174 -0.072984844 0.20940803 -0.059914965 -0.26822495 0.22171816 -0.39227334 -0.46125817 0.09431332 0.2145269 0.070684716 0.10385558 -0.32936016 -0.00090794207 0.043971222 -0.07191706 0.27700353 0.1085211 0.033880137 0.16554402 0.19992676 0.27647057 -0.083350055 0.3381174 0.19363533 -0.3032288 0.004824682 -0.20840369 -0.058099996 0.29392937 0.16374332 0.33179957 0.3548708 -0.5422055 0.059262495 -0.11387023 0.27053472 0.3419064 0.12337592 -0.035103083 -0.09818289 -0.06492073 0.15272781 -0.40142322 0.4961888 0.19146796 0.018058127 0.07425635 0.2112879
14 -0.15804419 -0.07207229 0.276453 -0.022917602 0.08643391 -0.035943694 0.23607703 0.18103349 0.15318148 -0.028053114 0.04140126 -0.009405765 -0.15792291 0.022437653 0.034097105 -0.22280844 0.12323934 0.19795528 0.14422363 0.112016045 -0.069826744 0.21857029 0.046572547 0.3197849 -0.059356235 -0.23118006 0.04731762 0.16668887 -0.12700954 -0.0711953 -0.16347754 -0.15230015 0.18008402 -0.31311283 -0.036421392 -0.024117742 0.24877732 0.06377154 0.052720536 -0.061476275 -0.34467468 0.16743386 -0.053315554 0.0395555 -0.2645382 0.31869176 -0.36320835 -0.022305615 -0.06304927 -0.0990389 -0.032059204 0.20639102 0.022831548 -0.00058739795 -0.15074031 -0.00015386855 0.098390035 -0.24936444 0.052136034 0.050316576 -0.39044812 -0.10703135 0.108193964 -0.2950919 0.060244616 -0.1641089 0.17694889 0.30683228 -0.21622847 0.12535965 -0.061946366 0.10680501 -0.056779157 0.31467927 0.2960392 0.0002974706 0.11947611 0.14275049 0.13393922 0.35078698 0.16248056 0.069953635 -0.38528422 -0.027412692 -0.31506735 -0.033273112 0.06626935 -0.044400014 0.09665842 -0.03521109 -0.047948007 0.11999502 -0.2000088 0.06256351 -0.19183677 0.4816301 0.13089602 0.033659495 -0.066823445 0.069505826 0.05160179 0.117813654 0.37561002 0.16145955 0.045659173 -0.076005764 0.3733832 0.20141762 0.056073055 0.22920312 0.20774435 -0.052506674 0.21854283 0.23047921 -0.09674433 0.21352361 0.14731535 0.13304444 -0.13781232 -0.26812625 -0.5558573 -0.21439591 0.48437643 -0.013394735 0.33563703 0.32667038 0.07865828 0.10074023
842 -0.08295621 -0.05626661 -0.25103778 -0.29450947 -0.15081178 -0.20087485 0.22645351 -0.005270038 -0.056549158 0.18978786 -0.0011958611 -0.08289904 -0.12533292 -0.21664724 0.29015854 0.024181562 -0.060437843 -0.3993448 0.049861606 0.27180624 -0.1073537 -0.031770945 -0.18876246 0.17464986 -0.1716555 -0.024154756 -0.022586463 0.3955099 -0.26292324 -0.05726521 0.4963704 0.1012179 0.06747802 -0.11851855 -0.013775883 0.025768828 -0.21071889 -0.26759794 0.20051818 0.16673626 0.07415495 0.5778151 -0.058508668 0.102538325 0.2181971 -0.006709276 -0.21507864 0.15775959 -0.05141534 -0.2154762 -0.20271361 -0.04344059 -0.040268835 0.13936162 -0.12866172 0.008101055 0.19308507 0.009540197 0.14533228 -0.20887154 0.057895403 -0.051137984 0.11168939 -0.12763594 -0.2686099 0.20551611 0.21220315 0.14897291 -0.27617174 0.106915966 0.01353192 -0.10859673 0.1935452 0.20223786 -0.021137714 -0.28764787 0.30029622 -0.13887683 -0.13785903 0.46782514 -0.106035344 -0.02281836 -0.19282857 0.19771895 -0.07030178 0.0045040003 0.005186408 -0.20351455 0.2890064 -0.029286351 -0.12846415 0.022787163 -0.10505845 0.04372151 -0.07122609 0.27579018 0.20750606 0.045131665 0.13053647 0.15789922 -0.022559201 0.155359 0.037861913 0.13531877 -0.07389265 -0.056093067 0.2919863 -0.1726179 0.27839616 -0.01394483 0.1953657 0.053423908 0.087583445 0.13481902 0.2603441 -0.06882699 0.3001794 0.16030593 -0.022403345 0.031531025 -0.21420072 -0.025930012 0.17386863 0.0467327 0.22225259 0.3402716 0.2364353 -0.046846423
382 0.025951538 -0.009646419 0.36789328 -0.14293498 -0.15210102 -0.21916883 -0.13899699 -0.13418621 -0.38902128 -0.04796746 -0.20273402 0.14368694 0.07209832 0.019425847 -0.044834726 -0.21952076 0.52994436 0.00990087 0.059944887 -0.07582241 -0.07125356 -0.20831431 0.26077282 -0.20275696 0.28107658 0.07350825 0.43516055 0.34534636 0.19720408 0.0483584 -0.023348235 -0.14497054 -0.05516595 -0.04150788 -0.3453619 -0.05066034 -0.14170966 -0.051283095 0.026777644 -0.08327146 0.11012663 0.10077359 0.05040068 0.15347219 0.07071365 -0.28715736 -0.32037163 -0.18764925 -0.29303217 -0.1130949 -0.12155317 -0.21151067 -0.052664317 0.3219876 0.1129157 -0.03207388 0.08505657 -0.36382428 -0.042051457 -0.19133846 -0.5972464 -0.09060817 -0.04864667 -0.034435723 -0.063882396 -0.16247708 0.32221845 -0.007644678 -0.14496364 0.029861666 0.14228538 0.4243233 -0.103606194 -0.041125495 0.06529853 -0.47759932 -0.16471125 0.03499912 0.10530148 -0.046521522 -0.3722865 0.22920607 -0.11782782 0.14548822 0.108119324 0.13957329 0.07026269 -0.30080602 0.13046564 -0.26463756 0.11679843 -0.4214527 0.43136334 0.37937394 -0.061344903 0.027994053 -0.22442181 0.14756308 -0.3513207 0.51546997 0.46047977 -0.12902394 -0.47603446 -0.28306043 -0.008837302 0.18217754 -0.060632464 -0.23543699 0.14904328 -0.37076586 0.19393218 -0.23215097 -0.05712827 0.17099795 -0.0564509 -0.19459751 0.26839414 0.08279654 0.028403686 -0.010424721 -0.03577845 0.48371068 -0.35092145 -0.069019325 0.6683075 0.1002873 0.4589845 -0.05643118
521 -0.03499274 0.05290974 0.3373013 0.1278159 0.0644762 -0.36198542 0.332358 0.40698844 -0.3396048 0.17432226 0.27030993 0.01864207 0.027954424 -0.30174264 -0.12581111 -0.050851464 -0.09927367 0.08207982 0.20597278 0.23671365 -0.2395522 0.042802908 0.024573531 0.22160158 0.00024928036 0.24912578 -0.16671026 -0.17798103 -0.098906875 -0.06821891 0.010319914 0.17383598 0.028120978 0.05947023 -0.11908987 -0.39215073 0.20378175 -0.04233182 -0.2516374 -0.12113845 -0.26227945 0.3124484 -0.3308575 0.0013613144 0.33415794 0.32728577 -0.46773192 -0.19923536 -0.26836324 0.07441849 0.055062354 -0.114693865 0.2640714 -0.3734221 -0.05393379 0.018229512 -0.08358643 0.119845696 0.1341928 -0.2900901 -0.18252084 -0.13397652 -0.07550949 -0.05624437 0.11076362 0.23628509 0.04288642 0.32046857 -0.26906696 0.22446026 -0.14307278 0.30326292 0.10599793 -0.008853412 0.3768176 -0.13421135 0.44333267 -0.0012365924 0.2745696 0.0237001 -0.17784394 -0.17697076 -0.45088238 0.09784115 -0.11149166 0.0018512557 0.31481984 0.21498792 0.022947462 -0.29778013 -0.026860902 0.026941016 0.26965126 0.21655944 -0.2462902 0.13084398 0.22446606 -0.054364648 -0.1026701 0.014046085 -0.30788878 -0.21023081 0.27972046 -0.28134593 0.056716885 0.012998378 0.122507185 -0.13865559 -0.07587014 0.18567498 0.36741784 0.11624142 -0.19710295 0.42958152 0.10249259 0.17664927 0.109892726 0.0026039432 -0.021352265 -0.038518652 -0.2933464 -0.07540617 0.28353655 0.13327423 0.12493952 0.1275276 0.32317314 0.2015632
832 -0.06797405 -0.16918676 -0.102200314 0.052008174 0.08651751 -0.14324495 0.09607395 -0.072551504 -0.047237244 -0.3285488 -0.17263564 -0.015824841 0.07651639 0.09632206 0.122451454 0.04643872 -0.118397675 0.07813165 -0.3096644 0.07028783 -0.033397004 0.026819587 -0.081832595 -0.09192925 0.13884306 0.044856165 -0.45367274 0.11655081 0.26446223 -0.21351466 0.26942474 -0.026729735 0.34410504 -0.010851307 0.34319592 -0.2620841 0.007514657 0.1809073 0.022155058 0.065911725 0.11938873 0.113147505 0.3668671 -0.03272635 0.1303227 0.073280685 -0.20350462 0.08808755 -0.25739694 0.36644703 0.04753825 0.2208534 0.13628066 -0.19241332 0.2586462 -0.015376071 0.019334884 -0.22633713 0.19013727 -0.2994475 -0.022638375 0.090592355 0.14074898 0.070989735 0.03839315 0.15252756 -0.008402549 0.2754658 -0.1363287 0.033997826 -0.116776906 0.12461479 -0.22013423 0.447575 -0.12796818 -0.12625997 0.18536256 0.69214463 0.19771804 -0.15661278 0.36337265 0.07715013 -0.14555576 -0.2682711 -0.059969615 0.15431497 -0.04961303 -0.21577545 0.30525634 0.25675347 0.070121616 0.31589422 0.25585622 0.09568403 -0.042517442 -0.010802633 -0.27106732 0.07924661 -0.09616534 0.037029304 -0.43806708 0.018375695 0.12027192 -0.16030629 0.25225744 -0.24550222 -0.1782396 -0.20487 0.14392245 0.028478993 0.21304058 0.06302272 0.13041295 -0.12181893 -0.22979479 -0.1911402 0.25431547 0.532945 -0.156129 -0.14997418 -0.25109735 -0.16787125 -0.10065102 0.17090966 -0.0034556885 0.068023056 0.104985766 0.1582257
582 0.15331163 -0.20822895 -0.049476653 -0.18037294 -0.12152205 0.17713575 0.09511391 -0.395574 -0.30491415 0.28397143 -0.15387625 -0.1578552 -0.03508116 -0.014407245 0.18713617 -0.23514207 -0.106995136 0.042199574 -0.19950333 0.08620767 -0.14559387 -0.34785986 -0.24162708 -0.1413223 0.3379744 -0.24417536 0.18068574 -0.013715314 0.17183031 0.24379776 0.29894468 0.06367349 0.030362 -0.17317571 0.148518 -0.22528146 0.1468391 -0.03375001 -0.13177876 0.12589402 0.22912969 -0.145217 -0.21398881 0.10419083 0.09768314 -0.07046518 -0.25701508 0.04330673 -0.019468522 0.08812804 -0.06266406 0.0982564 -0.076299325 -0.07878 0.14582536 -0.2861622 0.32065815 -0.38340545 0.40382785 -0.10172181 0.074121356 -0.44199064 0.2843052 -0.14216453 0.03726633 -0.032124095 -0.015082572 -0.009974151 0.083880134 0.13228154 0.051395554 0.10811543 -0.15065265 0.4521174 0.19493745 -0.03118874 -0.11677484 -0.092810646 -0.17962891 0.1646893 -0.14424029 0.025883986 -0.21565133 0.17983335 -0.05646415 -0.11825479 -0.010442392 -0.18966284 -0.1369864 0.06408853 -0.25790554 -0.05929075 0.42113245 -0.0419973 0.003506954 0.09734513 0.003766193 0.11731101 -0.3140576 0.29872552 0.28067216 -0.14937858 -0.39811686 -0.034535885 0.011160855 -0.2749249 0.11975468 0.09795296 -0.03907141 -0.10049301 0.42356548 0.27255234 0.079124264 -0.10770275 -0.11706594 0.31274515 0.09860315 0.275701 -0.33803728 -0.0987739 -0.09514587 0.48440188 0.05475245 -0.23141025 0.27098203 0.095838316 0.29498118 0.30335066
439 -0.038089406 -0.0026023095 -0.29687497 0.056079976 -0.14488827 0.40776587 -0.16125247 0.0118779875 -0.16336305 0.097316206 0.22118972 0.021845069 -0.0029202814 -0.06086522 0.37075648 0.079519175 -0.07313371 -0.08482092 0.28068563 0.22237504 -0.11782369 -0.05374483 -0.3069427 -0.11879993 0.010266426 0.30747116 -0.24284297 -0.04821632 -0.08293661 -0.12583771 0.35766453 -0.13993761 0.17744537 0.18072373 0.0896915 0.13240492 0.08576063 -0.06562299 -0.021987488 -0.16991438 0.3425582 0.20952423 -0.09630582 -0.05196804 -0.0197308 0.19449322 -0.044494156 0.18606102 0.031632055 0.007783541 -0.3152565 -0.03962666 0.2545844 0.060965728 0.23917593 0.10406145 0.14729148 -0.06620564 0.006134744 0.028921388 -0.053514227 0.20133202 0.13719699 -0.041461464 0.07599867 0.2815199 0.32605803 0.05183489 -0.38695434 0.29869387 0.10342223 0.15185867 -0.049796805 0.018026307 0.36651117 -0.16415459 -0.009472745 0.3670503 -0.027547127 0.37961018 0.2020788 0.3053519 -0.22640651 -0.3427497 0.22792311 -0.077245705 -0.11988459 0.020931931 0.18233895 -0.18884808 -0.24646355 -0.24110006 0.22450453 -0.15853183 0.04614821 0.081943765 -0.33733875 -0.050299294 0.19428816 0.009028403 0.013756112 0.032464962 -0.18549296 -0.07828462 -0.21307299 -0.23763292 0.28860775 -0.0094701275 0.24543837 0.07700432 -0.106742166 -0.13274038 0.16040164 0.23989825 -0.21271068 0.20464341 0.3129424 -0.18356378 0.0009060741 -0.19220562 -0.056741197 -0.25199685 0.018837662 0.18088768 -0.033804774 0.14865051 0.03773892 0.13038069
399 -0.33556488 -0.016005289 -0.15279084 -0.15127577 -0.22428675 0.080555536 -0.098972045 -0.35060027 -0.32646215 -0.100907244 -0.10017557 -0.14772616 0.09486566 -0.0086924005 -0.13741727 -0.304299 0.3211098 -0.10777857 0.24930395 0.040501386 0.03998498 -0.12898822 -0.09121809 0.14901614 -0.005082432 0.15824574 0.071440205 -0.2725922 0.10151681 -0.14943342 0.1586666 0.032296218 0.0027897018 -0.39777583 0.1474422 0.11270644 0.13036644 0.16792047 0.08310281 -0.059747167 -0.1080432 0.1523978 0.10888311 0.032007877 0.20673253 -0.036316123 -0.25959685 0.21092066 -0.18237954 0.03845985 -0.014190597 0.26679602 -0.3702141 0.2920848 0.13950849 0.11017009 0.2044021 -0.11651422 0.013911696 0.029989587 -0.36727253 -0.0008488475 0.29129192 -0.0027224356 0.027173648 0.032792512 0.08169809 0.32192242 0.044244494 0.14277016 -0.17582226 -0.022514597 -0.100843914 -0.0042576073 0.27091542 -0.27232206 0.08426728 0.10314524 0.07136774 0.6466501 0.14645194 -0.22636628 0.036248766 -0.072766446 -0.18165725 -0.13394031 0.23067276 0.0015647722 -0.0016672148 -0.1691109 -0.0049867993 -0.21544687 0.19175063 -0.08167945 -0.14104377 0.124601096 0.12946141 0.14039133 -0.15917157 -0.1288812 -0.3214166 -0.13552041 0.26549152 -0.20508559 -0.11361879 -0.4882414 0.4827447 -0.13890192 -0.18577588 -0.17097515 0.08265924 -0.28943723 -0.0005496192 -0.026828937 -0.040815588 -0.05046318 0.48135898 -0.25895745 0.07710905 0.0947237 0.07355662 0.05607161 -0.27754915 -0.21048039 0.17503542 0.38276315 0.32125515 0.042971198
48 -0.05971073 0.23376362 -0.110989176 -0.07125764 -0.15675573 -0.06732586 0.002316619 -0.10013551 0.028574198 0.2915777 0.014374014 -0.10160605 -0.34741104 -0.071652584 0.100581914 0.12170655 -0.28995794 -0.10563047 0.14644615 0.13728978 0.086926445 -0.0050065857 -0.21160732 0.049389992 0.06866583 0.2389683 -0.07460332 0.48135766 -0.3381081 0.18510398 0.34338832 0.13641518 -0.001227033 -0.18180278 0.3963199 -0.08220094 -0.058346435 0.097385265 -0.03354233 -0.12927715 0.07657815 -0.23563308 0.10742003 0.15879638 0.023883564 -0.09169874 -0.18212828 0.42607743 -0.18246824 0.002937866 0.1268199 0.32598194 -0.11208809 0.0076255966 0.16324066 0.38813907 -0.04617266 -0.15976337 -0.11403121 -0.26891032 -0.30092376 -0.11075274 0.10993142 0.07784243 -0.20509289 0.6101519 0.3833396 -0.003391711 -0.13299863 0.11229851 0.16524869 0.2067732 0.027344668 0.23533584 0.040151954 0.07649144 -0.37103274 0.3421901 -0.07636104 0.13982724 -0.16388297 0.22425419 -0.22556354 -0.0030814474 0.10135011 -0.023247376 0.007235374 -0.21527381 -0.05021589 0.15936266 -0.2706014 -0.36819175 0.060896102 0.02594774 -0.09682242 0.23874663 0.02772598 -0.17588036 0.057259545 -0.036640722 0.05611706 -0.057697263 0.047521915 -0.15736672 -0.10770152 0.061099343 0.17004149 -0.19720013 0.031113736 0.33884063 0.028778194 -0.2861874 -0.0622704 0.015837932 -0.16068183 -0.09309574 0.20822464 0.09564245 -0.08285397 0.027244475 -0.08427163 -0.10854454 -0.22753437 0.0958032 -0.3123435 0.3934967 0.42695376 0.13668838
338 0.070002206 -0.124553725 -0.042754725 -0.031075014 -0.246846 -0.25772324 -0.043606684 -0.09895831 -0.07819081 0.11639624 0.470198 -0.0043320865 -0.31124923 -0.3902497 0.23511036 -0.032401267 0.34900305 -0.15199225 0.28076392 -0.08716138 0.10124915 -0.06427165 -0.11233596 0.012662046 0.2316766 -0.27325505 0.060327355 -0.0023525425 -0.2620411 0.18416375 0.2561554 0.25679952 -0.29540583 0.1465304 -0.035273083 -0.10793769 -0.053790316 -0.33975196 0.21379781 0.0067035994 -0.2788197 0.22930062 -0.016315863 0.16851854 0.19286068 0.13130783 -0.34499535 0.1620804 -0.35077906 0.00742667 -0.007911282 -0.3014703 -0.16057774 -0.2313876 -0.002052048 -0.0006444476 -0.035918724 0.091655724 0.2499562 -0.30715883 -0.13089411 -0.050258383 -0.039493363 0.0042318352 -0.05159566 0.28451112 -0.40872857 -0.29518816 0.04885702 0.1454072 0.104599655 0.24071029 0.068915494 0.24463084 0.36288738 -0.17075081 0.14915417 0.15523991 0.1586864 0.30485034 0.025869753 0.09331008 -0.26144668 0.037852746 -0.07585427 0.18015485 0.27009395 0.119828835 -0.2602478 -0.2539607 0.1415407 -0.095089346 0.1484608 -0.26601174 -0.08474584 -0.015220998 0.013250027 -0.4861345 -0.07964042 0.102772586 -0.30764976 -0.21750426 0.25549817 -0.10165155 0.08867332 0.16560447 0.14609098 0.29170054 0.0874143 0.092501186 0.20916077 0.25390235 0.1729399 0.07418545 0.15749837 -0.14551772 0.18578026 0.24743569 0.1726875 -0.20559427 -0.31798983 -0.5037867 0.31466785 0.14861289 0.34707758 0.24988452 0.20881478 0.30432853
204 0.08327424 0.18658492 0.032706674 0.15604113 0.02338001 -0.36122543 0.3863636 -0.32563588 -0.100496374 -0.18879782 0.14456911 -0.117893964 -0.3527265 0.3284133 -0.026248543 0.05989741 0.4065355 0.13798432 0.548519 0.14319919 -0.23709981 0.23145106 -0.1328664 0.16683343 -0.13323468 0.22123797 -0.1505521 0.08435382 -0.3150975 -0.19688115 0.36324066 0.01659727 -0.00016256036 -0.4278807 0.14214267 -0.22153911 0.09652152 -0.090451226 -0.047730934 0.14496757 -0.044596788 0.38870248 0.04434737 -0.1001856 -0.18970196 0.2908255 -0.13878438 0.06867257 0.043172 0.05033287 -0.26867902 0.23947717 -0.5284525 0.33042076 0.39953193 0.22110492 0.2665251 -0.18830036 0.11381998 0.12294422 -0.791838 -0.25285965 -0.11886338 -0.016453864 -0.2914539 -0.14598939 0.21687168 0.39665648 0.24510118 0.18666926 -0.40765 0.3365836 -0.21210258 0.34797347 -0.19059284 -0.21833828 -0.14097908 0.6272107 0.081126876 0.019422702 -0.01899245 0.19738577 0.07711489 0.32972986 -0.030636383 -0.19762723 0.048774347 -0.012337742 0.34205064 0.23246385 0.087282814 -0.23862807 0.18176349 -0.38978896 0.1548436 -0.3826388 -0.12123818 -0.053512514 -0.5485109 0.26733646 0.15167394 -0.14338504 0.008117948 -0.1431849 0.08092255 0.08344479 -0.058171336 -0.36200532 0.14432777 -0.10597968 -0.098903395 -0.21333425 -0.25244027 0.37634838 -0.2684479 -0.0152795315 0.30988753 0.00818297 0.04211464 -0.2242552 -0.35521445 0.09693916 -0.18565546 0.06010672 -0.045884743 -0.20229766 0.25511602 0.15534094
697 0.16250205 -0.12588392 -0.15116999 -0.03642923 0.011075166 -0.15305263 0.40627447 -0.2865721 -0.34563908 0.07419332 0.086217895 -0.0031372593 -0.116090626 0.06882558 0.13177647 -0.43040177 0.059258986 -0.055116292 0.09207154 0.053837284 0.1481105 0.15228559 0.09455557 0.054113906 0.46935204 0.122790486 0.19039881 0.29017624 -0.019762972 0.34224066 0.17391074 0.002181601 0.02084543 0.20680611 0.22138761 -0.037287224 -0.014474161 -0.3931031 -0.08404616 0.045390166 0.21277642 0.2796673 0.33245873 0.030942088 -0.28899485 -0.28348354 0.31464058 0.148738 -0.06276575 0.339345 0.31485388 0.1902303 0.0926885 0.053814966 0.21142958 -0.02487361 0.031759564 0.032633357 0.17215402 -0.1205323 -0.13184097 -0.2637825 0.16259563 0.011666005 0.053878233 0.08537919 0.3014982 0.003480659 -0.31282637 0.14768656 0.40515482 -0.2096459 -0.34364036 -0.0017269508 0.07297303 -0.32315326 0.12507933 0.36358067 -0.14489536 0.15609223 -0.21471086 -0.07922873 0.06631934 0.12867135 -0.22381411 -0.30597216 0.07953417 -0.25461388 -0.15707612 -0.36482012 0.050232284 -0.113027364 0.119866304 0.357822 -0.18250717 -0.021318858 -0.1436697 0.15446585 -0.09753236 -0.036544554 0.13504072 0.053158555 -0.1546007 0.12920293 -0.033799715 0.07988116 0.10098342 0.000400204 -0.31133494 -0.1970634 0.15318325 -0.08228188 0.09081357 0.1790501 0.18236576 0.11179685 0.29154032 -0.17356168 -0.3427811 -0.15319343 -0.1771194 -0.0279083 0.110779785 0.07955188 0.0010143636 0.40762067 0.5683863 -0.016034171
514 0.11928958 0.3620019 0.005242002 -0.11547649 0.17588104 0.03248552 -0.14556354 -0.13312486 0.06946037 -0.18342018 0.023685409 -0.06087382 0.17321262 0.45290163 0.020044917 0.080055885 -0.08126227 0.029328112 -0.066446364 -0.121317856 -0.16422825 -0.14978124 -0.26913887 -0.20099434 0.12766401 0.033217397 0.080174915 -0.046646144 -0.10021494 0.16229916 0.22292237 0.12699646 -0.24840827 0.21109934 0.14614649 0.19879125 -0.18988897 -0.044855654 0.20682696 -0.42485145 -0.2794981 -0.07007952 0.40125176 0.18166423 -0.33485636 -0.103345774 -0.01277677 -0.16993731 -0.04058157 -0.33808652 0.016364247 -0.2197647 -0.16760316 0.015160401 0.46066788 0.39260522 0.35563815 -0.3505439 0.078924336 -0.26904717 -0.029186413 0.07445496 0.18522434 -0.40953448 0.5363361 -0.06129266 0.1264207 -0.19113746 -0.31632197 0.35868108 0.27308148 0.30398452 0.091626145 0.2748591 0.34798 -0.1668087 -0.18015416 0.19017032 0.25468 -0.019960515 -0.09566922 -0.26488933 0.23765177 -0.16679579 0.05059843 -0.10237369 0.029294744 -0.019301476 -0.1791076 0.016523877 0.23672843 -0.15855038 -0.19919409 0.18663473 -0.24278186 -0.12742016 -0.07621876 0.12392385 -0.07894563 0.03135803 -0.07047233 0.026060535 0.3523824 0.13219853 -0.11303588 -0.087334186 -0.19756535 0.24230155 0.42642358 -0.16484539 0.47548327 0.22708943 -0.15795837 0.250676 -0.49890167 0.15708181 0.07850865 0.3192521 -0.2371491 -0.023338323 -0.1177585 0.2551549 -0.38919872 0.45213836 -0.0066012368 -0.59294283 -0.12335489 0.19260742
654 -0.1985201 0.23664069 0.04172934 0.17366876 0.15980217 -0.059502993 -0.2778119 -0.03024078 0.437954 0.17801926 -0.11611211 0.18816786 -0.19027764 0.17511865 -0.19669014 0.08290493 -0.18619063 -0.30120492 0.14168863 0.13317744 -0.1348527 0.15422666 0.036529955 -0.0073964293 0.19122961 0.11385764 -0.31287175 -0.3313204 0.26608723 0.018610176 -0.37536946 -0.40525007 -0.056868844 -0.024954861 0.2829939 0.3817378 0.24490571 -0.0047894306 0.08007131 0.013378166 0.16107349 0.1349036 0.25509554 0.056155916 0.032909367 -0.33019578 -0.3145504 -0.06324506 0.29498374 0.12392269 -0.24448396 -0.30560285 -0.23570322 -0.32290846 -0.07638261 0.49179763 0.40653697 0.053079665 0.1375637 0.107103564 -0.06206658 -0.23559839 -0.047814492 -0.03389172 0.21236864 -0.059825815 0.19853716 0.26722446 -0.34737608 -0.018452788 0.07652603 0.7454323 0.14163119 0.41887054 0.031438604 -0.40886882 -0.035025474 0.52790487 0.31922963 0.22511175 -0.0016276642 0.2277474 -0.18857963 -0.07920063 -0.0009480086 0.15527378 -0.083992384 0.114578344 0.013955384 -0.052486278 0.16430967 -0.17300732 0.10102026 0.40822664 0.058905188 -0.11941274 -0.039895296 0.08348391 0.0008008507 -0.22644201 0.32337764 -0.340038 -0.010583756 -0.035160035 -0.025729017 0.11662041 0.6687246 0.022542486 0.22381285 -0.28805688 0.1931047 0.48913935 -0.20577273 -0.31044576 0.06583457 0.35331783 0.042880543 0.5249616 0.26093054 0.07420279 -0.052094076 -0.13924965 -0.28669095 0.22366682 -0.20208026 -0.30007952 -0.19511168 0.36766174
569 -0.061385423 0.2975817 -0.18473883 0.15100941 0.017870918 -0.21486165 -0.003785397 0.21910088 0.10516132 -0.0862193 -0.14122385 -0.013244731 0.31676608 0.3712638 -0.078962676 -0.03559786 -0.19435342 -0.20515822 0.077541284 0.064341605 -0.16426368 0.0038455965 -0.2235255 0.06843674 0.2059518 -0.20010494 0.49694112 -0.3399791 0.2708754 0.2675015 0.30772698 -0.2669886 -0.4744079 -0.24639443 0.4195575 -0.044660173 0.023655888 0.14643995 -0.14538848 -0.06897219 -0.051873554 0.05616875 0.58102393 0.04839249 -0.071994714 -0.08060724 -0.045574225 -0.08665349 0.03808174 0.030699104 -0.24538575 -0.10941692 0.21215412 0.063027255 0.059608724 0.32053867 -0.0892166 -0.2535816 -0.068105295 -0.2785161 0.041493524 -0.10092579 -0.083643705 -0.45628563 0.21060066 0.3022661 -0.1456565 0.030119523 -0.035909675 0.28264847 0.012775583 -0.16504923 -0.10614854 0.27646655 0.25997475 -0.060922977 -0.4163365 0.3115616 0.28319615 -0.08976449 0.10302632 -0.2525299 -0.69526064 0.077909835 -0.052780118 -0.18482043 -0.3436684 -0.027566038 0.15436238 -0.099475466 0.5550765 -0.25080833 -0.03982586 0.08260494 -0.027189648 0.05619518 -0.007952082 0.16895236 0.23686706 0.029366698 0.2224542 0.062396612 -0.044039194 -0.09145629 0.061182313 0.08846754 -0.52797174 0.04990828 0.2831939 -0.29096627 0.317441 -0.0023220426 -0.101034686 0.28924847 0.19913556 0.057487916 0.30302614 0.022203036 0.26144525 -0.06494986 0.16441813 -0.017270263 -0.18226026 0.23473673 -0.06537403 -0.1541441 -0.16281147 0.637032
834 -0.06820362 0.16542643 -0.13229024 0.00071486604 0.09607721 -0.02323552 -0.048796218 -0.2429587 0.070143506 0.2810325 -0.21909097 0.41783693 0.34767252 0.24699509 0.04156651 -0.011053186 0.056692917 0.05953884 0.13612047 -0.30814394 -0.37785032 -0.0880974 0.16313443 0.047229007 0.17344317 0.08302891 -0.19991475 -0.4174301 0.21946232 -0.22176251 0.0854089 0.011658465 0.027053721 0.035107117 0.04295466 -0.06414592 -0.11624935 -0.14651005 0.036404986 0.13564332 0.009676674 0.07885878 0.23053983 0.14237507 -0.2407497 -0.41534457 -0.06159442 -0.1631604 0.28488332 0.24979474 0.0014924548 -0.3946784 -0.04811486 -0.33729035 -0.29395404 0.3024623 0.3542753 -0.09955404 0.18406197 -0.059733238 0.21151611 -0.018736867 -0.3819957 0.042179972 0.16857532 0.14810573 0.39240423 0.36278346 -0.28752735 0.38353446 0.30063966 0.3517014 0.15623945 0.22407797 0.028700832 -0.30488276 -0.69015545 0.41487044 0.19574355 -0.09630466 0.060653675 0.05914279 0.025718791 -0.114417635 -0.0013329313 0.1614922 -0.070390575 0.0067916135 -0.28152058 -0.05432753 0.12983602 0.24732043 0.08578441 0.08173374 0.010438572 0.021403091 -0.16434348 0.2767908 -0.27728644 -0.3243352 0.06009248 -0.59825784 0.17496538 -0.18832609 0.19193774 0.111683555 -0.043944452 0.32452124 0.3890499 0.18339954 0.15102406 0.23550592 -0.20672533 -0.17902151 -0.07333344 0.50871086 0.42437115 0.21274671 0.19324566 -0.30616838 -0.4119917 -0.49885765 -0.33567616 0.31956765 0.1789975 0.021744965 -0.16942902 0.41054493
363 -0.24946739 0.11587898 -0.40185553 0.024959825 -0.29224893 -0.29210737 -0.053067677 -0.19817616 -0.31976825 0.18140483 0.2755999 0.37032524 -0.12858525 0.04702958 0.22324774 -0.28597137 0.19950654 -0.01852753 0.37622982 -0.41455293 -0.104218274 -0.11011909 0.04500931 0.21890517 0.55037695 0.29474467 0.22456646 -0.09265715 0.06147474 0.34529495 0.08311828 -0.1986974 -0.23673464 0.012456205 -0.2729261 0.49307555 -0.21413603 0.089890674 -0.09871982 0.012352675 -0.053571627 -0.15499106 -0.3494734 0.29060167 -0.03444323 -0.017716533 -0.18786176 -0.12363984 -0.1539479 -0.5050416 0.2927044 -0.18620335 -0.11798983 -0.17582057 0.056831855 0.1508858 0.012845779 -0.58721983 0.024280041 0.18282431 -0.17985334 0.040251892 -0.06418317 0.086591944 0.030044006 0.40596116 -0.0088733565 0.5971788 -0.12929207 0.06515245 0.14241049 -0.059429128 0.20044906 -0.085561305 0.070036426 -0.30895147 0.35129908 0.12599456 -0.42474073 -0.09167156 0.017551772 0.075689055 0.046077278 0.020231636 0.15332437 -0.05339615 -0.10106267 -0.052733913 0.18820624 -0.34016004 0.31664607 -0.14320596 0.26001245 0.39779255 -0.18400112 0.20305258 -0.18647254 0.050985266 -0.1469111 0.24779117 -0.21557434 -0.0697406 0.20752375 -0.20462921 -0.055297557 0.72718287 0.18011457 0.0971963 0.02723717 -0.045039605 -0.36264977 -0.0997241 -0.23043685 0.2410742 -0.06932074 -0.06119937 -0.0021839782 0.11552425 -0.1032689 -0.21938196 0.061376996 0.12414434 -0.3332834 0.066221364 -0.2879136 0.1386753 0.64061016 0.10392485
231 -0.20906025 0.33266082 -0.19617347 -0.23454224 0.33741513 -0.1271761 -0.2201889 0.030595357 0.25111035 0.09462065 0.2041419 0.18502563 -0.35466537 0.43074462 0.1767168 -0.16309151 0.08063152 -0.22933564 -0.19245651 -0.2755718 0.26349366 -0.17843181 -0.13371046 -0.08017246 0.26348478 0.051927887 -0.016108392 -0.33569825 -0.037283294 -0.033819724 0.20798635 0.08024209 -0.43191937 -0.026495263 0.076007046 0.2028406 0.39987853 0.21870881 -0.056383003 -0.10791457 0.15732552 0.027985983 0.46839896 -0.3408563 -0.098745815 -0.2686004 0.22368664 -0.13258278 -0.36386955 -0.1987973 -0.038223725 -0.10962842 -0.27434 0.20894764 -0.0024963925 0.002750953 0.3709393 0.17039199 0.12615798 -0.2173037 -0.13843836 0.1326749 -0.022148037 -0.28895792 0.27583274 0.19018689 -0.2793528 -0.13060519 -0.02475272 -0.069520935 0.11291643 -0.17850497 0.1236188 0.27733776 0.2250098 -0.31909776 -0.44331926 0.49171415 0.33311868 0.14910774 -0.0030834188 -0.06770297 -0.12696242 0.02377932 -0.1903653 0.005667715 -0.27946928 0.37036803 0.10815216 0.1375729 0.15567714 -0.23267715 0.024484202 0.23514907 -0.2433393 0.13698907 -0.16283914 -0.15062459 -0.21256614 0.18070339 0.27506223 -0.23008889 -0.06714996 -0.14987664 -0.09864313 -0.05326066 -0.30758846 0.15492713 0.26347208 0.119623266 0.627767 0.07662645 0.08214618 0.21844722 -0.11122442 -0.058110017 0.14515477 0.059970163 0.10153125 -0.7005732 0.23968795 0.053072892 -0.23341519 0.79914206 0.349453 -0.065857574 -0.02648307 0.34034443
556 0.19925271 -0.07680251 -0.260992 0.41779393 0.215677 -0.08855949 -0.2709172 -0.29303747 0.35447216 -0.093343526 -0.19565053 0.31303102 -0.05774644 0.12911594 -0.10029844 0.44105154 0.06288952 0.19699085 0.7375517 0.11367204 -0.09206159 0.054656833 0.009979678 0.3853698 0.39944994 -0.04537372 -0.28181684 -0.23244508 -0.09900749 0.25456223 0.21395403 -0.02656252 0.24841523 -0.0906984 0.2731837 0.03623874 0.16986106 0.5893078 -0.31892705 -0.21709387 0.0816393 0.38496366 0.09453959 -0.031055508 0.150641 -0.180335 -0.33294734 0.02957902 0.053603023 0.051717237 0.21294957 -0.14928555 -0.19480026 -0.43651 -0.41940853 -0.019931799 0.2474016 -0.119619854 -0.14183255 -0.045298345 0.11752872 -0.08893685 0.1050597 -0.1883181 0.16738406 -0.05288269 -0.21429138 0.24889624 -0.15272632 0.018391188 0.13712189 -0.039853625 0.060631644 0.58508134 -0.17342225 -0.27149725 -0.16283885 0.039556753 0.1788389 0.22622398 -0.48495457 0.1981419 0.30761304 0.23865508 0.45064586 0.39077303 -0.14731856 -0.3477267 0.09598952 -0.70015615 0.1675725 -0.3500053 -0.08324964 0.27179334 -0.35764503 0.019754913 -0.20368306 -0.019981356 -0.10913656 0.12132912 0.08987472 -0.124410264 -0.0062872265 0.25046104 -0.213293 -0.39804062 0.019949257 0.035449028 0.6266704 0.14980885 0.18876754 -0.14570588 -0.12716441 -0.22158399 -0.07185519 -0.16077836 0.015809515 -0.00057719235 -0.15278544 0.069034405 0.4348656 -0.069831885 -0.1528063 0.28734082 0.12043669 -0.14872102 0.005130467 0.32790697
661 -0.01466131 -0.30262208 -0.20192243 0.022584233 -0.014581959 -0.14543802 0.09367602 -0.033061035 -0.36918578 0.2598943 0.37830767 0.08394278 -0.06746307 -0.08036088 0.14833567 -0.44721907 -0.09958833 -0.2487215 0.26615468 -0.2845671 -0.29301396 -0.1724569 -0.0717245 -0.03529891 -0.028784044 -0.3702303 0.017392093 -0.072215594 0.3327846 0.53827643 0.33665404 -0.13305554 -0.1981932 0.21005894 0.11915811 0.14481114 0.056031685 -0.072924 -0.1408017 -0.12483861 -0.451488 0.19740553 0.13327834 0.32419327 -0.055242084 0.22249693 -0.100241825 0.4979385 -0.22405449 0.07183008 0.10379255 -0.17706156 0.057436183 -0.11871549 0.3405674 0.14903215 0.33732998 -0.27249575 0.05786607 -0.17454854 -0.17889297 -0.4321055 0.36399168 -0.07496948 -0.15551446 -0.08256997 -0.025563482 -0.06600853 -0.039703097 -0.17665283 0.11553442 0.09178175 0.015727164 0.098352194 0.30229115 -0.4026209 0.113569744 0.018101895 0.0049802363 0.01394094 -0.39031646 0.27261004 -0.21756327 0.029821975 0.069875784 -0.0488357 0.4102251 -0.10904953 0.105639 -0.07087426 0.0149658965 0.2071851 -0.00948356 0.010743808 0.026006117 -0.08494214 -0.29387286 -0.47584727 -0.20414777 0.066866666 0.20022166 0.079368636 0.12418567 0.087856986 0.14532131 0.00096765143 -0.011748125 -0.23570156 -0.05117839 -0.18226689 0.022960026 0.28006953 -0.19374351 0.078636646 0.26274678 0.27800155 0.37401143 0.3113027 -0.13721307 -0.28821614 -0.31171003 0.13869995 0.0045132167 -0.086089164 0.23782656 0.26478407 0.007282885 -0.15711032
355 -0.21449967 -0.013598121 -0.20260115 -0.3259759 0.046228673 -0.058162406 0.16810447 -0.18111134 -0.16424622 0.03409595 -0.43441248 -0.14173089 0.017581057 0.019474605 0.31611842 -0.16339259 -0.07675255 -0.14765501 0.22287095 0.15963602 0.17748834 -0.19954878 -0.2623572 -0.007466599 0.26687792 -0.132768 0.06641568 -0.08258655 0.28286785 0.15512718 0.24150465 -0.12434824 -0.08676481 0.119982794 0.07273376 0.03473506 -0.08574614 -0.17180389 -0.057304613 -0.2604565 0.24970418 0.0657447 0.23271622 0.33209807 -0.29119566 -0.26413503 -0.21693175 0.06888254 -0.054027233 -0.27436358 0.23102516 -0.049868196 0.4407723 -0.07245913 0.37381497 0.012110238 0.11079579 -0.13836682 0.0039957734 -0.2054838 -0.014338274 -0.3048126 0.7112725 0.22829612 0.034292284 -0.060211215 -0.2425928 0.022800565 -0.005126419 -0.2234236 0.13784829 -0.062481605 -0.15779524 -0.07972255 -0.05021132 -0.27812394 -0.052260667 -0.08664386 0.09500656 0.30940473 -0.2755964 0.21387379 0.018436868 0.3422244 -0.17144549 0.027902842 0.35830972 -0.015602088 -0.23969074 -0.1907416 0.28305447 0.057380084 0.4576297 0.03677304 -0.32378793 0.1283789 -0.121826276 0.32095343 0.13914423 0.3450374 0.30690953 -0.17669173 -0.25698024 0.0034223492 -0.08919 0.28955743 0.19138037 -0.19733611 -0.034932595 -0.16035542 0.037641905 0.25628176 0.05323811 0.28273326 0.20377101 0.26671225 0.15354924 0.37853616 -0.12473687 -0.36911425 -0.35392123 0.08930248 0.39730996 0.007139804 -0.26245314 0.40044966 0.48325863 -0.071903735
538 0.22565614 -0.037862856 -0.2213221 -0.2550088 -0.15988167 -0.05143856 -0.07652723 -0.20253728 -0.042534903 -0.19984709 0.27338332 -0.06005935 0.09237321 0.15297124 0.25986046 -0.28145826 0.070915535 0.08416427 0.3342258 0.15075825 -0.09622201 -0.29904425 -0.03391604 -0.024933806 0.13983414 -0.1062415 0.15334076 0.03287421 -0.07682982 0.26149437 0.2467727 -0.16175015 -0.07377913 -0.031506646 0.009553651 -0.0872884 -0.014071025 -0.23509851 0.019508759 -0.10614015 -0.05661973 0.0323858 0.4893026 0.1323116 -0.38740745 0.06218317 -0.1367071 0.10092977 0.052622624 -0.086607605 -0.023622658 -0.04713413 0.32345507 0.0021721548 0.033491023 -0.28936848 0.17243935 0.053151105 0.12276591 0.013876325 -0.0016222923 -0.2131481 0.18038733 0.16688801 0.35075423 -0.11829398 -0.053371914 -0.15534262 -0.3389619 -0.11828298 0.2602917 0.20409116 -0.30747432 0.03352358 -0.11414566 -0.048217524 0.11445728 0.12640359 0.051527712 0.1225571 -0.35656628 0.17748643 -0.2895795 0.4784092 0.012208001 0.19373125 0.00629743 -0.09241398 0.02195278 -0.12826598 0.12153229 0.12699126 0.6572011 0.21421659 0.06039391 0.18380864 -0.007344157 0.1781464 -0.2657103 0.31121853 0.1660607 -0.048273202 -0.016898038 0.1739114 0.12684101 0.3811867 0.076979205 -0.33986056 -0.52210075 0.20530881 0.209639 0.22544037 0.026770264 0.14846052 0.071733266 0.02569126 0.53441995 0.14613365 -0.1739825 -0.26858962 -0.30590123 0.560023 -0.0947816 0.047318175 -0.040576167 0.37615618 0.34549722 0.08901248
66 -0.23986362 0.1475821 -0.14763083 0.12613301 -0.02931884 -0.10501966 -0.12139986 -0.46611837 -0.14050406 0.079164095 -0.22287712 0.4811315 -0.15677701 0.28336808 -0.11153368 -0.07754563 -0.33497152 -0.18927567 -0.25166205 0.012453441 -0.052767955 0.00090516347 0.2875146 0.3195075 0.30867586 -0.38151458 -0.19030692 0.05062493 0.39607844 -0.14026663 -0.17934501 0.0956647 -0.0152192125 -0.22211045 0.062187634 0.076399796 0.23441291 0.30208454 -0.22989337 -0.28577673 0.011420173 0.18817759 0.08897928 -0.012654548 -0.11225664 -0.3096973 0.104597434 -0.1383297 0.26230583 -0.11045493 -0.1094546 0.05586058 0.11684432 0.054269463 -0.15871182 -0.008943983 -0.032262668 -0.0021377387 -0.27238038 -0.18076068 -0.17959325 -0.14487332 0.23916024 0.017106963 0.21881117 0.09484094 -0.33789995 0.19995607 -0.47865686 0.19151308 0.2306645 0.28675234 -0.23699783 0.35675484 0.54409486 -0.27828777 -0.13725992 0.15991417 -0.018945972 -0.028955132 0.047023017 0.27475172 -0.06634754 0.32465935 0.14739655 0.14026864 -0.12926964 -0.09493522 0.22116505 0.02970469 0.17968178 -0.29067853 0.18467206 0.44720626 -0.29886055 -0.08291081 0.14705105 -0.2730184 0.01096998 -0.11788628 -0.13159747 -0.71536964 0.11228728 0.3171479 -0.09399037 -0.34023187 -0.22504532 0.01243944 0.76711714 0.3594511 -0.22338982 0.055057615 -0.1549851 -0.23758371 -0.33859032 0.2502461 0.2212671 -0.06702241 0.012438859 -0.1252536 0.0064673545 0.050425924 -0.062202767 0.046787396 -0.059349924 -0.39244705 -0.06374194 0.33847755
290 -0.15287945 0.2286775 -0.18426313 0.19831154 0.11719419 0.09403527 -0.1156673 -0.12978306 0.3112839 0.4585212 0.104718395 0.3420645 0.10927407 -0.108974725 0.16608913 -0.104255274 -0.2352931 0.2044322 -0.19772898 -0.031412266 -0.0045584342 -0.1890288 0.26723623 0.37228835 -0.10457091 0.17694274 -0.026032371 -0.21129635 0.15758453 0.11064707 0.048019495 -0.033989586 -0.27604875 -0.1018113 0.02599558 0.05865678 -0.12526974 0.23248494 0.40836093 -0.16901638 -0.095874466 -0.12898472 0.3117826 0.022769528 0.017381772 0.12709582 -0.18603499 0.08561171 0.08365783 0.30796173 -0.20167674 0.4242231 0.12315826 -0.12279617 0.044576023 0.19698042 0.32991406 -0.034462836 -0.23841777 -0.10493299 -0.06490746 0.051838942 -0.0044315667 -0.11899154 0.21307586 0.10281305 -0.21967082 0.13112855 -0.429007 0.16690417 0.019560978 0.3260669 0.202301 0.28585818 0.17707331 0.056468785 -0.2027396 -0.018453224 -0.3438778 -0.0738527 -0.03156674 0.36118478 0.1194907 -0.054858953 -0.025215112 0.13443378 -0.04406316 0.20223702 0.19567561 -0.31458884 -0.302654 0.08741144 0.12809034 -0.046900447 -0.38318145 -0.18270169 -0.33999616 0.259896 -0.17617625 -0.09331024 0.14213544 0.3358559 -0.08296739 -0.099816866 0.20642631 0.054768562 0.15157506 -0.1724778 -0.09094068 -0.24086548 0.46888736 0.37069544 0.07684811 -0.026308252 0.14534102 0.040955886 0.23436593 0.030733583 -0.10073297 0.1274479 -0.2635391 -0.15053317 0.23143929 0.045845028 0.1338533 0.03239241 -0.08800858 0.22894928
374 0.28350243 0.11756474 0.2785118 -0.023721315 0.3246355 -0.4024941 0.08703633 -0.2299248 -0.04813739 -0.07457065 0.24303271 0.2541783 -0.17740603 0.17736891 0.28939968 -0.16525279 -0.15377977 -0.22063342 0.2526223 -0.039364226 0.09889063 -0.16007724 0.13017172 0.05383801 -0.052349515 -0.21093589 -0.16607495 0.29432398 -0.00022819103 0.077894524 0.3048473 -0.38066465 -0.29463744 -0.2151478 0.019022735 0.28336602 -0.027880663 -0.6089155 0.22381987 0.07390615 -0.36335394 0.030542636 -0.46087462 0.3849001 -0.12122946 0.21900626 -0.13411546 0.08063843 -0.27644107 -0.120482795 -0.15920566 -0.1768943 -0.15015014 -0.058810823 0.22956313 0.18391706 -0.029322693 -0.3687654 0.020672238 -0.22659917 -0.16669251 -0.016100178 0.25246602 0.29831457 0.27072316 0.51464206 -0.22497469 0.20257209 -0.21243648 -0.0518892 -0.1751381 0.0889534 -0.1678692 -0.19870605 -0.1207587 -0.10509395 0.072894365 0.020895971 -0.31736806 0.24764016 -0.123018995 -0.111417644 -0.22439183 -0.21175747 0.2162165 -0.016529907 0.08143073 -0.059631832 0.04923793 -0.13876125 -0.034889147 -0.5912183 0.22895971 0.29202172 -0.26695216 -0.038034234 -0.24574798 -0.2071197 -0.117717564 -0.22509341 -0.22628559 0.06263047 0.2465385 -0.18296872 0.06460648 -0.18086234 0.34352052 -0.2244177 0.030468335 -0.058812574 0.3389649 0.3657933 -0.10505085 0.06609632 0.43496996 0.1153412 0.31773272 -0.21449292 0.12359019 -0.33019444 0.05722738 -0.21859114 0.2304447 -0.2813975 0.29448187 0.43565977 0.038194105 -0.1155072
305 0.021809189 0.19614767 -0.0810816 0.17395613 0.14544505 -0.24662773 0.31397232 -0.319586 0.1558716 0.3283289 -0.1489748 -0.01359929 -0.23051195 0.33728242 -0.07277484 0.10888175 0.32662377 0.5465272 0.14599732 0.065959536 -0.08209806 0.22929315 -0.015586923 -0.16618356 0.2750498 0.28841913 -0.037494425 0.032540295 -0.51904434 0.011832297 0.36794692 0.09319431 0.020091252 -0.33342963 -0.11047722 0.3268252 0.10442262 -0.09951022 -0.1787364 0.45239866 -0.13144337 0.00034647074 0.28327537 0.029614495 -0.27634087 0.0715134 -0.2089378 0.359699 0.42831892 0.032747597 -0.12813774 0.030071734 0.09619452 -0.24575986 0.08015417 0.10063809 0.23919743 -0.17359152 0.12038601 -0.1782966 0.13283993 -0.034384508 0.38571766 0.2802303 -0.33594605 -0.27002954 0.2356454 0.26943064 -0.024368944 0.24528816 -0.23766948 0.52871203 -0.29055947 -0.019343367 -0.28613827 -0.16788925 -0.040007647 0.55162156 0.13988164 0.013990681 -0.07745995 -0.18132478 0.018050892 0.24574026 0.5600723 -0.41960034 0.06270478 0.31174126 0.3228239 0.14607786 0.15027373 -0.07179655 0.06589874 -0.35062528 0.38220403 -0.24425073 -0.17592083 0.024080254 -0.26315454 -0.011240504 0.38640127 -0.2510092 0.099204116 -0.06827085 -0.11808987 -0.6423849 0.16930228 -0.27513626 0.048543546 -0.08469501 0.09643307 -0.2146393 -0.27300942 0.56669354 -0.2924052 -0.14491251 0.34525612 -0.11159933 -0.004995369 -0.16255294 0.01463081 0.0015502227 0.44525215 -0.06262642 0.360021 -0.30285043 0.41467077 0.59935385
449 -0.16298243 0.12861979 -0.33531076 0.18052268 0.06862622 0.0074909893 -0.5021156 -0.18694282 0.05528662 -0.38428468 0.00914164 0.29188845 0.08296862 0.31063312 -0.2693865 0.39483675 -0.21749172 0.061543357 0.27481425 -0.034892425 0.39287415 -0.04168622 -0.15927914 0.49479744 0.04004199 -0.21336128 0.17648445 -0.29618227 -0.03692212 0.119496115 0.33439198 -0.20122834 0.46000254 -0.18669353 0.3063882 0.36326617 0.27189165 0.3146446 0.07102609 -0.04075655 -0.032932032 0.27178258 0.027953314 0.3571512 0.091710374 -0.11659855 -0.50782806 -0.17634235 -0.116416276 -0.36130613 0.38806304 0.23789445 0.052233282 -0.037898943 -0.1741547 0.12386624 -0.011585544 0.26598006 0.2638764 -0.42425627 -0.084048994 0.2613001 -0.14057313 -0.084337525 -0.25524658 0.08165017 0.09449313 0.81892675 -0.41351387 0.042608976 -0.13624851 0.06833374 0.040265515 0.33489704 0.21371959 -0.49730086 -0.01414054 0.43979654 0.17636219 0.11963326 -0.038765002 0.16198795 -0.048465837 -0.123829246 0.13137472 0.21057133 -0.20278382 -0.22828615 0.03989334 -0.32317156 -0.07158548 -0.010036098 0.18832096 0.1998382 -0.26414368 -0.34740537 -0.3916865 0.10235618 -0.17056368 0.0307125 0.3393214 -0.17409733 -0.1292249 0.32123876 0.34588623 -0.34589094 0.03173 -0.11243937 0.32625088 0.06816115 0.2181069 -0.1235863 -0.16209432 -0.05627678 -0.09569924 0.05558444 0.018939938 -0.14132866 -0.14895879 -0.32551152 0.09596599 -0.09995539 -0.15114656 0.030930169 0.21291219 -0.3027948 0.18441682 -0.08004561
700 -0.13414313 -0.060775906 0.34954342 0.20439576 0.08995763 -0.052742157 0.19487235 0.050449807 -0.2198275 0.29266614 -0.003814614 0.09829023 0.12158802 -0.476677 0.21115586 -0.06482727 0.01930489 0.235452 0.50637054 0.28346124 -0.18123493 0.29833502 -0.08920166 0.21186075 0.072976544 -0.27283794 0.35081732 -0.55003244 -0.345937 -0.24953507 0.27608797 0.20578457 0.037243117 0.06168388 -0.09182133 -0.4327516 -0.16781548 -0.045785613 0.007948702 -0.17401023 0.06263631 0.14643824 -0.009578056 -0.0047472194 -0.049290538 -0.013616991 0.06311667 -0.13820276 -0.050692324 -0.3374757 -0.036430243 -0.32029802 0.051597938 -0.16495949 -0.04191969 0.465212 0.19541064 -0.17879719 0.007860752 0.15455414 -0.54239285 0.27712792 0.14236343 0.2557702 0.3001855 0.28338468 -0.35343513 -0.0008395873 0.08984425 0.23084697 -0.109538816 0.14847519 0.055175103 0.2661758 0.0003261379 -0.283933 0.6050585 0.07696558 -0.055147603 -0.07141288 -0.19229954 0.23817189 -0.23694591 -0.111472316 -0.031066343 -0.1912251 0.16784163 -0.28741205 -0.10196885 0.022048349 -0.026519394 0.060696576 -0.020006584 0.05897339 -0.2900012 0.101365484 0.15167886 -0.2763521 -0.14581911 0.06630315 -0.061038803 -0.57512665 0.023846427 -0.3821071 -0.0037540959 0.13590686 0.17691414 -0.28990322 -0.43217608 0.30024427 0.18688235 0.6510929 0.028878534 0.17295589 0.055702984 -0.09806894 0.1502095 -0.034043945 0.103872485 0.42511663 -0.3380141 -0.3678945 0.42484173 0.44435146 0.55895054 -0.072139636 0.10222741 0.38881433
432 -0.1607927 0.04000376 0.029737365 0.46663976 0.1693897 0.07948956 -0.34490016 -0.42009726 -0.13620108 -0.020026594 -0.28450504 0.2975138 -0.1521883 0.11859242 -0.0010140031 -0.0556384 0.12893368 0.017901521 0.27630606 -0.0017029365 -0.069702275 -0.13210332 -0.25236765 0.51024234 0.131455 -0.017556498 0.030008206 0.06905144 -0.22998333 -0.11266811 0.120724976 -0.37918606 0.2085966 -0.31545976 0.23288625 0.026953014 0.32790506 0.40410918 -0.11599569 0.055327713 -0.044046257 0.30072585 0.14735654 0.39942077 0.42165565 0.15667044 -0.07944984 0.005850655 0.15440194 -0.3065371 -0.030550318 0.14487566 -0.047904413 -0.37065718 -0.077641696 0.153168 -0.072454385 0.23917553 -0.018803256 -0.13838923 -0.009618786 0.018494891 0.02415908 0.3004232 0.033306908 -0.10528767 -0.40115565 0.50722826 -0.18763588 -0.20847908 0.34648877 0.09790177 -0.1606705 0.18346725 0.19614872 -0.60836756 -0.3377686 0.18544254 0.22031577 0.45318735 0.16721292 0.24056144 0.115109555 -0.06265698 0.4563754 0.34458664 0.03336899 -0.5013675 0.32973713 -0.13128336 0.23434131 -0.19712436 -0.22937682 0.23493199 -0.3938947 0.02407699 -0.45425063 0.16074458 -0.0877593 0.35462108 -0.23461911 0.083289064 -0.11925888 -0.091790155 0.19459002 -0.21740319 0.09270724 -0.15750954 0.18397027 0.06375555 0.50160384 -0.084319845 -0.28394288 0.08754861 -0.12147937 0.22025317 -0.0043397616 -0.1924197 -0.5517124 -0.20345607 -0.024640482 -0.44150215 -0.677925 0.045306545 -0.080891885 -0.3824428 0.054247808 0.27051148
34 -0.16352753 0.5273462 -0.3209815 0.018386036 0.22189862 -0.07447258 -0.20376042 -0.18115114 0.103402026 -0.026935559 -0.09289305 0.2071127 -0.064200655 0.22220817 0.12440097 0.15371701 -0.11075448 0.23129003 -0.04066305 -0.35397378 0.14899488 -0.22141564 -0.039588504 -0.40775847 -0.2825008 0.43181735 -0.08619345 -0.1202186 -0.0751881 0.01955362 0.2143741 -0.30732065 -0.55961794 -0.10467487 0.38657442 0.1043439 0.0392221 0.12399925 -0.20366791 0.2155881 -0.4515957 0.13312264 0.06609716 -0.19513084 -0.21577436 -0.273364 0.18351439 0.2576874 -0.24593484 0.1400473 -0.24378009 0.059264794 -0.14275707 0.092168845 -0.3185618 0.21910901 0.2248035 0.16245985 -0.3067201 -0.040536787 0.06923615 0.29832715 -0.22144185 -0.26524413 0.111470215 -0.1600307 -0.07446086 0.38955098 0.07495338 0.15502836 0.11678418 -0.20479955 -0.15296523 0.56108606 -0.19241443 -0.17270805 -0.37239283 -0.0529818 0.03185845 -0.028358871 0.018733809 -0.093784176 -0.39863333 0.033126347 0.19537851 -0.3689169 0.23805799 0.06300786 0.057079695 -0.45793757 0.10771021 0.24448067 -0.060318593 0.6973213 -0.24898426 0.51982105 -0.12042308 -0.11761898 0.07562004 0.09049295 0.34963056 0.06547538 0.13294978 0.115384385 -0.14966172 0.22276199 0.074078076 -0.32565615 0.6168111 -0.08749356 0.53823394 -0.03591432 0.071530074 0.22176267 0.10752463 -0.15915912 0.30926597 0.54410696 -0.39194077 0.029578138 0.0289309 0.2028197 -0.1566753 0.037814308 -0.06111378 -0.25689542 0.32975212 -0.04807797
91 -0.18436615 -0.074767135 0.04584102 -0.5403134 -0.20946872 -0.1921223 -0.3591982 0.09839376 0.1824278 0.0068032225 -0.31026697 -0.16338578 -0.07201278 0.10463977 0.027142756 -0.38931733 -0.13502696 0.20018506 -0.17165524 -0.25734112 -0.23114042 -0.29773095 -0.023571538 0.10829984 0.024560032 -0.2099945 0.086377785 -0.41666427 0.11144445 0.24745788 0.031767763 -0.012287906 0.032521103 -0.008356492 -0.021904266 0.24268676 -0.41350055 -0.54272145 -0.12748656 0.397432 0.045979682 0.28861165 0.11138363 0.34802195 -0.3323344 -0.24095523 -0.4816746 -0.26131323 -0.09060377 -0.022784645 0.35605142 -0.6160924 0.12837575 0.10096482 0.08620431 -0.5211912 0.2967746 -0.084358014 0.19352937 -0.20835483 -0.17499082 -0.062890284 0.31169724 -0.076835215 0.27124313 -0.12473127 -0.009448797 -0.046920117 -0.21086036 0.25383013 -0.24858715 0.27185455 -0.042709574 0.19141814 0.049555272 -0.08736973 -0.2971626 -0.10817307 -0.17844167 0.24418807 -0.024141146 -0.0077919243 0.10280824 -0.11969286 0.013768776 0.078267515 0.32715696 -0.22772896 0.3548213 -0.015556866 0.05161924 -0.45062482 0.036944713 0.05969347 -0.1392427 0.15323128 0.069876626 -0.12509179 -0.30870008 0.25721484 0.19071203 -0.008330541 -0.3732127 -0.3094147 0.07804641 0.29407975 0.1353827 -0.080138445 0.24471454 -0.25076905 0.31016 -0.24468276 0.049722027 0.107415184 -0.24447614 0.02365312 0.29465532 -0.38291642 -0.31613305 0.12871721 -0.29440662 0.21247815 -0.41891268 -0.07614085 0.03508565 0.1937491 0.58685434 -0.025805399
343 -0.19965304 0.23371924 -0.35304046 0.2594517 0.17713158 -0.24028558 0.050225854 -0.18177718 0.06561926 -0.11032868 -0.31850561 0.70364165 0.1580497 0.28541163 -0.20654695 0.32466775 -0.34515038 -0.2377869 -0.017007452 -0.34435844 -0.2584711 0.0673741 -0.28151307 0.16133298 0.23775549 0.121926464 -0.20025173 -0.29003376 -0.08966549 0.21358442 -0.31590047 -0.16842794 0.25787312 -0.11783586 0.046303656 0.26614034 -0.04582818 0.026322115 0.08890926 0.30398682 0.013690249 0.07242283 0.06322523 -0.11570218 -0.14510782 -0.11467677 -0.2386827 -0.10641817 -0.07226673 0.3824003 -0.21895722 0.15751265 0.026624404 -0.6136165 0.37175688 0.17481822 0.3019272 0.10952779 0.104098454 0.17264867 0.120944306 -0.21398595 0.10161636 -0.09099179 0.11946203 -0.15010408 0.016259806 -0.07447375 -0.1643375 0.17579257 0.24427095 0.13271567 -0.1463906 0.33470216 0.31267092 0.13783036 -0.12350773 0.61057687 0.10211646 0.07704307 0.16737416 0.125179 0.010935044 0.02971886 -0.34206092 0.09047672 0.29704523 0.1557333 -0.24672188 -0.26810813 -0.00055172516 -0.23167658 0.11016656 0.2572971 -0.10236148 0.027030647 -0.36123484 0.048674516 0.22463723 0.22726114 0.23872837 -0.27649266 -0.05620181 -0.3082726 -0.026014807 0.040231556 0.11473832 0.069188334 0.2879598 0.12868384 0.27014023 0.3305306 -0.053745985 -0.026107261 -0.12614457 0.14881934 0.64229447 0.35981733 -0.00048120003 -0.14303799 -0.082184166 0.029741883 -0.40447015 -0.13976432 0.24376808 -0.28895193 0.38472962 0.24570537
461 -0.040166482 0.20654023 0.18787901 0.04355343 -0.059600946 -0.33662316 0.45589715 -0.3760477 0.30815676 -0.026593387 0.16153543 -0.76590586 -0.3226603 0.6049578 0.023716653 -0.099406995 0.2332329 0.16044584 0.38875854 0.039947994 -0.08227405 0.4071158 0.123705976 0.09707754 -0.098828465 0.05712672 -0.24286532 0.040387843 -0.18607971 -0.22149278 0.3722252 -0.13378137 -0.08956599 -0.13971281 0.32055706 -0.4392613 0.110169224 -0.4338554 -0.0012504385 -0.08694315 0.3141039 0.039497085 0.08002762 -0.2691067 -0.11883159 -0.0020985608 -0.033903185 -0.026859732 0.061902337 0.24968685 -0.13196668 0.25714776 -0.2457237 0.017016998 0.30509722 0.12567195 0.09676805 -0.16212574 0.016204305 -0.16618767 -0.46825507 -0.32535654 0.18740486 -0.16205485 -0.057459675 -0.24175501 0.31779405 0.35462976 0.27355772 0.08129745 -0.09067232 0.1844238 -0.32367533 0.7565868 -0.17532896 -0.22431734 0.25092468 0.32991716 0.03154863 0.3418135 -0.012749968 0.22194226 0.24481879 0.035432428 0.20770161 -0.034640945 -0.021933503 0.18473789 0.4686942 0.039811276 0.06712078 -0.58481634 0.16785492 -0.33110762 -0.048773453 -0.4509611 -0.05539707 -0.18543568 0.0017188517 0.30814776 0.25761274 -0.13385648 -0.16240825 0.07509152 0.10885053 0.21788934 0.038046394 -0.06263161 -0.01262122 -0.31330645 -0.033720568 -0.104525164 -0.2826143 0.5120067 0.05296398 -0.07269672 0.32117534 -0.18827532 -0.11062096 -0.039867397 -0.42468947 0.069821656 0.17946494 0.11405497 -0.06217541 -0.09947521 0.56937754 0.015205735
856 -0.009397998 -0.06894932 -0.017849347 -0.5303328 0.4370751 -0.30820364 -0.084410414 -0.33094186 -0.008667622 0.009464523 0.35313338 0.24976256 -0.36247608 0.15835808 0.31635025 -0.26627937 0.074156485 -0.3088232 0.44298863 -0.13554525 0.090077564 -0.12750743 -0.1318426 -0.15315618 0.050406024 0.5072815 -0.17960082 0.21826118 -0.17399713 -0.039723344 0.1347212 0.4230359 -0.24555342 -0.041119043 0.066359475 0.34240058 0.09797127 -0.37543014 0.16491105 0.19551328 0.06790297 0.0097910445 0.06348637 0.07792266 0.045559406 0.6519435 -0.40082997 0.2417203 -0.055590004 -0.3806705 -0.059921347 0.039636593 0.08365351 -0.096314095 0.17959754 0.18476495 0.25414443 -0.12694956 -0.036057282 -0.29445648 -0.21460699 0.08606142 0.4775559 0.080875956 -0.12754259 -0.11895879 -0.0064380583 -0.20135042 -0.22340627 0.011108028 -0.07460659 0.06198681 0.11587208 0.16804099 0.2437666 -0.306591 0.6116956 0.11608033 0.17122085 0.2461218 -0.49373403 -0.081975736 0.1007981 0.23779176 0.25056624 -0.1614477 0.3407359 -0.15960222 -0.1850721 -0.38040066 -0.34642133 -0.06875004 0.024552176 0.22119896 -0.26641533 -0.3274435 -0.19728497 -0.20006518 -0.16543935 -0.2190499 -0.1152508 -0.18608929 0.3810951 -0.26635534 0.06963934 0.023651099 0.007856836 -0.014829713 0.19566756 0.15364346 -0.06635329 0.7434935 -0.27994308 0.014190153 -0.010712213 0.075316966 -0.02435905 0.16973826 -0.27718306 0.014892141 -0.53067255 -0.14076766 -0.043845188 0.22232406 0.08970634 0.4569929 0.008683985 -0.30437785
138 -0.42509395 0.28846073 -0.052837815 0.3780573 0.1297382 -0.33214518 -0.078033224 0.19209138 0.16886257 0.0012889329 -0.13962916 0.2820496 -0.005716887 0.052756872 0.20931524 -0.08010913 -0.25268108 0.31322876 0.21748959 -0.07756881 0.004563442 -0.24951182 -0.23298624 -0.12922905 -0.11518596 0.27312455 -0.09044502 -0.031370178 0.020583395 -0.09632505 -7.897426e-05 0.26833317 -0.17648157 -0.20145579 0.1447659 0.1304105 0.16608922 -0.021300565 -0.30373606 0.46252605 -0.27585945 -0.3787672 0.48727503 -0.2786516 -0.22754385 -0.40350223 -0.015497382 0.21645997 -0.1614881 0.4605476 -0.16241513 0.035352506 0.22555287 0.0046497807 0.08473319 0.087390125 0.44065008 0.20937364 0.13801211 -0.289178 -0.44931084 0.24817273 0.03117655 -0.032619037 0.6536351 0.31231442 -0.20909296 0.32375738 0.11759239 -0.191315 0.07441838 -0.17969108 0.12934478 0.117690265 -0.00837968 -0.48110223 -0.11851339 0.007902074 0.09114182 -0.0688102 -0.22787832 -0.2488068 -0.17673105 0.034096405 0.3658211 -0.30290908 0.18509318 -0.26377478 -0.099300995 -0.5299677 -0.24063592 -0.18060976 0.102687515 0.22669952 -0.11313999 0.3699854 -0.00748554 -0.14596872 0.11048265 0.22543626 0.18371408 0.1200919 -0.0169585 0.2441515 -0.49731055 0.4352945 -0.04579083 -0.032729488 0.19092794 -0.3787733 0.4116776 -0.45145845 -0.15077719 -0.12714012 -0.04739912 0.057223633 -0.16742831 0.31533405 -0.20574316 -0.33821288 -0.049813107 0.08074673 -0.1757947 -0.1756106 0.08591089 -0.6785841 0.08352231 -0.0026937344
779 0.07627309 0.15009429 0.17804326 -0.03332042 -0.3102113 -0.10859922 0.20972651 0.14314269 -0.012209305 -0.20191097 -0.086282305 0.32725504 0.026853755 0.20054065 0.024780605 0.17204398 -0.12055282 -0.09090867 0.32324895 0.15121166 -0.11580342 0.14189222 0.05812229 -0.28383872 -0.037454043 -0.35882935 0.060261928 -0.15944509 0.19898766 0.0976054 0.26498666 0.19946106 -0.05737355 0.17402865 -0.25610065 -0.08796297 -0.11688315 0.050082974 0.33784467 0.1150186 -0.022596084 -0.34692353 -0.18526617 -0.19338654 0.1631443 0.14337425 -0.40874803 0.26226878 0.105435535 0.13807018 0.07261167 0.11613919 -0.010388018 0.458605 -0.0053903586 -0.44943288 -0.1144735 0.02383257 -0.27308193 -0.12596442 -0.08588449 -0.045019787 0.23049293 -0.025656836 0.1595506 0.020261003 -0.22728334 0.39474136 -0.4186276 -0.16007581 0.0460428 -0.13322383 0.06048352 0.21146145 0.2632762 -0.35195974 -0.17399028 0.26388296 0.40085766 0.5347714 -0.018658407 0.20673972 -0.23226978 0.49526772 -0.012196701 -0.18782328 -0.14061704 -0.034213953 -0.17046118 0.3077671 0.057888936 -0.014734646 -0.11213058 -0.090884745 -0.106435835 -0.17950213 0.25340667 0.11227729 -0.37650523 0.24308106 -0.020431008 0.25545597 0.11809136 -0.10414772 0.045420345 0.08374846 0.6372194 0.16218863 0.028746191 -0.044977676 0.18875167 0.25393856 -0.06648237 0.10710977 -0.3925864 -0.34358457 0.426715 -0.038984958 -0.46048108 0.2580594 -0.073506095 -0.7252096 0.21379808 -0.09356265 0.20331478 -0.084191024 0.29702544 0.28417516
149 0.12181309 0.14568602 -0.10754341 -0.099645 -0.1533274 -0.07694803 0.11778881 -0.10230344 -0.096512154 -0.1314049 0.46514 0.20860006 0.1299428 -0.1969456 0.23359884 -0.048245277 -0.12264904 0.23919132 0.390203 -0.016952094 -0.06961528 0.14478189 -0.1741964 0.09804095 -0.04325608 -0.086170144 0.18974781 0.02364553 -0.08410281 0.24956442 0.047247056 0.15338543 0.03965895 -0.02322072 0.10252346 0.16580671 -0.36992007 -0.2946253 -0.04201437 -0.0045323153 -0.17656377 0.23435803 -0.15376303 0.14682366 0.008026977 0.25050148 -0.50865805 0.020546613 0.083100945 0.164646 -0.25129485 -0.04650033 0.12723131 0.0019504688 0.17037414 0.43781808 -0.018701835 0.15282486 0.18707201 -0.32105815 -0.27766916 0.10078044 0.2672431 0.32632837 -0.08535302 0.2894949 -0.3135133 0.16186404 -0.14304666 0.4705604 0.050594117 0.07855752 0.26249164 0.22746652 0.4598066 -0.42810592 0.05623641 -0.026471637 -0.19702272 0.18063915 -0.09517447 -0.032502793 -0.6324772 0.018848814 -0.013334127 0.0924563 0.17334871 -0.062659785 -0.07371831 -0.42486805 -0.15061487 -0.3667275 -0.085330985 -0.24594423 -0.18809286 -0.27441 0.46156895 -0.3534044 -0.022092415 0.24522646 -0.22213425 -0.32971984 0.17988953 -0.07595243 0.39681202 -0.15934736 0.21889411 -0.029760828 0.044911973 -0.32250553 -0.024707465 0.31005776 0.1733984 0.27206704 0.27161014 -0.1960876 -0.15500118 0.13848533 0.15781769 0.19484347 -0.5456458 -0.13084106 0.07173544 -0.05649151 0.036837365 0.15627062 0.000431203 0.085134014
498 -0.019628845 -0.13887377 0.2566683 -0.32789215 -0.22015801 -0.2588099 -0.18508057 0.09859766 -0.6557062 0.26583114 0.085116066 0.10638643 -0.06617156 0.005831786 0.21683075 -0.040860295 -0.20277745 0.09831529 -0.038086016 0.07753304 0.27592754 -0.31767738 -0.2578833 0.4720112 0.11916651 -0.16981396 -0.08823038 0.25675693 0.022283124 0.045562346 0.30358002 -0.068156175 0.0130325975 -0.78805566 -0.0047127735 -0.1377902 0.0072078784 -0.15993176 -0.10465894 -0.48464486 0.2478941 -0.079075426 -0.15608644 0.055105455 -0.23607004 0.29753163 0.26477882 -0.25313663 -0.12651095 0.29194066 0.1538171 0.071579225 -0.23196828 0.04861277 -0.30473998 -0.072382286 0.23131208 0.059870206 0.24853635 -0.11499221 -0.20984848 -0.13619599 0.32294828 -0.55220693 0.24766563 0.032264218 0.1270215 0.06750163 -0.16912934 -0.1617066 0.13605446 0.18611707 -0.036745284 0.6408322 -0.24068122 -0.6719353 -0.23266497 0.30056733 -0.31516883 0.13207428 0.27488983 -0.25217786 -0.14164318 0.15339941 0.42747778 -0.18506545 0.3931773 -0.08311479 -0.17250495 -0.15813293 0.17532338 0.315022 0.17861076 -0.3226238 0.11662585 0.009328659 -0.050488938 0.3014471 -0.35645714 0.22158435 0.25233012 -0.30507502 0.11475929 -0.2443956 -0.22301109 0.19059275 0.3670713 0.3978477 -0.0855351 -0.11833303 -0.26788944 -0.39744452 -0.14138049 0.33214435 -0.3489724 -0.1347332 0.3193206 0.3564865 -0.041637212 0.13696308 -0.3328047 -0.021919308 0.1518418 -0.093732424 -0.16307873 -0.027390232 0.1556687 -0.048290364
545 0.20436269 0.2425112 -0.20505632 -0.2047322 0.15380518 -0.20341183 0.058794387 0.09203991 0.037753906 -0.059608214 0.14307202 -0.010647421 -0.48433396 0.11751795 0.265399 -0.16861011 -0.28633443 -0.41660985 0.33523843 0.17003883 -0.31102404 -0.13399969 0.032191355 0.47231862 0.057574645 0.36216155 0.5878273 0.21273986 0.13065016 0.13171466 0.19273318 -0.1853894 -0.14618152 0.20364188 0.4226817 -0.047266614 -0.11417732 -0.24618196 0.06662473 0.17461723 -0.62849706 -0.15636192 0.29858413 -0.14114541 -0.3011357 0.13246547 -0.2782044 0.24213266 -0.082014225 -0.13892819 -0.06680881 0.054779183 0.19795805 -0.109438814 -0.03211271 0.3167505 0.41988012 0.11660552 -0.008883836 -0.27802774 -0.121623054 0.041734144 0.6106598 -0.28040367 -0.33309105 0.15300868 -0.23099661 0.20323622 0.17867632 0.17874204 -0.2255566 0.03660357 0.05935922 -0.29092258 0.12929979 -0.16360193 -0.13129388 -0.05581124 -0.38766393 0.02967401 -0.23210602 0.14501329 -0.13229655 -0.07635525 0.24878778 -0.026700433 0.15917881 -0.11908189 0.26800057 -0.1478976 -0.27867046 -0.49532336 0.46725455 0.24147317 0.109687455 0.13133056 -0.27609003 -0.30163112 -0.240472 -0.29879236 -0.024596876 -0.28721938 -0.08021678 -0.11924258 -0.11147959 0.04512097 -0.08867381 0.092801295 0.5765445 0.019262915 0.17573814 0.3701779 -0.1422369 0.025474727 0.2573692 -0.009977786 0.07573127 -0.05484038 -0.30600086 -0.1309668 -0.5378212 -0.59795815 -0.002849833 0.117046 -0.15776645 0.6427778 0.3546769 -0.33288705
478 0.23735106 -0.15985872 -0.1451049 -0.07730538 -0.06303898 -0.32449993 -0.052906405 -0.0473149 0.053541616 0.030100575 0.18005276 -0.037233766 0.3076711 -0.06995746 0.29535502 -0.13742556 0.06148479 0.09241701 0.31763843 0.32285368 -0.3885382 -0.2700625 -0.10464342 -0.08057446 0.14948763 0.13260202 -0.010986679 -0.17333156 0.09500872 -0.13563998 -0.06974815 0.22149827 0.3807878 -0.13401534 -0.28112122 -0.3465358 -0.38242847 -0.4282896 0.17481951 -0.06745387 0.3382571 -0.0070461105 -0.27586377 0.22009605 -0.61003053 -0.42278135 0.036608133 0.15358765 -0.1467041 0.047922164 0.20592567 0.11943514 0.007935559 -0.038598597 -0.056624733 -0.56949323 -0.3121336 -0.09840932 0.33184043 -0.22261494 -0.13568528 -0.37780547 0.17782304 0.022687841 0.075213164 -0.040586084 -0.1626822 0.21626672 0.3906571 0.09446834 -0.11714091 -0.17148 -0.17927276 0.19399334 0.32364723 -0.6479637 -0.030676646 0.09071941 -0.17152828 0.5869458 -0.05528427 0.12262426 -0.12968268 0.26618275 -0.26137158 0.18020906 0.041409 -0.11145339 -0.037872955 0.37083334 0.25515962 0.013818901 0.17756897 -0.03913092 0.07601186 0.11556094 -0.03746193 0.13158771 -0.41081464 -0.22118801 0.43142182 0.35833123 0.27433774 -0.20463091 -0.18332493 -0.28649706 0.33530247 -0.27190772 0.17270607 -0.079434454 0.4346222 -0.13185698 0.26477405 0.35605016 0.08491386 0.11398332 0.345283 0.5437459 -0.22942229 -0.29699633 -0.6040279 0.16282359 -0.25353304 -0.12128565 0.13531798 0.15019795 0.17125146 0.04510279
784 -0.008692645 -0.31576684 -0.24043114 0.12596378 0.057639964 -0.2157458 0.24405584 -0.095908426 -0.09336229 0.21643205 0.31793702 0.014440316 0.17135656 0.21998684 0.3619087 -0.10881507 -0.2861495 -0.63048625 0.29125378 0.22012402 0.18849684 -0.06265341 0.13352329 0.28162673 -0.0494651 0.16651677 0.47018197 0.06323779 -0.07589832 0.17609629 0.6019801 -0.35435006 -0.25379878 -0.4588618 0.049983792 0.28219694 0.13845973 -0.2941137 0.0030670092 0.17214744 0.00035773046 -0.2703943 0.17390166 0.4223072 -0.14170067 0.5026993 -0.30601937 0.05709835 0.058267917 -0.053608526 -0.42233032 0.10042681 0.16239302 -0.15246934 -0.25131345 0.31463233 0.035368003 -0.43835682 -0.20905066 -0.41500047 -0.34121883 -0.17342104 0.07776785 -0.07916286 -0.09312839 0.18033078 -0.09307318 -0.011440156 0.31415775 0.10126836 -0.16740568 0.018787341 -0.108197294 -0.0947045 0.106091 -0.5151389 0.017287249 0.010601145 0.019811915 0.13385385 -0.29684994 -0.2758053 -0.5538081 0.34561312 0.16984439 -0.35923678 0.030046776 -0.15808173 -0.18403389 -0.5458652 0.0025633087 -0.3701282 0.16434203 -0.10572743 -0.007563755 -0.17380622 -0.2590623 -0.1405597 0.40581527 -0.10177272 -0.09053757 -0.089985974 0.2494938 -0.34867904 -0.046306223 0.035874046 -0.24121648 -0.07812618 0.37379026 -0.026847554 0.17801444 0.34375378 -0.12877911 -0.049635988 0.047652215 0.045317248 0.50442326 -0.05166684 0.25866726 -0.14748107 -0.51408374 -0.34178233 -0.15562886 -0.11305158 -0.20355481 0.8834256 0.16976811 0.06762979
289 0.15505932 0.11828047 -0.06558262 -0.49323675 0.07424805 -0.43104678 0.22500914 0.16440858 -0.7748384 0.065589614 -0.027228879 0.54124737 0.2141552 0.25737545 -0.27735254 -0.5679806 0.13106859 0.20979142 -0.14299516 0.11393815 0.050433405 -0.055588204 -0.5933108 0.06437357 0.19722706 -0.085236765 -0.21149632 0.054735042 -0.07994198 0.13765295 0.40366474 0.22978762 -0.22688791 -0.5538994 0.16745852 -0.20325142 -0.18164727 -0.03666976 -0.15781803 -0.13609412 0.36163056 -0.05764937 -0.092878774 0.10203175 -0.08137859 0.37806335 -0.08768343 0.0026880784 0.07259251 0.2540761 0.043947536 0.038591273 -0.33931142 -0.014303959 -0.28165144 -0.015009697 0.14512628 0.08701043 0.26487815 0.19148476 -0.023218133 0.2302958 0.20308442 -0.46203277 0.25901365 0.015590192 0.16490681 0.4698483 -0.060024567 -0.35715085 0.04460442 0.26754603 0.24940598 0.48931846 -0.011662693 -0.51654404 -0.046460032 0.0074297343 -0.25532642 0.08687004 0.4537355 0.22126225 -0.079799324 0.1361275 -0.05884416 0.3183586 0.21551025 -0.011915357 0.04205874 0.13936538 0.1758104 -0.23618959 0.6006612 -0.2849069 -0.09044369 0.2569839 -0.004002016 0.045088902 -0.36464846 0.043548666 0.29809687 -0.073670425 0.16404404 -0.24246778 -0.24394248 0.1465747 0.3858302 0.28000316 0.013809671 0.030196382 -0.11923606 -0.2966602 0.34284556 0.24946947 0.016814783 0.3279631 0.16020651 0.005637189 -0.236289 -0.23696151 -0.10255508 0.008868689 0.38941672 0.057708222 -0.17225987 -0.0044540097 0.21805228 -0.09842019
313 -0.009137206 0.06944673 -0.31139144 0.09309438 0.19797118 0.023807734 -0.67934936 -0.4211553 -0.21048889 0.036654193 -0.37573645 0.09457828 0.08954599 0.34917328 0.15427484 -0.19454959 -0.18849471 0.01967277 0.49965328 -0.06474075 -9.272737e-06 0.110700466 0.033097267 0.25878537 -0.010892491 -0.11602763 -0.106652655 -0.19992901 -0.2518188 0.3515766 0.37870568 -0.02363719 0.552949 -0.21366122 0.3081438 0.13325873 0.43659854 -0.044962883 -0.35281664 -0.11453293 0.020461643 0.3325753 -0.04597431 -0.13312091 0.030223455 -0.08350665 -0.13477962 -0.0051678647 0.2518683 -0.22306694 -0.24240516 0.06737454 -0.009143786 -0.38006437 -0.3338899 -0.2095717 -0.33830038 0.08006006 -0.22517389 0.07279446 -0.20981836 -0.060531322 0.13768543 -0.31306952 0.09681216 0.03062031 -0.15757686 0.20326054 -0.09303995 -0.06547348 0.15515253 0.29353833 0.21132901 0.30125374 0.40063685 -0.36698097 -0.025139917 0.4235155 0.033098653 0.11387385 0.022564406 -0.16162509 0.40095988 -0.009198182 0.3171083 0.5697182 -0.08786547 -0.04107433 -0.13449012 0.0036971103 0.2230086 0.16345114 0.1851758 0.49840447 -0.2781887 0.19930878 -0.302829 0.27274436 -0.03364115 0.25194845 -0.03857814 0.079605944 0.03591136 -0.016112981 -0.4836703 0.40191716 -0.4326454 -0.23147886 0.6576551 0.012825148 0.2777737 -0.06726767 -0.0530053 -0.24547847 -0.22192745 0.13135894 0.09986983 -0.010883898 0.06416243 -0.062220577 0.25207803 -0.22270234 0.09430635 -0.19171067 0.38407826 -0.15403226 0.11207888 -0.00046911754
113 -0.30308175 0.23974961 -0.13569602 -0.17840613 -0.027179668 0.014072324 -0.15820365 0.33741957 0.13609013 -0.24734348 -0.06822449 -0.20573136 -0.24517833 0.41420224 -0.10159903 -0.14002687 -0.20750631 0.27456033 -0.12681866 0.18999049 -0.26313362 -0.32541543 0.1604091 -0.1651361 -0.091025665 0.22405738 -0.026933245 -0.03078978 0.10189031 -0.103203446 0.37280488 -0.105128326 -0.1321488 -0.18537979 0.22765851 0.010830941 -0.13046604 0.21358907 0.09218839 0.10239798 0.09967968 -0.081606686 -0.30370826 -0.16666393 -0.13967969 -0.057656366 0.32106867 0.0774821 0.23248 0.2616267 -0.003907536 -0.078089125 0.15354003 0.10499966 0.52316016 0.117963284 0.29139143 0.010687403 -0.1750056 -0.3085607 0.07540823 -0.33221024 -0.23130485 -0.2985774 0.092796035 0.28364414 -0.1034736 0.06370088 -0.39608046 -0.121091 0.11257556 -0.20753941 0.08311921 0.01648051 0.21654187 -0.359489 -0.33705285 0.57335037 0.03820433 0.032179076 -0.21844919 -0.010988263 -0.4420001 -0.39135763 0.074702166 -0.14855322 -0.46388942 -0.48243225 -0.07097057 -0.32332113 -0.018742705 -0.24991657 -0.09150235 0.32001367 -0.42246264 0.40135488 -0.19547336 0.14451176 -0.21551712 0.24885842 0.28054425 -0.580185 0.011279229 0.11695507 -0.35667047 0.24665496 -0.120857805 -0.29992375 0.5543455 -0.028627124 0.26298338 0.13287069 0.011890767 0.21735485 -0.05787927 0.1810239 0.28269956 0.15563007 -0.038825963 -0.08050773 -0.12886724 0.2048319 -0.1315862 0.56232625 -0.015897136 -0.33097944 -0.3112744 -0.13277668
47 -0.39051914 0.43565023 0.03972951 -0.22695105 0.35559067 -0.13663173 -0.4117239 0.016133942 0.17721759 0.26429823 -0.51561564 0.2498768 0.45880687 0.36256993 0.009144135 -0.024041794 -0.20236789 0.17227706 0.16014278 -0.51475555 0.04147226 -0.018761938 -0.1942938 0.4786062 0.15533367 0.053047854 -0.12381533 -0.0656838 0.116215155 -0.009909351 -0.12791088 -0.36410272 0.30315942 0.13325498 0.28269264 0.26354143 -0.052135445 -0.1300541 0.44973266 0.1077859 -0.067312986 -0.05716776 0.21960066 -0.1669657 -0.10723423 -0.4012227 -0.063591436 -0.03870351 -0.397937 -0.0459736 -0.23195016 0.21897264 -0.097206794 -0.033650424 0.4622276 0.30981883 0.45667276 -0.028358404 -0.0015726332 -0.24522763 -0.23027748 -0.1738441 0.247352 -0.19353755 -0.15822712 0.22422484 -0.030165805 0.0029704755 -0.37868094 -0.18198623 0.59794843 0.04322042 0.0028340428 0.43091074 -0.15344934 0.08397193 -0.07904775 0.25645703 0.14988483 0.13565552 0.295144 0.009444024 -0.21978366 0.17377257 -0.06680305 -0.550357 -0.3197687 -0.16521768 0.34795398 0.017762957 -0.3410249 0.15749559 0.13110612 0.105802625 -0.22212508 0.39845106 -0.11616064 0.040843498 -0.012074933 0.2870336 0.08557102 -0.21526396 0.20788802 0.26286197 0.077468306 0.07399946 -0.4209116 0.15222289 0.19259344 0.03408736 0.5107358 0.27982342 -0.38118008 0.06806898 0.025834896 0.13235295 0.5129474 0.3734634 -0.054342747 -0.09587849 -0.0058026263 -0.14339638 -0.3203163 0.3130608 0.2693244 -0.08613284 -0.32482186 0.6282032
504 0.13221541 -0.1245143 -0.18117122 0.03154991 0.25764275 -0.2531914 0.22398907 0.06388607 0.09322479 0.22609808 0.5207237 -0.25989184 0.0434195 0.09253828 0.49701685 0.07816485 0.2585718 0.011392307 0.26960835 -0.28836828 -0.2505038 -0.0036986498 0.03663832 0.15321496 -0.047322154 0.18859026 0.27899325 0.059812535 0.22834794 0.003988619 0.1119487 0.3942031 0.10106316 -0.32390746 -0.080478646 0.0449162 0.10145406 -0.23643887 0.23752919 -0.24782333 0.25357905 0.283589 -0.19996023 0.227436 0.23055296 0.28003442 -0.22647113 0.045977086 -0.02611156 -0.21286044 0.083720095 0.3661632 -0.033625912 -0.17391072 -0.46073025 0.0015866887 0.34772632 -0.057130896 0.11910656 -0.2812006 -0.06552711 -0.102393635 0.44569743 0.20413642 -0.059158407 0.14841081 -0.28496304 -0.19054404 -0.21807587 -0.20237108 0.23792888 0.2244802 0.05890052 -0.24238105 0.27754375 -0.06482259 0.2816377 0.12108829 -0.21917057 0.26556733 0.015166665 0.022660887 -0.44959307 -0.30986562 0.024163775 -0.20570377 0.13649972 -0.02932698 0.09057902 -0.34403533 -0.06639684 -0.16919549 -0.18832268 -0.029306604 -0.07582384 0.12792288 0.13681239 -0.35195115 -0.2246853 0.5304145 -0.36583814 -0.38763556 0.11266263 -0.22659667 0.22656399 -0.12761761 0.33404803 -0.4657183 0.36561725 -0.11183209 0.07449755 0.20800363 0.3125457 0.0146091655 0.4397951 0.19718851 0.12284992 -0.033436228 0.099481665 -0.07095026 -0.20443237 -0.35287392 -0.1729244 0.10517771 0.020026343 0.14660518 0.6852869 0.12239651
162 -0.19514494 -0.34103265 0.38440037 -0.02312667 -0.012544557 -0.12747164 -0.085920766 0.3107816 -0.73664767 -0.0058048856 -0.16155644 0.057101462 0.02916468 -0.06654567 0.1377408 -0.034379516 0.09265354 0.3645353 0.055195965 -0.05325035 -0.19449812 -0.30561867 0.017541787 -0.2968004 -0.11820315 -0.23111804 -0.17966838 0.3887131 -0.065346085 0.033191416 0.06683536 0.4168951 -0.020391202 -0.6198568 0.44994405 0.03412705 -0.29783583 -0.35677907 -0.035476 -0.52865034 0.06276326 0.21478161 0.2288947 -0.0055308007 -0.17820245 0.34171015 -0.038143203 -0.07749812 -0.06588775 0.32052663 0.3099961 0.2472291 -0.36470687 -0.028486257 -0.34154877 0.21005213 0.033324607 -0.04351426 0.20675266 0.08883005 -0.09002238 0.019004596 0.3695982 -0.18676123 -0.34214652 -0.027469251 0.047115643 0.21290483 0.005530401 -0.23062316 0.23623419 0.1518145 -0.24966273 0.77392566 0.10797958 -0.5223635 -0.15492558 0.09582173 -0.2692496 0.10010668 0.39318416 -0.11678849 -0.32017708 0.22183928 -0.09974489 0.047914997 -0.05277609 -0.24393143 0.18972982 0.25428048 0.13286279 -0.39904532 0.30848354 -0.34485248 0.20510645 0.11817072 -0.4495357 0.18604785 -0.5887309 0.10571286 0.30188066 -0.35432798 0.08243987 0.10815626 -0.4833596 0.4123278 0.4173726 0.21712723 0.12203926 -0.06612366 0.00842711 0.05056912 -0.039389115 0.42691785 0.034189742 0.055884443 -0.022936868 -0.10779614 -0.37167287 -0.19102077 -0.17456494 0.35398284 0.19064482 -0.1269784 -0.0053191576 0.33039632 0.40375546 -0.016045067
487 0.035545234 -0.15446755 -0.06680242 -0.03763041 -0.23596455 -0.27302042 -0.41681093 -0.031910833 -0.34317946 -0.098169744 -0.0070124343 0.18615223 -0.21039492 -0.03546246 0.07997435 -0.14994736 0.034894433 0.07066356 0.014992888 -0.37219766 0.072841436 -0.18363032 -0.070492685 0.12751836 0.020208793 -0.4366007 -0.23233585 -0.21697514 -0.40788987 0.31773967 -0.27145433 -0.34876862 -0.21876828 -0.191116 0.4458448 0.1395609 0.18010008 0.13840204 -0.14492227 0.5520049 0.23047963 -0.24279948 0.06419952 -0.071103945 0.03296521 -0.06593796 0.15463805 0.14131948 -0.11232254 -0.113011114 -0.2975655 0.16042545 0.5822374 0.32120252 -0.29837057 -0.051811088 0.37273157 -0.27150303 -0.18361652 -0.38165998 0.08684767 -0.3080716 -0.30689675 -0.27052224 0.46033803 0.3278895 0.103881136 -0.03533916 -0.26802346 0.100609876 -0.015520879 -0.027158258 0.29932716 -0.05447065 -0.07861654 0.09160441 -0.3857145 -0.07113195 0.019289657 0.27730536 0.0038701987 0.13221365 0.27167153 -0.23689345 -0.34136587 -0.01931561 0.06946436 -0.23054528 0.06643724 -0.33729148 -0.13851184 -0.17912692 0.37379557 0.42222303 -0.11133336 0.011439257 -0.1512918 -0.13458025 0.12212732 0.040964596 0.027869659 -0.21634561 0.23495272 -0.2160345 -0.2941212 -0.04932751 -0.01640429 -0.32924604 -0.19063371 -0.4380668 0.04714029 -0.00809446 -0.04145777 0.35880616 -0.16845001 0.0170811 -0.15352349 0.3209837 -0.29799145 -0.2784481 -0.26503783 0.24389961 0.19165023 0.38097265 0.01706071 -0.068796486 0.11570799 0.5639049
7 -0.30874592 -0.1699153 0.032648887 -0.18217799 0.12959306 -0.2678804 0.19401672 -0.18101609 -0.15241255 0.31817132 0.090516 -0.32007915 0.49160177 0.03223987 0.5799946 -0.10956228 -0.5411961 0.36946797 0.055904888 0.24593545 -0.017074795 -0.057379942 0.45927966 -0.0039539146 0.13782452 -0.4039336 -0.03919011 -0.36992922 -0.17620318 -0.2035278 0.016763907 -0.05997241 0.040526066 0.028510889 -0.17156504 -0.16303378 -0.026778968 0.24612722 0.5286901 0.22597311 -0.34771553 0.09081821 -0.07149558 0.108332254 0.047174484 0.34352648 -0.26438707 0.49328157 -0.08889874 0.1411662 -0.08572211 -0.31701383 -0.1452373 0.234257 -0.21791081 0.44561216 -0.22879186 -0.12547235 0.39327243 0.053607892 -0.1965766 -0.08344218 -0.031122737 -0.1422814 0.19303425 0.2201225 0.25831473 0.2806105 -0.22704378 -0.049329437 -0.2641071 0.09235678 -0.042101298 0.013444854 0.10963888 -0.138401 0.42318377 0.27894652 0.14361258 -0.15244712 -0.032258507 0.21759473 -0.055953756 -0.049666546 -0.1262125 -0.0023695554 -0.2603009 -0.20448104 -0.40159547 -0.3850362 -0.03770032 0.2518853 0.30962026 -0.07562895 -0.18413624 -0.30868927 0.054808434 -0.269204 0.211358 0.21412385 -0.015730243 -0.44316185 -0.08945974 -0.112191774 -0.4034755 0.3126651 0.11602217 -0.063585415 0.03502028 -0.0025520015 0.1364483 0.06357293 0.12208444 -0.010857998 -0.022294426 0.05023561 -0.3152293 -0.03969872 -0.12113918 0.011232407 -0.087455355 -0.21705072 0.21731004 0.36772084 0.38095298 -0.4296208 0.18032637 0.31336474
160 -0.3017589 -0.228603 -0.031543 0.020460233 -0.014391038 -0.15807149 0.037739642 -0.37796754 -0.021839358 0.36026716 0.024736892 0.45676833 0.072425306 0.08815244 0.23783323 -0.040170223 0.056463685 -0.32129446 0.27569646 -0.17481194 -0.22430633 -0.20595057 -0.23138328 0.2055933 0.17915037 -0.07124108 -0.0025401837 0.03935959 -0.052771118 -0.14201674 0.1956054 0.06541326 -0.0010017487 -0.017771028 -0.35137498 -0.17696477 0.0134526 -0.30375877 0.1712183 -0.055658307 -0.28783575 -0.30095258 0.29413062 0.16338214 -0.07157443 0.43974742 -0.27940863 -0.15398195 0.2904802 0.18031745 -0.28270853 0.13225442 0.038381327 -0.1530199 0.21185216 -0.22870083 0.25956395 0.17720547 0.12514348 0.01975563 -0.08561226 -0.26321608 0.1971522 -0.19007498 -0.13988873 0.22729236 0.07748028 0.057597917 -0.21487798 0.17348443 -0.11746751 -0.026560863 0.002187776 0.07194621 -0.2641831 0.20623943 0.01999005 0.0070844046 0.029337432 0.37903938 -0.1646902 0.31291643 -0.5881455 -0.43105993 0.18111694 -0.05991222 -0.037528582 0.032741074 0.39207184 -0.50747067 0.18516897 0.10112815 -0.30119622 0.2693492 -0.12125415 -0.4410829 -0.06515676 -0.11180516 -0.23463379 -0.26257434 -0.06545387 0.052798647 0.42189777 0.010524726 0.10617729 0.14362542 0.25928372 -0.32264188 -0.0699934 -0.09862289 0.22524467 0.09146061 0.12268454 0.0715124 0.038818564 0.091687 0.120434806 0.25339934 0.01830606 0.1826479 0.07606011 -0.22097868 0.36640632 0.29258996 0.2536764 0.18288651 0.049866926 -0.1829553
493 -0.073731706 0.028478002 0.092530124 -0.1435818 -0.07260943 -0.21118596 0.20130561 0.1266753 -0.12879676 0.20383179 0.416881 0.010963033 0.04314227 -0.17750034 0.28999203 -0.30362755 0.0074244146 0.04833568 0.40475863 -0.013045217 -0.09132814 -0.08418282 -0.012833627 0.01360412 0.003671563 0.114103615 -0.076409034 0.062736325 0.06258496 0.17479555 0.26117063 0.13241106 -0.038998496 -0.072758175 0.1625775 0.03229857 -0.20640196 -0.10914968 -0.03506601 0.012728749 -0.26204264 0.34557 0.15582837 0.23374791 -0.012798365 0.12841201 -0.39168906 -0.012298479 0.11615771 -0.048815437 -0.29232246 0.07253863 0.07270087 -0.22338107 0.0035560788 0.3001677 0.009478795 -0.14941771 0.15786727 -0.44833702 -0.115754336 -0.009661921 0.23253888 0.31065685 -0.14026506 0.1923338 -0.29020867 0.17693597 -0.19066897 0.55096483 -0.0689987 0.1090676 0.2033882 0.10491407 0.24221762 -0.3112554 0.20535251 -0.16987595 -0.29396182 0.16960087 0.038801517 0.18912552 -0.524087 -0.097434856 -0.035986923 0.06672765 0.12312529 0.018910145 -0.4034855 -0.26209185 -0.13684818 -0.20163831 0.024718715 -0.17967626 -0.16895899 -0.07738493 0.36509335 -0.29735982 0.014244628 0.44002566 -0.11533696 -0.15513119 0.2137552 -0.16204442 0.2714191 0.014202908 0.1700391 -0.18921854 0.10422606 -0.011356442 0.03317478 0.2679182 0.06646333 0.22581376 0.10486234 -0.005534213 -0.051724944 -0.0022704396 0.03463953 0.08813476 -0.28998724 -0.18051308 0.15405853 0.038114596 -0.023914188 0.25418675 -0.10882984 0.10844545
437 -0.16060525 0.1431564 -0.20186566 0.1559717 -0.09576205 -0.28250793 0.018236784 0.015744003 0.0036183028 0.014385893 0.22983912 -0.3462847 0.076000854 0.08412813 -0.31554577 -0.026034983 0.3382128 -0.23382233 0.40600613 0.59984875 -0.18988702 -0.065795355 0.16830297 -0.0149726905 -0.08059841 -0.22272843 -0.026769781 0.2345375 0.0038199828 -0.089709535 0.10881203 0.015299694 0.13648635 0.2956024 0.12924296 -0.124683015 0.15864119 -0.15198217 -0.059114747 -0.0847012 -0.19372931 -0.27917075 0.19501014 0.09290458 -0.26419315 0.20636801 -0.279136 0.14536463 -0.14160664 0.5250543 -0.09248171 -0.126075 0.055253502 -0.1835583 -0.09056355 -0.120997295 0.15658762 -0.2782779 0.033102825 0.08222393 -0.0143602565 -0.050461337 0.00036797926 -0.02715415 0.04518957 0.217514 -0.25247702 -0.037943907 -0.5006716 0.2647929 0.014883602 0.063655406 0.11996361 0.28908542 -0.04185046 -0.11103929 0.27968457 0.17183062 -0.067095965 -0.11776207 0.030573105 -0.06360165 -0.2079758 0.12707637 -0.08790062 0.19572616 0.26268646 -0.03470595 -0.03946155 0.056868184 -0.1358036 0.29954174 -0.090396434 -0.10947498 -0.18334423 0.021463566 0.215023 -0.09011612 0.048448946 -0.11408363 -0.26833025 -0.07752828 0.06967198 -0.047343627 -0.029332068 -0.2585346 0.18198715 -0.18865442 0.11035362 -0.025090452 0.06707521 0.29497272 0.09198424 0.27715364 -0.044394407 0.08441928 0.12580875 0.12915109 -0.23527299 -0.053746358 -0.1611579 -0.2115012 0.043033082 0.14211148 0.36262026 0.14557429 0.01845223 0.1468962
12 0.07620564 -0.041199815 -0.2028096 -0.065995604 -0.015828827 0.03812502 -0.37911066 -0.07881714 0.20430101 0.6518493 0.1983385 0.32912704 0.15465483 -0.17339706 -0.12321482 -0.31737807 -0.1274132 -0.027419345 -0.18924008 0.059204087 -0.7825792 -0.23413189 0.091610715 -0.0034965812 -0.11832336 -0.16473296 0.081900604 0.19475277 -0.2599656 0.11379645 0.38046998 -0.4237686 -0.15289964 -0.17793505 0.13328773 -0.345557 0.02910607 -0.18473712 -0.11790822 0.073509365 0.6322082 -0.093147986 0.1226456 -0.09227171 -0.13183095 -0.22979556 -0.10285856 0.0033464115 0.030958956 -0.22153188 0.22558513 0.06975023 -0.23946363 0.2465041 0.045381155 0.072641596 -0.12095909 -0.21241933 0.040746976 -0.34118423 -0.024865652 -0.16703285 0.29315153 -0.17995667 0.259743 0.09210673 0.2916663 0.030510403 -0.24869117 0.20622212 -0.10961423 -0.21388744 0.016977984 -0.3135575 0.044352196 0.14847076 -0.07757341 -0.1504909 0.31627268 0.29414406 -0.05436909 -0.36050016 -0.10768269 0.30320254 -0.123488784 -0.2074418 0.08281752 -0.14972839 0.12566972 -0.38755623 0.26402533 -0.43536428 0.48050937 0.20281297 -0.24226278 -0.031769432 -0.45469964 -0.13546355 -0.57121444 0.21149774 0.020599727 0.035774995 0.3674683 -0.15823717 -0.22933803 0.048103977 0.29242423 -0.27895963 -0.38880503 -0.09502418 -0.13586307 0.054671615 0.13737296 -0.29046696 0.14101507 -0.011441415 0.027581217 0.12815136 -0.38877437 -0.29990596 -0.21493769 -0.060290027 0.05554378 0.12601453 0.061107405 -0.2850591 0.3815909 0.23199137
