859 128
693 -0.4414877 0.0057752 0.0065103085 -0.018572962 -0.13201101 0.020110015 -0.14947298 0.18829152 0.020196665 0.2843767 0.10279013 0.04039224 0.06966834 -0.12761591 0.07589198 -0.126347 0.33675072 0.052690677 -0.07181625 -0.06933009 0.046946105 0.009047438 -0.059082344 -0.04046472 -0.19109139 -0.19631334 0.020192327 -0.08501231 -0.14640793 0.15196042 0.18175873 0.16731623 -0.12313342 0.25726122 0.0033848686 -0.09748512 -0.0136548765 0.29904932 -0.3695791 0.15605329 -0.031858217 0.16528897 -0.29342994 -0.049828123 -0.09692116 -0.026104318 0.15512064 -0.02862538 0.09843147 0.15398678 -0.24227653 0.29385766 -0.028084885 0.3481691 0.30976817 0.019834168 0.057398845 0.20018235 0.2739143 0.027050376 0.2571621 0.1641489 0.11014432 0.14547352 -0.010972235 -0.02779447 0.16834916 0.083911434 -0.10196006 0.02021096 0.039645433 0.22280492 -0.09248825 0.19281316 -0.1162328 -0.014767714 -0.07097436 0.05060727 -0.19261146 -0.058982737 -0.09733283 0.1148367 -0.13385844 -0.21991655 0.020414619 0.3923717 -0.091435984 -0.13680759 0.12135991 0.091760024 -0.058872048 -0.13402052 0.078344524 0.061140668 -0.14600405 -0.31205446 -0.09169733 0.19743901 0.17081319 0.13005479 -0.2954699 0.25166783 0.15581813 0.040162887 0.3301914 -0.07991354 -0.08263931 0.035466082 0.28850743 -0.0150089245 0.018114543 0.14753047 -0.34161878 0.042616572 0.38489586 -0.054299183 -0.05703848 0.11261436 -0.016205268 -0.0016031315 -0.09767476 -0.23348641 -0.04657806 0.19004993 -0.1482439 -0.17685239 0.067917176 -0.25687978
328 -0.10884078 -0.03287307 -0.00052975275 -0.3724566 -0.20880687 0.14228263 -0.094099835 -0.45521247 0.04569186 0.010266843 0.35229623 0.24475233 0.09235088 0.034327354 0.5617519 0.17657426 0.22677004 -0.22343116 -0.06398471 -0.42819834 0.029059654 -0.35815477 0.2638989 0.09071416 -0.42517495 0.07756841 -1.1136162e-05 0.07463851 -0.0850878 0.061602827 0.085845426 -0.14930609 -0.078450575 0.4260522 -0.14352392 0.2589916 -0.16462651 -0.03870483 -0.032253504 0.007836012 0.06270394 -0.090836376 -0.011184372 0.31678346 -0.2412424 0.0350174 -0.074819624 -0.033256993 -0.280482 0.2450807 -0.018694561 -0.3324841 0.04041557 -0.042258717 0.10620957 0.02377865 -0.03719826 0.03118751 -0.201488 -0.02522413 0.08250608 -0.07844947 -0.022690514 0.16574988 -0.1630674 0.1667521 -0.016096547 0.21171908 0.048074696 0.14091255 -0.012517107 0.29624528 -0.09233434 0.07177445 0.2866413 0.17337471 -0.3141625 -0.052893635 0.11715279 0.3112073 0.048041254 0.22008286 0.06902664 0.41546062 -0.053540833 0.09080394 -0.27125543 0.20611261 -0.079006195 0.08007256 -0.107803844 0.16040753 -0.20888226 0.32411557 0.089747295 0.047027875 0.07493184 0.12371797 0.14639881 -0.09258734 -0.15881541 -0.23356332 0.050053082 0.01923879 0.121489584 0.107717074 -0.01233976 -0.24457552 0.017917788 0.15110704 0.014496146 0.019873178 0.1390166 -0.31331578 0.21223158 -0.056141973 0.15710835 0.29595003 0.20933172 0.08307654 -0.1424057 -0.13945225 0.10304277 0.27318472 0.023636421 -0.14332691 0.22335374 -0.25643158
698 -0.16969493 0.09647027 -0.18497486 -0.029009413 -0.20441067 0.20896879 -0.027646536 0.053330813 0.051151805 0.10090581 0.22579192 -0.1419832 -0.082748525 -0.075165346 0.31304023 0.136728 0.31296748 0.074443795 -0.1211159 -0.079166144 -0.35179976 0.001984383 0.08436263 0.12294883 -0.14871867 0.03553651 0.24647488 0.10252123 -0.009044229 0.28202188 -0.015130685 -0.23648185 0.031829543 -0.1720653 -0.28445706 -0.27973676 -0.27176374 -0.22102024 -0.31338724 -0.013757572 -0.010217383 0.029545415 -0.4356451 -0.31449297 0.02986822 -0.15463156 0.031638976 -0.003991094 -0.07913334 -0.23796871 -0.29891455 -0.5561914 -0.13663355 0.005580545 -0.3001211 0.12064508 0.41665316 0.06658497 0.09432587 -0.25692508 0.11662148 -0.16242616 0.24882855 0.16933772 -0.39840582 -0.4392548 -0.08268752 -0.108912885 0.1496188 0.12391126 0.0036433877 0.04504365 -0.06128811 -0.20899495 -0.14708935 -0.113566615 -0.1101864 -0.017436923 -0.114416085 0.005358142 -0.025987322 0.10275468 0.265107 0.014639738 -0.27072665 -0.14304388 0.11597191 -0.027401105 0.09726446 -0.031352434 -0.17957562 -0.09443988 0.36725664 0.07648026 -0.23789331 0.036450755 -0.12337661 -0.1134444 -0.04531867 0.07919468 0.27629343 -0.12936515 0.58228254 0.06447366 -0.11609006 0.3337178 0.06251459 -0.09901272 -0.029387241 -0.16913071 0.041884884 -0.08671776 0.09828964 -0.30500913 -0.1283589 -0.067508124 -0.07486182 0.12993799 0.13867526 8.354753e-05 0.28065363 0.050290227 0.29662997 -0.23850349 -0.17380168 -0.24246927 -0.51269233 0.0049387547
380 0.015086673 0.23663399 0.1151072 0.1530349 -0.062023737 -0.00074448425 -0.07069245 -0.04052927 -0.09862002 0.15235385 -0.1400615 -0.0248517 -0.41587988 0.06337532 0.2732067 0.13617985 -0.039069537 -0.21573888 -0.055452242 -0.16989987 0.031910207 -0.06870957 0.07408986 0.3483995 -0.3239282 -0.062404078 0.14179814 0.009873062 -0.118961 -0.0059492565 0.24906951 -0.035299744 0.016483335 0.31532758 0.22953796 0.044267334 -0.49973482 0.16039616 -0.036539376 0.183272 -0.12169967 -0.039871294 0.020661138 -0.113724604 -0.10231994 -0.22629045 0.3099066 -0.05868245 -0.36027983 0.17244577 0.061573926 0.26385823 0.07257871 -0.21602404 -0.023685101 0.08692744 0.24907467 -0.26292497 -0.021334428 -0.1783095 0.20417476 0.17717905 0.1560863 0.115561545 -0.15205023 0.110802 -0.34557396 0.12057852 -0.17785111 0.2883312 -0.052276805 0.023279896 0.23383345 0.19563083 -0.07360548 0.06040834 0.1221732 -0.058865584 0.2089728 -0.11012347 0.2995045 0.20130114 -0.55377704 0.2577283 -0.25909916 -0.01854171 0.008531634 0.1644259 -0.11512604 -0.054556992 -0.27324957 -0.17106 -0.059408188 -0.23216435 0.22667392 0.07372453 -0.18281496 0.062856406 -0.0062314603 -7.201459e-05 0.25790957 0.09016426 0.5988192 0.06272132 0.236559 -0.032334827 0.055257455 0.07781075 0.15554762 0.20710185 -0.38440412 0.051286753 -0.16648147 -0.055818487 0.13380341 -0.048943046 -0.22250968 -0.15165874 0.2934211 -0.32292745 -0.016328067 -0.16249463 -0.063710034 0.19498377 -0.14442289 0.0010974129 0.12866427 -0.010851084
415 -0.114037976 0.023525178 -0.06332901 -0.20165929 0.3708183 0.14640655 -0.23414953 0.83431995 -0.035869036 0.08997074 0.22376528 0.15281603 -0.032379806 0.13661636 -0.20650023 0.17399652 -0.04209222 0.026650298 0.017050875 -0.15273663 -0.28853175 0.13252333 0.27225038 0.30602032 0.16062418 0.1299171 -0.13169037 0.047757186 0.26570594 -0.008075325 0.21894273 -0.06904517 0.23978855 -0.08123962 -0.021270135 -0.1201115 0.16255362 -0.09581203 -0.28622264 0.05589473 0.09910759 0.024149625 -0.22729369 0.22337657 0.038118005 -0.06529996 0.167371 0.018107971 -0.07891933 -0.37353998 0.055040732 -0.03611551 -0.35323176 -0.13401331 0.17937233 0.2424198 -0.15549918 -0.20926954 -0.1907757 -0.30735445 -0.07448904 -0.006988781 0.08819197 0.017158559 -0.20692714 0.102124766 -0.16195929 -0.115909554 0.073538646 0.26867586 0.38939083 0.33292213 -0.09493707 -0.025416028 0.26392666 0.084598534 -0.06630561 -0.28780353 0.15010843 -0.27465048 0.2643453 -0.19203246 0.100373894 -0.12753193 -0.030645344 0.33620518 0.12591498 0.050767478 -0.13362996 -0.13932516 0.057163052 0.11982215 0.27722594 0.16162133 0.2451116 -0.49388427 -0.037301663 -0.069014765 -0.20271826 -0.13083915 0.05678151 -0.118929 0.366683 -0.0018092473 -0.064914286 -0.15638958 -0.14489925 -0.07534878 -0.19367892 0.0031445588 0.15849687 0.17237788 -0.3303864 -0.15744828 0.05154695 0.29026976 -0.14680594 0.2690184 -0.087088615 -0.009163467 0.2126266 -0.13611424 0.05009208 0.041644998 0.20488425 0.1935309 0.24324615 -0.29136798
177 -0.110612616 0.16475347 0.08028362 0.06414693 -0.08840816 0.06623535 -0.46000537 0.13329828 -0.23288362 0.1937202 0.21146011 0.08982644 0.23736323 0.038913567 -0.29649183 0.3262801 0.007813074 -0.23222746 0.25817657 -0.13299543 -0.21616696 0.104522005 0.32194406 -0.0119825965 0.07139423 0.0051783486 0.094613254 -0.1878763 0.3199003 -0.17710625 -0.08603814 -0.4650176 0.24527843 0.105499476 0.15198971 -0.22620961 0.034904387 0.05553071 -0.19034116 -0.23654304 0.37647027 -0.34665668 -0.2629336 -0.013556857 -0.11719728 -0.47315022 0.04749203 -0.20573159 -0.084176 -0.26208112 -0.3161651 0.18593168 -0.015474538 -0.036739074 0.22188522 -0.011627466 -0.13784577 -0.21971117 0.02882379 0.19564435 -0.10606049 0.090986736 0.33912197 0.28983343 -0.09603635 -0.09511827 -0.055297665 -0.046636354 0.4250098 -0.049362723 0.16182536 -0.050213106 0.30765694 -0.25680086 -0.13970247 -0.039127152 0.062418055 -0.36416468 -0.051542882 -0.046959136 0.23927839 0.13797438 -0.14591534 0.35096362 -0.11048857 0.14038865 0.09010313 -0.026667777 -0.25689444 -0.19225885 -0.05225801 -0.4367466 0.118918 0.13404186 -0.092514455 -0.4231647 -0.2361736 -0.13302258 0.3289984 -0.11223597 -0.011507957 -0.06453681 -0.10937736 -0.22554962 0.07156861 0.17659603 -0.25385544 0.12914743 0.032722037 -0.052487448 0.52452 0.11152725 -0.14999318 0.096201524 -0.26524323 0.122464545 -0.24991365 0.022289414 0.021738028 0.048548378 -0.07206111 0.027038883 0.3486784 -0.25470343 0.4450699 -0.031270597 -0.11131548 0.058673467
 0.05615406 0.45449522 -0.26486766 0.29159245 -0.22739483 -0.016408188 -0.22190331 0.2772085 -0.14425938 0.052461125 -0.2508204 0.16901329 0.35103783 0.036523204 0.30207258 -0.16741203 0.15209022 0.26058778 -0.03621222 -0.04146691 0.0025026621 0.100812905 0.22592303 -0.22361885 0.19997014 0.2054939 -0.23832561 -0.17977491 -0.15854427 0.25150403 0.31557932 0.41255975 -0.07162946 -0.10302855 0.22152232 -0.2857229 0.027678084 0.22118583 -0.42031386 0.28749412 -0.17496598 0.18167317 -0.5303656 -0.0034499425 0.13890244 -0.46714884 -0.12627353 0.013913914 -0.29124877 0.0154526485 -0.39824292 0.29742673 0.13573752 0.46047792 0.7550905 -0.3309718 0.45543057 -0.093174025 0.30199695 -0.21731344 -0.04092825 -0.1301855 -0.21626337 0.20586409 -0.20945819 0.06572558 -0.016757619 -0.015041454 -0.10829384 0.11415146 0.1038971 -0.011023304 0.25078017 0.24225639 -0.06305212 -0.2813419 -0.14375229 0.22357182 -0.058832176 -0.25138584 -0.41867235 0.1597532 0.13838482 -0.37174815 -0.032169443 0.58781683 -0.25852314 0.04056226 -0.040499173 -0.15296187 -0.090213165 -0.5132077 0.33998698 -0.12040464 -0.0885892 -0.7324947 -0.031370904 0.28776497 0.62271965 -0.050029486 0.076214045 0.15972164 0.10391932 0.002376295 0.5384184 -0.21206209 -0.1772389 -0.27557507 -0.066320196 -0.20779866 -0.0021529133 -0.09628545 -0.37053418 -0.1785065 -0.0055881944 -0.11078386 -0.2316087 0.029533468 0.06687787 0.19271255 -0.055753004 -0.06282094 -0.014153237 0.10524106 -0.1428791 0.094505966 0.14664936 -0.038768914
381 0.094800316 0.15129046 -0.2497277 -0.069689006 0.06187461 0.38568315 -0.27235833 0.021480102 0.1828288 0.15690152 0.46471342 0.21440232 -0.04873815 -0.04034192 -0.014623357 0.07116372 -0.13747035 0.012824233 0.39656633 -0.21327634 0.19484064 0.07785797 -0.28185546 -0.032593187 0.24416994 0.0709611 0.0014557214 0.19799908 0.13457754 0.056893088 0.0385639 -0.26562032 0.09235597 0.03946589 -0.082874425 -0.24782622 -0.08387033 0.1828317 -0.102483645 0.30834192 0.08890144 -0.45267743 0.1069484 -0.023727002 0.1976495 -0.36076823 0.05449275 -0.16493544 -0.09327281 -0.08702781 -0.16119464 -0.24407181 -0.39145157 0.091025315 0.00049535127 0.11283759 -0.1493024 -0.22428724 -0.11756616 -0.23145075 -0.08457477 0.23239575 0.07535986 0.18508069 -0.4322455 0.061447483 -0.18437454 -0.13242888 0.029914215 0.27419037 0.088943705 -0.021184595 -0.2444233 -0.08913215 0.12532173 0.19442537 0.19419485 -0.25797638 -0.34020323 0.124476455 -0.27298164 0.08040909 -0.15884884 -0.17405124 -0.121527776 0.33343217 0.189328 0.13442142 -0.22824506 0.33756927 0.2581741 -0.027947364 -0.045046214 -0.102964155 -0.076813325 0.0418893 -0.13018931 -0.22089139 0.1335184 0.27708507 -0.11235634 0.3794036 -0.072607376 -0.37731805 0.16873881 0.22693793 0.26136708 -0.12226329 0.10168385 0.09490141 0.16532484 0.06563249 -0.29019293 0.023178035 0.04638141 0.4375879 -0.13582705 0.05738981 -0.050079033 -0.036277764 0.05205125 -0.24634603 0.067546755 0.07493871 0.03594509 0.20288047 0.17943859 0.09022401
809 -0.04176263 -0.15287313 -0.17502408 0.10161083 -0.015818048 -0.19359207 -0.02475743 0.11783279 -0.03436841 0.378816 0.10379024 -0.1335252 0.13521609 0.12834002 0.3378777 0.1511437 -0.1525031 -0.20429437 -0.22315893 -0.14507502 0.21042717 -0.3938658 0.14103137 0.08662988 -0.34318134 0.017732825 -0.29805437 0.17783752 0.025025247 0.046991937 0.31837016 -0.34705225 0.14400494 0.23483814 0.020656405 0.24811415 -0.45472726 -0.20555998 -0.27127305 0.20797959 0.3683076 0.101341836 0.19239931 -0.0230821 -0.048317008 -0.11854676 -0.2093769 0.015970929 -0.12323464 -0.14735137 -0.26515722 -0.11455878 0.100667015 0.23302792 0.094028026 0.18663755 0.068445936 0.31353068 -0.27855226 -0.10734467 0.21905595 0.083922334 0.56506157 -0.029741216 -0.008558334 -0.16709167 -0.400787 0.16398737 -0.06840967 0.20290315 -0.22896677 0.029987007 -0.040830806 0.11725154 0.08282848 -0.041939978 -0.3356428 -0.07946921 0.1028263 0.17795831 0.07125669 0.028383989 0.17474045 0.13798872 -0.044499677 -0.15501264 -0.16855404 0.36631498 0.09834524 -0.09002204 -0.1585221 0.23448312 -0.16214956 0.054838877 0.21914193 0.35757104 0.14559752 0.04084622 0.071956836 0.011862906 -0.33028975 -0.16892882 0.104909815 0.13178532 0.4141569 0.15960704 -0.05945861 0.19537203 0.2912632 0.12151829 -0.22533278 -0.021231377 -0.081410944 -0.10911511 0.18440785 0.203712 0.078188375 0.14436598 0.35143143 -0.025540762 -0.09679895 -0.12043069 0.43100354 0.12766045 -0.008731944 -0.19337524 -0.23620582 -0.23781753
623 0.05381994 -0.029724153 0.046549965 0.11954172 -0.562325 0.03769133 0.23738526 -0.19298615 -0.07324288 0.26933005 0.18552113 0.34420773 0.015502456 0.013955404 0.46752727 -0.00089094375 -0.040638186 -0.057498746 0.050342757 -0.044732668 0.09568684 0.023309363 0.14480317 0.101907656 -0.32032233 0.057872195 0.108897135 0.12412818 -0.37107328 0.036084063 0.09576383 0.09503214 0.24494362 -0.20060006 -0.11468232 0.06170082 -0.071648724 0.03202774 -0.08227034 0.025517894 0.10485678 0.011807932 -0.19529827 0.4115316 0.06608044 0.031581547 0.019852325 -0.049275827 -0.017928021 -0.08299277 -0.033756196 -0.20611152 0.27779222 -0.0001319851 0.12127783 -0.020699674 -0.083725706 -0.036273967 -0.03599226 -0.06732059 0.30881056 0.058641236 0.11883318 -0.22254154 0.038931485 -0.20267473 -0.10748963 0.118811294 0.2439869 0.35686797 0.3605347 0.010723078 0.124557815 -0.040480603 0.021420414 0.084329545 -0.2612511 -0.12120066 -0.136667 0.1032646 -0.13166103 0.060688525 -0.18501765 0.23211081 0.20782548 0.26983273 -0.5075844 -0.09990647 0.26563728 -0.045004327 -0.17694148 -0.14986284 -0.3980934 -0.050829586 0.0480801 0.13580504 0.1483717 -0.1639974 0.03724167 0.083056405 -0.11143888 -0.12461328 -0.084381424 -0.048010282 0.08672049 -0.15145294 0.0041928994 -0.37048274 -0.19656783 0.053965468 -0.15385285 0.27837974 0.192613 -0.37132126 -0.003941779 0.1871511 -0.15184414 0.29688093 0.11910158 -0.1632356 0.09558455 0.045605637 0.23391539 0.07549724 0.027150849 -0.09311657 0.014557904 -0.09303014
266 -0.14973395 0.1672475 -0.17646861 0.39312708 -0.039852496 0.28334957 -0.14162211 -0.0532777 -0.07839245 0.35562587 0.20315804 0.1087712 -0.12600371 0.02700885 -0.10475612 -0.060631968 0.05847941 -0.15055779 0.21802923 -0.023030126 -0.1284793 0.1803212 0.18177514 0.28173804 0.11812519 0.032495476 0.09525398 -0.10504548 0.21156192 -0.06020147 -0.01251002 -0.17278114 0.2836434 -0.06344303 0.12902635 -0.61991894 0.43099782 0.034167036 -0.24999297 0.08029803 0.014751958 0.1366635 -0.46107236 -0.0032918628 -0.2884751 -0.101271026 -0.6957419 -0.03862451 -0.09160846 -0.4036271 -0.012102165 0.32529616 0.1404822 0.058869973 0.27591693 0.06991996 -0.05662118 -0.40116158 -0.00038578457 0.14808254 0.042257074 0.047179546 -0.14302789 0.20779593 0.076935045 -0.5056803 -0.36002004 0.010537389 0.1522527 0.2633262 0.07957232 0.18157198 -0.04707306 -0.2138675 0.32418734 0.26493758 -0.07319544 -0.5400355 -0.30008596 -0.046146303 -0.31842002 -0.026028661 0.095447004 0.109192684 -0.053734176 0.32264087 0.09467235 -0.12363358 0.0099877305 0.45276195 0.21059929 -0.09238427 0.3545485 -0.011784792 0.05705625 0.19920585 -0.018973162 -0.31428427 0.10890105 -0.20290644 0.15512754 -0.23819058 0.49419302 -0.31993875 -0.015945062 -0.09477939 0.08064721 0.13471009 -0.41516307 0.16730006 0.08653671 -0.08327982 -0.019074792 -0.04942492 0.025800532 -0.22400275 0.1643789 -0.06891609 0.017201023 -0.034488652 -0.04832908 -0.57640886 0.06521847 -0.33249316 -0.13550746 0.006407298 0.12282252 -0.19282152
256 -0.0845696 0.15156943 -0.102106124 -0.061315283 0.116799876 -0.26672465 0.16902678 -0.23160882 0.27475208 -0.008235501 0.41115063 -0.15722287 0.07631652 0.07688135 -0.10642714 0.24959843 -0.002437045 0.13769028 0.10618349 -0.23605354 -0.55152756 0.326479 0.037689593 -0.20037885 -0.14830734 0.14578846 -0.42306802 0.6234327 -0.19868416 0.26454762 -0.48616555 -0.051985417 -0.074742936 -0.29090372 -0.24088596 0.17742246 -0.23787346 0.068036735 0.29883862 0.18788983 -0.06577851 -0.09715368 -0.17246543 0.17604598 -0.0149158435 -0.17087731 0.18012954 0.32707056 0.30512324 -0.07872571 0.06628289 0.24474518 0.14444934 -0.046611477 0.09881183 0.10646176 -0.13518724 -0.09835173 0.39213586 0.1827967 0.03240972 0.048597433 0.11758162 -0.19294491 0.07792765 0.19947532 -0.14070551 -0.081385344 -0.039230563 0.325167 -0.2012822 -0.26084194 -0.3371167 0.26958323 -0.27857965 -0.19174452 -0.711783 -0.3479655 -0.049465574 -0.008669698 0.123950265 0.3614483 -0.41120172 0.21319942 0.08641121 -0.053231064 -0.11895888 -0.06548 -0.0033867722 -0.27266675 -0.5105445 0.01946602 -0.07576486 0.034321763 0.090724945 0.19702587 0.396947 -0.14334853 -0.18519087 -0.06199122 0.03915194 0.29124686 0.12811278 -0.20128682 0.12696639 0.2096065 -0.018675398 -0.26428306 -0.24072166 0.09928821 -0.26465604 -0.085490614 -0.4094388 -0.0018765392 0.12214602 -0.54408145 -0.18489376 -0.14134312 0.21346036 0.16229916 -0.17777422 -0.24611206 0.09587099 -0.17914987 -0.01286323 0.28493002 0.028784566 -0.24620155
172 0.023154981 -0.014120386 0.25710312 0.081376396 -0.04833773 -0.01253937 -0.07876374 -0.13650884 0.1745515 0.32054028 -0.10076892 -0.08966328 -0.07057537 -0.011364377 -0.15302469 0.32009113 -0.24598964 0.18468963 0.16533518 0.2370068 -0.15850359 0.014039519 0.3973171 0.33338666 -0.11903967 -0.10360597 -0.2808509 0.012821548 0.18198024 -0.22379516 0.043232743 0.20393929 0.11034687 -0.12973686 -0.08426674 0.06312645 -0.4608427 0.21232772 -0.2024783 0.18698403 -0.35607025 -0.20613289 0.07478223 0.021543236 -0.29935282 -0.08355912 0.1163721 0.06359223 -0.57773215 0.07311725 -0.13389339 -0.040872294 -0.2736206 -0.32409567 -0.11463552 -0.026588267 0.08624586 -0.0753644 -0.3391889 0.18254945 0.08487805 0.36480471 0.12705527 0.36054558 0.019466974 0.16108173 0.08354223 0.11917646 0.00871704 0.12766123 0.069114216 0.17069316 0.23064624 -0.322935 0.2437856 -0.15058844 -0.2570947 -0.14471814 0.3751148 0.1619168 -0.10600563 0.27019903 -0.18140957 -0.2123348 -0.015517295 -0.19355516 -0.3820797 -0.09473577 0.030125491 -0.06243264 -0.15781692 -0.26864952 -0.12831613 -0.2500525 -0.0023061538 0.15152831 0.238091 0.17362118 0.14085649 0.12706424 0.014466508 0.03138116 0.6163024 -0.02724886 0.085440345 -0.023285825 -0.057255838 0.17688298 0.30734158 0.06754153 -0.34382808 -0.053700972 -0.10132032 0.025215784 0.48488966 -0.13567401 -0.4450472 0.09957888 -0.20224774 -0.15202159 -0.1280178 -0.27897525 0.3428137 0.5582422 -0.16509783 -0.4436974 0.41020772 0.3609594
14 0.08463488 0.2528239 0.22600411 -0.16174772 0.40985098 0.1982356 -0.023938403 0.105628476 0.24706459 0.07595761 0.44084585 -0.0110327285 0.19191527 0.4776504 0.17935826 -0.007984966 -0.03478384 0.1903927 0.25527835 -0.3446251 -0.26883924 0.14800428 0.17981821 0.15964834 -0.08519258 -0.14706469 0.021945 -0.033357963 -0.21351561 -0.1622061 0.12816225 0.15547842 0.25286928 0.011610896 0.32751152 -0.5111775 0.28265834 0.34625554 -0.40026912 -0.16823208 0.41782397 -0.07236229 -0.21495284 -0.110363476 -0.19431676 -0.019778632 0.017454443 -0.098097764 -0.049095795 -0.4194461 0.16966604 -0.22517614 -0.09190812 0.060355283 0.047836572 0.00473336 0.09020795 0.16714326 -0.20920424 -0.04511636 0.39055994 -0.042433448 0.34514892 0.10413971 0.06754758 -0.07593537 -0.042566348 0.021778941 0.2792748 -0.14174314 -0.261929 0.004378034 -0.15680717 -0.1812431 0.2371442 0.23648879 0.19803321 -0.44198903 -0.043492153 -0.0683792 0.057736795 -0.040876165 -0.012302351 0.01748301 -0.106119424 -0.02774291 0.43296477 -0.22767694 -0.20488085 -0.24325188 -0.29381382 0.008236174 0.15560438 -0.2857456 0.057742737 0.082305424 0.14028233 -0.08193697 0.09310401 -0.10375165 -0.078510605 -0.311484 0.117320664 -0.49584854 0.25678203 -0.016521787 0.034782838 0.074081 -0.10757918 -0.043101944 0.54112303 0.40667057 -0.04644818 -0.24016081 0.06539406 0.10339311 -0.08703243 0.008626778 -0.12327484 0.13902463 -0.2764001 0.0728336 -0.26327017 -0.063116394 0.107988074 0.26169023 0.14472747 0.15393291
852 0.036111142 -0.030165235 0.14516553 0.1772825 -0.50050384 0.18319729 0.24569061 -0.27275226 -0.28209764 0.16017133 0.54672754 0.40265948 0.032200117 -0.13243409 0.35596776 -0.0041403836 0.0194303 -0.17794994 -0.048417225 -0.1430191 0.264584 0.057267193 0.04571318 0.100826725 -0.18563063 -0.07430138 -0.1283845 -0.027006894 -0.2651955 0.064146474 0.09648812 0.23378205 0.13067673 -0.1879516 -0.0876739 0.046555094 -0.20589477 0.005963518 -0.119495936 0.10908545 0.26212886 -0.1487951 -0.23089346 0.31928048 0.02821199 0.08744565 -0.026396938 -0.14569812 -0.010140477 -0.07353901 0.11524256 -0.16624296 0.032188635 0.05114019 -0.07969068 -0.16192472 -0.2733968 0.14746058 0.08779025 0.023071293 0.22895032 -0.118192665 0.17476827 -0.1590134 0.080553815 -0.085804775 -0.28403577 0.017239684 0.21510024 0.32494897 0.06739875 0.2337072 0.107665285 -0.13880038 0.1606544 -0.058807913 -0.36522064 -0.17538618 -0.09828705 0.07769125 0.008433691 0.08801286 -0.2933195 1.7892417e-05 0.26776138 0.33590847 -0.47390422 0.013940087 0.20335513 -0.16359484 -0.15562502 -0.15986517 -0.14717758 -0.06808126 0.15143268 0.062550314 0.118625455 -0.16181187 0.17469873 0.08571096 -0.10518483 -0.012723806 0.033103585 0.030128894 0.06749109 -0.18665664 0.06086439 -0.22014716 -0.116686344 -0.03422797 -0.049016543 0.2115542 0.35064507 -0.37332058 0.0076314635 0.24818198 -0.12807988 0.18701875 0.115917236 -0.03496974 0.21280308 -0.0639173 0.15383464 -0.07274067 0.060789805 0.05624552 -0.02310199 -0.15312424
832 0.06064328 0.27415892 -0.0075034234 -0.26089388 0.42117444 0.06588933 -0.22209655 0.3852627 -0.22154856 -0.14648843 0.31217253 -0.10625653 0.11766301 0.14532931 0.23602161 0.12888038 0.080751635 -0.0988474 -0.08813956 0.4377726 0.113760754 -0.13365956 -0.06649752 0.14734611 -0.029736651 0.3062624 0.3303027 0.011069861 -0.17676632 -0.00054816855 0.047322407 -0.23095293 -0.087265804 -0.10481492 -0.14014316 -0.12668219 -0.008537243 0.041576643 0.024871718 0.097356305 -0.59141713 -0.2248299 -0.13200997 0.05744173 0.20863977 -0.03395072 -0.11588448 -0.06461339 -0.21149614 -0.17256342 -0.025159102 0.22817966 -0.08262698 0.0152048115 0.07232806 0.05459593 -0.116471805 0.26758695 -0.23239802 -0.3184646 -0.005503752 0.06232723 0.29030567 0.21133974 0.061753057 -0.27593645 -0.298589 0.36205375 0.26805976 0.37618577 -0.3088309 -0.2796554 0.23985036 -0.16334684 0.07199923 0.03832242 -0.31626475 -0.08496793 0.1385923 -0.10464095 -0.051585786 -0.019887742 -0.31534138 -0.124717474 -0.03956458 0.26129052 0.061134133 -0.2309527 -0.28251335 -0.015088272 -0.25063094 -0.23389378 -0.043388102 -0.15369383 0.2140531 -0.18063273 -0.0059115877 -0.09706763 -0.07683018 0.29354972 -0.5730078 -0.11743211 0.10357129 0.15723561 0.117122866 -0.3549227 0.022005938 -0.1103551 0.38197824 0.089012675 0.10946873 0.16866268 -0.13100185 0.36780986 0.14313544 -0.029083768 0.3479149 -0.118996926 0.26819602 0.5665591 -0.14099959 0.1630077 0.22421531 -0.39123988 -0.074508704 -0.21394436 0.20572682 0.1794513
842 -0.3883278 -0.2916151 0.29509708 0.5357175 0.16626465 0.5011616 0.21943153 -0.16839062 0.25096703 0.44571665 0.15011013 0.07147222 -0.05441581 0.052384716 0.3969239 0.2770201 0.0013812938 -0.05066558 0.029577816 0.10874484 -0.26283026 -0.54245406 -0.14280269 -0.12895167 0.27486518 0.36634263 0.53149134 0.06532488 0.1957121 -0.014894036 -0.011653197 -0.33654472 0.1070655 0.17059614 0.2715421 -0.009471303 -0.043013364 0.14251828 0.14564091 -0.114052735 0.008209635 0.08979709 -0.34949774 0.047754686 -0.041421257 -0.25300333 -0.009530985 0.12086655 -0.10657506 -0.19969888 0.19336626 -0.2847759 0.026513949 -0.09217568 -0.1566036 -0.106272034 0.019330151 0.109481774 -0.35647154 0.20852382 -0.20083837 -0.108271085 0.37631473 -0.14227971 -0.23917666 -0.29912156 -0.40250468 0.14193755 -0.18903098 -0.021629784 -0.0056372243 0.12668446 0.012557721 0.17979346 0.19712915 0.1257001 -0.16944477 -0.20653702 -0.24771795 0.118660256 0.059920263 -0.128058 0.030887477 0.14830503 -0.10020104 -0.05053012 -0.027309855 -0.167395 0.056079406 0.15245125 -0.06077922 0.21549958 0.28633675 -0.109036036 -0.28252655 -0.091472134 0.26147532 0.01896556 0.22157726 -0.22066154 0.11496942 -0.25444427 -0.119236164 -0.12528555 0.33658552 -0.15610355 -0.2121538 -0.110620335 0.00059079507 -0.16365859 0.070153646 0.09759124 -0.33291107 -0.18897596 -0.039101154 -0.11372835 -0.19687265 -0.0848576 -0.14238958 0.08875042 0.023467664 -0.16806065 0.14828299 -0.38389978 -0.18924706 -0.288569 -0.040795904 -0.2077277
399 -0.28038144 -0.25730512 0.32048264 -0.1292819 -0.29285246 0.09357002 -0.10013698 -0.40067086 -0.051081765 0.08072851 0.1914714 -0.10285898 -0.24186577 0.19929887 -0.012036031 0.038648464 -0.020199196 -0.09720832 0.14787051 0.040618293 -0.41732427 -0.22578901 0.31050107 -0.33122787 -0.20563343 0.009659738 0.031954635 0.11105564 0.0013532431 0.22359905 0.08633848 -0.29201397 0.06904007 0.084092095 0.26455766 0.09441771 -0.45395988 0.05174239 -0.3938088 -0.2326816 -0.052756965 0.19215089 -0.021362118 0.035950396 0.29101062 -0.011311263 -0.27128416 0.052143272 -0.14806688 -0.51227057 0.009229602 -0.0728455 -0.0075064083 0.42659855 -0.03549918 0.322469 0.36225283 -0.16928957 0.093729444 -0.07287808 -0.27726236 -0.33179003 0.3628368 -0.06408549 -0.15762492 0.0086942585 -0.122331925 0.15564683 -0.025282811 0.21368258 0.06680699 0.3010205 -0.001360268 0.107033804 0.16441004 0.09588049 -0.16861363 -0.0982076 0.20305102 -0.100462615 -0.29824173 0.07110391 -0.22688764 -0.12060937 -0.71603715 0.020580493 0.15261492 0.0547606 0.19760014 -0.0048761526 0.058818296 -0.09423722 -0.29543957 0.06418932 0.056154966 0.3159679 0.2472596 -0.42016098 0.03706683 0.14282925 -0.1658397 -0.15753858 0.05005292 0.30515912 -0.03021213 -0.005892109 0.052546658 0.0974005 -0.08374257 0.1725498 0.5136687 0.14608063 -0.27087265 0.055848997 -0.029641997 0.033672832 -0.19313455 -0.027176186 -0.1026208 0.15130077 0.22404188 -0.078340225 -0.018343752 -0.24054101 0.11784257 -0.079543345 0.10298657 0.22539477
382 -0.34537074 -0.225208 0.015196362 0.03178907 -0.054010417 0.13744913 -0.15807593 -0.33883917 -0.2936811 -0.045199305 0.30592635 0.11709519 0.16407613 -0.21465781 0.29523635 0.44140753 0.42509195 -0.15953784 0.14677113 -0.2854649 -0.0074062226 0.009062265 -0.55763334 -0.21400155 0.08215658 0.38457462 0.17027757 0.47725827 -0.08301181 0.112218246 0.05522117 -0.2235505 -0.1723708 0.43468672 0.14006568 -0.27918345 -0.18551415 -0.23123948 -0.33161664 0.21865341 0.26120478 0.2735391 -0.2076582 0.10745972 -0.18281339 0.24650842 -0.12583081 -0.02205437 -0.030741576 0.08286847 -0.115694694 0.06960218 -0.050846096 -0.07345767 -0.018874299 0.21393451 0.4898961 0.14817877 -0.1909266 -0.04998202 -0.21846357 0.12983087 -0.17706066 -0.28707588 0.3223269 -0.33791953 0.003305926 -0.1148771 0.16547124 -0.06369608 0.09428609 0.19862628 0.2305899 -0.014576974 -0.5100018 -0.0097520305 -0.2808131 -0.47939748 0.080318704 0.17845407 -0.14168608 -0.37124234 0.05976964 0.07559285 0.09184638 0.19866061 -0.15537605 -0.0071098157 0.010852304 -0.50405324 -0.07511903 -0.011755775 -0.3361514 -0.09387628 0.009427204 0.15413807 0.12346953 -0.27954447 0.075054646 0.17274366 0.19183025 -0.044123642 -0.023621602 0.24358383 -0.11410396 0.08775835 -0.059791878 -0.051354572 -0.27377468 0.42000166 -0.32805604 0.32959005 0.13528958 -0.49932575 0.16432096 -0.06035122 -0.13510664 0.053364225 -0.44361368 0.17189673 -0.103769936 0.18024535 -0.10657554 0.29725608 0.42818555 -0.24738768 0.05416549 0.41015193
521 -0.21984836 0.12979092 0.036878236 -0.08783475 0.057525165 0.044578914 -0.28682792 0.33172053 -0.097267546 0.002673713 0.034289476 0.1486003 0.1139715 0.2721559 0.023472633 -0.007693803 0.26821426 -0.1549325 0.21417734 -0.21299931 -0.2832679 0.042448997 0.42733538 0.058619924 0.06387548 0.22870338 0.3872061 -0.31067944 0.546185 0.12986606 0.13477983 -0.10777803 0.099995114 -0.25167578 0.34386423 -0.3862145 0.26468378 0.1130977 0.039103188 0.16081922 0.08518967 -0.39550886 -0.108355485 -0.14193341 0.06057803 -0.16764233 -0.33151558 -0.35740146 -0.08970553 -0.101529 0.024374574 -0.00032815835 -0.07722779 -0.2785692 0.48355684 -0.025434384 0.224288 0.24149121 -0.06464761 -0.12029132 0.16154046 0.15289165 0.35900876 -0.07840356 -0.11260634 -0.1338439 0.030900124 0.07812906 0.2234422 0.30719566 0.13497518 0.13697611 -0.08015976 -0.15106323 0.35947847 -0.030808758 -0.12444336 -0.38727018 0.17752083 -0.12978001 -0.024200846 0.1723347 -0.17988223 -0.15428261 0.4126201 0.16449408 0.27941638 -0.21494304 0.11706703 -0.06019444 -0.08877989 0.10856493 0.10348148 -0.50968844 0.16386153 0.4193676 -0.15011589 -0.00540201 -0.15733199 0.021981876 0.039179794 -0.11810948 0.3988551 -0.3075435 0.01762545 0.1374298 0.053070627 -0.07551525 0.29863837 -0.074448116 0.07563366 0.37998465 0.056773573 0.1907051 -0.06330035 -0.060319003 -0.009715488 -0.029500462 0.027533008 0.1523066 -0.020361558 -0.21595635 -0.4792345 -0.31235796 0.5623455 0.1617496 0.3064894 0.0021065862
48 -0.0404935 -0.12173398 0.03223216 0.2679574 -0.15706854 -0.019059068 0.44597042 -0.3125029 -0.4690097 0.11206135 0.42086187 0.21062285 0.03170833 0.07390484 0.46357352 0.073551394 -0.273865 0.13292271 -0.15413629 -0.070688866 0.14516702 -0.15354101 0.20780651 0.03809901 -0.24755816 -0.047792543 -0.0976697 0.1432464 -0.12407519 -0.2580316 -0.018880682 0.08517112 0.0788869 -0.032975454 -0.047961462 0.15105754 0.06584345 0.13433006 -0.11590034 0.031086799 0.034255464 0.13640165 0.028988566 0.1599824 0.025246482 -0.21911035 -0.059125397 -0.07222996 -0.268736 0.07050235 0.07051202 -0.29674903 0.2664161 -0.06741122 0.086206764 -0.21937947 0.25352627 -0.14124052 -0.110303454 -0.3079358 0.1468481 0.08379859 0.70641005 0.06250435 -0.21913122 0.13730441 -0.34203577 0.06230099 -0.12264444 0.10430492 0.11615717 0.20281455 0.20546623 0.01654345 -0.022658233 0.04079477 -0.37557814 -0.34471315 -0.2256275 0.20715982 0.022027936 0.034843426 -0.16544636 0.23730262 0.1282991 0.5377511 -0.66211146 0.23728183 0.37487945 -0.01966321 -0.2586377 -0.2763554 -0.23006822 -0.23668619 0.119537964 0.23088436 0.33237255 0.14197347 -0.06483717 0.29634908 -0.20427193 0.066866726 0.18553914 0.010903171 0.0780057 -0.26086816 -0.10516223 -0.33353952 -0.0641822 -0.29637414 -0.13849746 0.09522819 0.10415078 -0.18610017 -0.06299462 0.2955924 0.001329371 0.31725982 0.061875522 -0.1426177 0.021768363 -0.031165875 0.2969324 0.035972342 0.19883274 -0.10469614 -0.18729839 -0.26935533
582 -0.16173786 0.04071176 0.30246732 -0.1873097 0.13436796 0.1640316 -0.37093443 -0.23036936 -0.28581885 0.12564698 0.050302524 0.18985684 -0.0098917205 -0.16728841 0.29718167 0.20784561 -0.07927542 -0.40908533 -0.03431214 -0.009648748 -0.09048201 -0.36170387 -0.33658564 -0.09627164 -0.48040816 0.63015825 -0.23351704 0.14828913 -0.038859192 0.10298588 0.12848584 0.19174884 -0.035916395 0.1973859 -0.3034001 -0.040251274 0.15028495 0.14479026 -0.33333284 -0.085628636 0.21766569 0.17397435 -0.31206262 -0.26848754 0.36778897 -0.019049838 -0.38910392 -0.042816915 -0.025678737 0.008007001 0.30474326 -0.01234727 0.16842078 -0.29779786 0.050458368 0.15278198 -0.16485839 0.009656259 -0.26123163 0.14976183 0.07056707 -0.16442189 0.2582313 0.18048644 0.1735885 -0.2632757 -0.07219322 0.010786038 0.24660847 0.19208193 -0.17307033 -0.25164008 -0.050947122 0.22641422 -0.097098425 0.035010144 -0.09203478 -0.4952415 0.17816642 0.09633308 -0.2353578 0.033294637 -0.048377883 -0.22246103 -0.40916812 0.30606017 -0.5349981 0.011798234 0.11152943 -0.117188156 0.22749718 0.43652517 -0.1942583 -0.1306483 -0.21452013 0.05977726 -0.19632325 -0.107243136 0.15279236 0.02032672 0.04159042 0.04201278 -0.04948346 -0.0011879303 0.23758592 0.33110377 -0.16093501 0.105592616 -0.06249484 0.08287794 -0.36743328 0.49620825 0.0590296 -0.043159354 0.062441323 0.11329293 0.1468093 0.2337948 -0.12141532 -0.26932663 0.27835274 -0.1581841 0.040660966 0.13738078 -0.09092562 -0.34995478 -0.09522934 0.26836067
439 -0.5634671 0.10272818 -0.07711998 -0.22682361 0.04850855 -0.08487397 -0.014146556 -0.04119135 0.04903953 0.11315436 0.32360643 -0.19686288 -0.085941106 -0.2006496 0.5937014 0.08595165 -0.12640376 0.005258337 -0.30293632 -0.2212677 -0.006487203 -0.1893164 0.06302369 0.3095084 -0.30516237 -0.06712084 0.09782685 0.33977586 0.20370778 -0.110734746 -0.049346145 -0.16822512 0.045028396 -0.05779548 0.28506878 0.36719123 -0.22810854 0.17382145 -0.35551903 -0.021448765 0.18917006 0.4498241 -0.13000697 0.2198003 0.16728824 -0.103749484 -0.08844806 -0.1472944 -0.20122853 -0.0075572566 -0.17246403 -0.19211785 0.26514685 0.18073283 -0.006158525 0.01635997 0.036021337 -0.2391466 -0.26600152 0.0029082473 0.20841323 0.03288028 0.33241692 0.19263116 -0.32126856 -0.03356459 -0.26036876 0.42767984 -0.0786345 -0.113246314 0.333213 0.2085958 -0.071292415 -0.019271387 0.152367 0.12660268 -0.47037822 -0.0012772408 -0.17838271 0.114447944 0.27330497 -0.04540815 -0.3493548 -0.0351019 0.10701878 -0.12532693 0.13016808 0.041946888 -0.13396904 -0.01244735 -0.29576793 0.064780526 0.018975636 0.28671452 -0.109842025 0.393151 -0.028395608 0.17952052 -0.05867258 0.061054595 0.03111749 -0.036757834 0.0765147 0.1844756 0.10520226 0.29128048 0.043980155 0.18010634 0.4698095 -0.16754223 -0.0721404 0.1956671 -0.066943444 0.10308481 0.16364521 -0.038449377 0.14754722 0.05765678 -0.07981785 -0.029988775 -0.015635118 -0.3779035 0.40520453 -0.1030435 -0.41221985 -0.34449506 0.07632054 0.003712241
204 -0.15182638 0.11132389 0.08584803 0.19576137 -0.14755994 -0.3468673 0.08264889 -0.20535195 -0.17575999 0.26837656 0.58595115 -0.013523815 0.46669352 0.38546145 0.16105694 -0.09614729 -0.018015571 0.17620426 -0.030665787 -0.4604905 -0.20412503 -0.2553456 0.07590464 -0.4157882 0.34341756 0.43042758 0.20538369 0.37581387 0.05078703 -0.20009935 0.33277595 -0.18301624 0.1165806 0.27317923 -0.042355377 -0.43319553 -0.367879 -0.51557195 -0.1560551 0.17836696 -0.1262272 0.5784273 0.51765984 -0.16174535 -0.16579613 0.26674137 0.006130871 -0.014918121 -0.18199445 -0.36539286 0.047526415 -0.58157367 0.14884345 -0.19202629 0.1415 -0.22124816 -0.018685842 0.1878319 -0.52025795 0.16638103 0.30166617 -0.008416505 -0.20475248 0.10434759 -0.19933257 -0.02486058 -0.22619922 0.15057543 0.02664232 -0.22278488 0.19300716 0.04043636 -0.338534 -0.042559184 -0.06912742 -0.19623397 -0.22720225 -0.2729066 -0.2748473 0.23510753 -0.27405375 0.07720645 -0.39522645 -0.1459515 -0.27002108 0.43968713 -0.15216888 0.5902446 -0.42221302 -0.3004361 -0.19431172 -0.39167088 -0.37080362 0.16881062 -0.4178068 -0.0691059 0.0022089186 -0.17237741 0.043799195 0.30248275 -0.31837696 -0.3253814 0.45793054 0.22526024 -0.37068322 -0.13407965 0.09074524 0.0076118642 -0.006475024 0.13298455 0.2604553 -0.041442785 0.06447254 0.39541563 0.18155517 0.20947942 0.19385675 -0.033248294 -0.016326917 -0.1659364 -0.08715181 -0.116371565 0.05836909 0.05822068 0.44357806 -0.109944925 0.38855618 -0.040721133
338 -0.43180856 -0.147027 0.15633024 -0.025342079 0.17261274 0.18391727 0.17409593 -0.13558029 -0.26976162 -0.18345581 0.18627304 0.30540165 -0.048260786 -0.014687795 -0.122106604 -0.3100608 -0.08868117 0.054791998 0.45181963 -0.26016212 -0.16103184 -0.3635136 -0.029257894 0.25300333 0.2576237 0.092242815 0.48915362 -0.21013154 0.16565299 -0.005026164 0.15247406 0.08073605 0.34354168 -0.08532732 0.46736318 -0.26386297 0.08867436 0.1390035 -0.42090672 0.6264661 0.3709708 -0.3515243 -0.14090711 0.11096514 0.26631606 0.16350122 -0.10528739 -0.10809389 0.04143436 -0.28522438 -0.38846698 0.2222426 -0.36561945 -0.2889586 0.03605377 0.4192691 -0.009614954 -0.20381936 -0.000100821235 0.14973606 0.22161433 0.17059356 0.03135529 0.17711718 -0.33058286 -0.04463788 -0.122336514 0.087346405 -0.18729757 0.2570866 -0.11892909 0.024473494 -0.103512906 -0.066323325 -0.091423415 -0.11969122 -0.3618642 -0.04817263 -0.09193715 0.43353194 -0.15226384 0.18918099 0.13442305 0.02258613 0.09409922 0.1643843 -0.059371635 -0.061405696 -0.07301367 0.15903704 0.21432017 -0.1258252 0.6393803 0.30045927 -0.10160464 0.066642225 -0.1641092 0.0846554 0.06953933 -0.1836198 0.29943493 -0.50582314 0.51263595 -0.45389983 0.556641 -0.18918017 -0.15422522 -0.26584494 -0.39230224 0.10953157 0.15425634 0.34761912 -0.14386454 -0.15556242 -0.13567525 -0.12028839 -0.09063123 -0.025396803 0.28259468 -0.028213302 0.015701896 -0.34133607 -6.492014e-05 -0.35187358 0.20756324 -0.19819483 -0.0011200284 0.36467832
514 0.3975641 0.64309615 0.11903243 -0.5132605 -0.2448228 -0.30509287 -0.15292802 0.010397193 -0.005177001 -0.020568894 0.3694333 -0.28874615 0.23955208 0.33836043 0.0058630104 -0.15189984 0.45935684 -0.02273342 -0.14542931 -0.20944777 -0.49951452 0.15685098 -0.2195037 -0.31693783 0.37501374 0.091666825 -0.26915574 0.014892675 -0.13316058 0.2903791 -0.14304473 0.25849724 0.21638708 -0.061390687 -0.009530561 0.46655333 0.14080487 -0.04003324 -0.15332358 0.123235404 -0.039320454 -0.24833821 -0.15934698 0.20239803 0.066489875 -0.38042358 -0.54093707 0.43984836 0.10313349 0.03267377 0.1861367 0.015796598 0.086859204 -0.12658003 0.25178823 0.44946653 0.100568704 0.1460632 0.585958 0.015230213 0.14226122 0.11877306 -0.3430589 -0.14907172 -0.28010917 -0.20706344 -0.08648208 -0.029153168 -0.57841593 0.15138929 -0.09789447 -0.33129817 0.3236947 0.038623646 -0.11169543 0.0010940288 0.19787642 -0.15834905 -0.13018516 0.20080775 0.13121533 0.3507603 -0.3297482 0.24161679 0.486136 -0.038370196 -0.49017677 0.019912472 -0.13398671 0.012466105 -0.47101483 -0.036899935 0.045095406 -0.26953268 -0.0033552232 -0.14468332 -0.048508536 0.05729507 0.050255924 -0.264907 0.2965807 -0.14409359 0.37016568 -0.173443 -0.06666233 -0.46229398 -0.104326874 -0.20255435 0.20362759 0.008624937 -0.033110652 0.17815138 -0.37460002 -0.39249977 0.024967492 -0.25608745 -0.3967516 -0.088013284 -0.2570105 0.45255408 0.24070889 -0.023107558 0.25663003 0.176862 -0.11795225 -0.013598031 0.21326445 -0.058804553
654 0.033470526 0.19242978 0.16012049 0.45696256 -0.052313257 -0.23136488 0.01286135 -0.059842467 -0.5322157 0.19878112 -0.13711165 -0.39092335 0.0066895834 0.09232585 0.3335063 -0.42675647 0.24974664 0.1390339 0.36354598 -0.33270374 -0.13988602 0.024181224 -0.25100067 0.028462958 -0.34800264 -0.2504359 -0.059394155 0.41271177 -0.047450796 -0.2632494 0.56593215 -0.089377955 0.45556176 0.28743225 0.094184466 -0.006094175 -0.6277145 -0.099135235 0.0028697671 0.118294924 -0.21070564 -0.20155148 0.08757888 -0.09728632 -0.10580488 0.020508504 -0.47549123 0.18393315 0.18651147 0.16825531 -0.48854506 0.16055328 0.25728172 -0.22958934 -0.11355491 0.32959434 -0.13274486 0.15206937 -0.1493017 0.039565146 -0.1591347 0.5755384 0.5321949 0.044920437 0.06199579 0.035329923 -0.27206844 -0.1634242 -0.10675427 0.036343195 -0.32014713 0.020599948 -0.036730472 -0.42202282 0.45355067 -0.1796131 -0.18608381 -0.2514507 0.23221599 -0.04306655 0.25190836 -0.067145154 -0.15897492 0.27544627 -0.2839408 -0.38904613 -0.17524274 -0.13853955 -0.19826943 -0.2535207 0.024355855 -0.008905052 0.2638164 -0.108069465 0.34335098 -0.39695174 0.37161005 -0.71070725 0.05257402 -0.21516286 -0.13168317 0.2063521 0.50191116 0.45052138 0.24040496 0.006736301 0.1382603 -0.046073 0.5142795 0.14777797 -0.36594707 0.0052010887 -0.29310328 -0.05986787 -0.119129084 0.37853706 -0.12663001 0.22669733 0.03607326 -0.10769092 -0.31981438 -0.13968876 0.106231436 0.10983874 -0.02134774 0.09854155 0.0021332065 -0.30209598
569 0.008079764 0.40408954 -0.3641608 0.16202642 -0.0077329157 -0.6205644 -0.2834143 -0.5622827 0.04240461 0.036717113 0.23191823 -0.052845743 -0.2092169 -0.05909897 0.0079185255 -0.1502226 0.20917155 -0.101533316 0.19672559 0.31862068 -0.10707913 0.12849633 -0.17051052 -0.38486797 0.09333442 0.42223617 -0.5710456 -0.18716806 -0.012815622 0.43687478 0.23226357 0.10531335 -0.024454419 -0.21584661 -0.057960387 0.207819 -0.090608425 -0.19814478 0.35342684 -0.020677779 0.20254354 -0.068514146 0.12270735 0.2129811 0.14219202 -0.2386318 -0.07790755 0.48806778 0.21364163 0.14651196 0.20821549 -0.12393989 -0.61193866 0.4069118 0.3276954 -0.07716419 0.037105594 -0.3426096 -0.030580012 -0.08670101 0.50627416 0.357582 -0.024949133 0.12682046 -0.13950545 0.19680914 0.09459001 0.021109167 -0.0012130396 0.17276266 0.19822922 -0.34415355 0.1302872 -0.041084625 -0.42653066 -0.31360048 -0.21830383 -0.039301652 0.05144739 0.09805101 -0.4019597 -0.19448127 -0.16949256 0.24644797 0.1964333 -0.1650798 -0.033527207 -0.18863 0.29744682 -0.28831697 -0.61543316 0.27428186 0.13315323 -0.3378089 0.31271794 -0.4121198 0.16580047 -0.19498448 0.13302349 -0.27818182 -0.36860436 -0.55207217 0.3840853 -0.37556097 0.11251042 -0.078409016 -0.06267503 -0.28918523 0.008509169 0.025714368 0.08463349 0.18313031 -0.27845713 -0.28122303 0.23355488 -0.47047627 -0.4789114 -0.3419713 -0.258436 0.6317329 0.34824902 -0.14199595 0.13086666 -0.32846546 -0.46505886 0.14014786 -0.077252775 -0.024458062
834 0.059251234 0.17864624 0.06703406 0.49475086 0.16509011 -0.1455999 -0.2847205 0.1412337 0.036324468 0.1491676 0.102663115 0.0071794344 -0.105921134 0.09115617 -0.24505733 -0.20245245 -0.07958687 0.035197016 0.027401919 -0.60793823 -0.43690482 -0.023954075 -0.41396552 0.3459469 0.061198395 -0.294234 -0.195759 0.36818618 -0.3195352 -0.14036828 0.5646096 -0.073381 -0.18611632 -0.14202452 0.18694091 0.21213543 -0.3589771 0.056581866 -0.034635007 0.28760895 -0.3964537 -0.43452758 0.13291271 0.2793464 -0.16132696 0.18997496 -0.42211387 -0.392021 -0.18377878 0.3879647 -0.16715018 0.14123458 0.08793303 -0.37287745 -0.3707474 0.10332134 0.11520065 -0.46415555 -0.14408912 0.1891679 0.053371586 -0.21662782 0.24305218 0.20279436 0.1756611 -0.14652407 0.17690037 -0.06692778 -0.18223237 0.34157827 0.07134271 -0.07709785 0.08410312 -0.36189297 -0.18929553 0.008822933 -0.04241344 -0.3788751 -0.021366626 0.1810973 0.028487425 0.14124502 -0.31812736 0.0009344958 -0.20075063 0.13965918 -0.08791239 0.009297492 -0.508242 -0.5263565 -0.17177327 0.25749904 -0.09020294 -0.17820334 -0.23466094 -0.08923898 0.47316977 -0.19021766 -0.1428907 0.049919732 -0.35584417 -0.19031599 0.51286834 0.12744859 0.35449255 0.12827574 -0.07949721 0.023836253 0.37421224 0.039026145 -0.3073586 0.01762456 -0.36319116 0.23829764 0.43519035 0.1826867 -0.1308458 0.17269476 0.3217982 0.015947111 -0.2135962 -0.050362874 0.1615642 -0.015766582 -0.20269047 -0.065057084 -0.37016097 -0.38460293
556 -0.2992609 0.20647135 0.06892666 0.37604982 -0.33599022 -0.2555168 -0.39806727 0.15323131 -0.09707849 -0.09370533 -0.06926397 0.19444433 -0.31206322 0.51689374 0.20666522 -0.1626437 -0.3581716 0.03864052 0.09131306 -0.0961798 -0.28084904 0.42913395 -0.6374665 -0.12216267 0.2765004 0.59032184 0.08548364 -0.10817996 -0.11143644 -0.37746653 0.1877142 0.60712534 0.03453757 -0.34016234 -0.25831574 0.5078331 -0.15386681 -0.5975881 -0.7599531 0.2748236 0.076190375 -0.259665 0.07568199 0.13816065 -0.20991307 -0.27976176 0.35914317 -0.03955095 -0.5722762 -0.07889564 -0.37828287 0.053248096 0.16632487 0.2878311 -0.096757516 0.04824767 -0.10629275 -0.105552375 -0.18711817 0.20347701 -0.20503557 -0.045941334 0.30755076 -0.16462249 0.053228855 0.0043735323 -0.057187397 0.39728126 -0.111836374 0.059070062 -0.16195098 0.2606823 -0.17580636 0.083867654 -0.17629507 0.20047215 0.15337741 -0.06899109 -0.10910344 -0.18560311 0.38466316 0.25653264 0.22245298 0.29708767 -0.17775957 -0.21620002 -0.23778436 -0.01020161 -0.03196244 -0.16328488 -0.32475573 0.049438797 0.11017828 -0.20993629 -0.11030122 0.03673342 -0.14670917 -0.6192563 -0.07628128 -0.054671228 -0.027224695 0.19216932 0.29603738 -0.056449957 -0.11091458 0.118862025 -0.45701936 0.07661378 0.3533738 0.24632703 -0.23888089 -0.16008645 -0.9957871 -0.5263731 0.16751122 0.13348395 0.2594395 -0.72281 -0.0882881 0.021983543 -0.14605415 -0.038155563 0.13503471 -0.12869501 -0.10752521 -0.19519258 0.101818584 0.21395482
231 0.21711688 0.5339118 -0.15362857 0.32037714 -0.28354838 -0.28813827 -0.3708817 -0.29930723 -0.0105107585 0.15784459 0.2589605 -0.20828591 0.46259508 0.3392317 0.18942803 0.34841627 0.08251559 0.091784045 0.036891636 0.45662513 0.1453202 0.18767366 -0.14434567 -0.09136468 -0.21238898 0.47715762 -0.20079224 -0.24776094 0.17353022 0.77821296 -0.15318838 -0.029361721 0.069376566 0.4520839 -0.4217858 0.52919257 0.123658344 0.049409933 -0.047486838 -0.010524451 0.12469964 -0.17743556 0.21160814 0.35391194 0.3045956 0.16252391 0.20772862 0.09651665 0.5292599 0.45779172 -0.073857665 0.34412134 -0.43170094 -0.06514309 -0.08222894 -0.06438003 0.3716616 0.037134346 -0.15843703 0.17192084 0.24011356 0.12997904 0.12664403 -0.07723342 0.05533516 0.09852215 -0.07604923 -0.3430728 -0.2924161 0.57297426 0.15117304 -0.30901256 -0.15103799 0.009113425 -0.2358493 0.30545172 -0.006001095 -0.5687041 -0.24932401 -0.1290659 -0.36503795 0.16798997 0.0032128117 -0.15589453 0.22308254 -0.1437112 -0.31439415 -0.47644037 -0.052326567 0.03368384 -0.77615625 -0.43052378 -0.045767535 -0.20801452 -0.12526664 0.12900855 0.27397364 -0.25885206 -0.26808918 -0.6879746 0.22823901 -0.17934236 0.05952273 -0.112457015 0.05289545 -0.12957732 0.10590042 -0.265123 -0.12769338 0.12666398 0.21413356 -0.052025717 -0.12470372 0.057260513 0.4625886 -0.7881706 -0.10223911 -0.38722032 -0.22096278 0.33652264 0.1432196 -0.025758086 0.67018956 -0.17068803 -0.08639577 0.07767362 0.27678615 -0.28403583
661 -0.24003038 -0.037382655 0.29385093 -0.29504028 0.0866272 0.2638835 0.20827252 -0.7594799 0.104543544 0.29142958 -0.25533348 -0.0010787257 0.19993228 0.07798184 0.23169434 -0.13588546 0.07135046 -0.65498024 -0.035415478 -0.2390139 -0.26932824 -0.22987361 -0.187244 0.0043446035 -0.4192778 0.42696592 0.011839518 0.30882448 0.073607415 -0.06985364 -0.05899391 -0.3593008 0.089331426 0.10792547 0.30745208 -0.11123311 0.24928717 0.03298161 -0.12352827 0.70104337 0.48313046 -0.1439392 -0.21529421 -0.17803086 0.0829314 0.06538947 0.16152136 0.11448543 -0.19983378 -0.19619046 0.030769296 0.22367485 -0.2494237 -0.2967017 0.0021715611 0.012723087 -0.2898884 0.18367302 -0.2047825 -0.33430704 0.29927248 0.41318884 -0.062784046 0.012905095 0.35976598 -0.27933002 -0.105553634 -0.17270127 0.6923027 0.17720544 0.14284326 0.4970674 0.22077818 0.24899954 0.11001811 0.03671528 -0.3599893 -0.30446827 -0.16213883 0.16893697 0.12435516 0.49425474 -0.023213746 0.01354015 -0.24808106 0.06251461 0.07909566 -0.2206368 -0.30216637 -0.16609249 0.38644436 0.06748681 -0.47293842 -0.2279647 -0.118346296 -0.049627423 0.040506747 0.026126979 0.029647477 -0.42536584 0.107539296 -0.17234313 0.51567614 -0.07280346 -0.1524559 0.09462377 -0.08044823 -0.059499808 -0.24732405 0.06218893 0.14962368 0.03854991 0.10074881 -0.12658396 -0.08916616 0.041971184 -0.08101945 0.27893737 0.048191488 0.09727729 -0.11447964 -0.020913739 0.009367178 0.17248933 -0.25446597 -0.6616433 0.04656722 -0.0027603318
697 -0.031159628 -0.18070818 0.50590336 0.14441101 -0.29576725 -0.14452916 -0.39006105 -0.4066908 0.055596035 0.13544257 0.2853858 0.49845287 -0.07840469 0.017010985 0.44355989 0.28803468 -0.030930638 -0.45519352 0.08124666 0.0857955 -0.27997205 -0.25869742 -0.0073448266 0.17207019 -0.23514654 -0.16309442 0.41179675 0.16757624 0.19171454 0.1797098 0.07144043 0.04399756 -0.068238005 -0.05098507 0.28654987 0.024066113 -0.040896576 -0.40203604 -0.30906326 0.4319699 0.068484336 0.36447105 0.14415023 0.22670756 0.03730308 -0.010356699 -0.17110541 -0.12957084 -0.29388115 0.1600475 0.36452478 -0.008442073 -0.24275622 0.039749596 0.17044267 -0.00712622 -0.08023476 0.13944879 0.064291544 -0.511065 -0.10794388 0.059912797 0.073489435 0.26450613 0.059825297 -0.26741475 -0.22115617 0.12998469 0.303487 0.4432269 -0.004826317 -0.09044389 -0.008486819 0.24966156 0.090877876 0.0425756 0.033807546 -0.36125547 -0.0029160103 0.12812632 0.045091137 -0.014724681 -7.867469e-05 0.21818195 -0.043002218 0.42401233 -0.088326186 0.15901433 0.04327196 -0.055673912 -0.14629258 0.31435832 -0.19212547 0.23263358 -0.19536486 0.15649727 0.36691532 0.17233531 0.54798615 -0.22611666 0.1279524 -0.05457755 -0.12321858 0.2908076 -0.19919197 0.108982034 -0.25354034 -0.36956933 -0.20793305 -0.13146667 0.060302984 0.024910355 0.33455992 -0.16107462 0.3713226 -0.01907052 -0.18958145 0.40573555 0.040430736 0.01607831 -0.43559933 0.12440277 -0.06574324 0.23617804 -0.14858359 0.048594274 -0.008691282 0.22771737
363 -0.020434901 -0.41384125 0.040841416 -0.1351849 -0.33623323 -0.03745724 -0.47971842 -0.7342114 -0.0821137 0.48235622 0.482626 -0.1065543 0.07097097 0.2826639 0.3107862 0.29835626 0.4991602 0.028039362 0.3567908 0.15360016 -0.08948259 -0.3186055 -0.12332199 0.23495847 -0.0035221889 -0.028811837 0.31245458 0.27271345 -0.13638344 0.15260379 0.14069211 -0.044785295 0.07658033 -0.024748147 -0.2970071 -0.6581121 -0.19367275 -0.35749146 -0.2348265 0.6157625 -0.0203074 0.21041344 -0.1702902 0.200343 0.2317275 -0.15205926 0.017993134 0.13976276 -0.1261711 0.23513614 -0.19844602 -0.10344138 0.09251715 -0.08210546 -0.0049938653 0.021447944 -0.24025072 -0.34614792 0.22158201 -0.06166984 -0.51148045 -0.10370113 -0.09646523 -0.32368532 0.53394294 0.15743108 0.20621787 -0.025398731 0.13506092 -0.07515366 0.15880331 -0.0853468 0.33792636 0.22296876 -0.058064796 0.3929652 0.04013479 0.21199074 -0.08067151 0.10293828 0.17157681 -0.048949707 0.14563438 0.21557775 0.24642134 -0.21060067 0.027458914 0.16255115 0.06642263 -0.434327 -0.31121442 0.16015534 0.1429718 -0.2084852 -0.14913777 0.27653828 0.49610612 0.021327509 -0.26472953 0.03837104 -0.0061910176 -0.18197131 0.91182536 -0.032828763 0.45716816 0.2691049 -0.012808209 0.1584152 0.0063194446 -0.07291853 0.24929084 -0.3075914 -0.11319931 -0.16963546 -0.050899524 0.4438794 0.121591225 0.14975585 -0.10436812 -0.4296757 -0.0060483958 0.038840037 -0.092176765 -0.19149306 0.009321661 -0.37734908 0.3312613 -0.13360564
355 -0.21372631 -0.44043708 0.46130544 -0.030222679 0.02323686 -0.37109882 -0.17215395 -0.6579891 0.06278178 0.14420325 -0.03415628 0.36592224 0.19312643 0.35327947 0.27817684 -0.023413898 0.50648004 -0.46481675 0.15660201 -0.11751951 -0.18992369 -0.25041127 -0.2574824 0.21119222 -0.21060166 0.15086204 0.010680341 0.14302698 0.31474715 0.35174716 0.16020988 0.08317662 0.101411104 0.32518792 0.0126860775 -0.041600384 -0.14590445 0.030861001 -0.0023308634 -0.027289292 -0.065719195 -0.021218136 0.08437968 -0.0964723 -0.0782106 -0.23586679 0.16815121 -0.06694126 0.006645862 0.2670364 0.15117714 0.06353289 -0.015349282 -0.47507507 0.15137301 0.07380639 -0.099784724 -0.10476085 0.084542155 -0.15484604 0.042139027 0.04491189 0.3066067 0.12073233 0.22609939 -0.45435247 -0.3652083 0.12177785 0.29586372 0.22363883 0.38335028 -0.041851602 0.17623064 0.20004566 0.2840296 -0.10370321 -0.3307781 -0.32808325 -0.122573785 0.25305098 0.08722938 0.06394192 0.19615746 0.11678095 -0.33652398 0.29914278 -0.1942546 -0.14024921 0.05174636 -0.05480762 -0.123127826 0.46389645 -0.20635019 0.31223968 -0.14317317 0.076737255 -0.085999094 0.26085383 0.051566835 -0.46934 -0.10091541 -0.0004443303 0.12925686 0.08344369 -0.20380145 0.047056366 0.5556867 -0.10938956 -0.37984985 0.06957178 -0.20737077 0.17988479 0.4097506 -0.4352561 0.4725029 0.39846706 0.015641572 0.047137544 -0.20451291 0.10091199 0.010247528 0.039525725 -0.04982893 -0.073475175 -0.10006042 -0.47423035 -0.0892365 0.45936927
66 -0.020963112 0.23284805 -0.5296703 0.068879776 0.26761478 0.31018808 0.3657494 -0.3686617 -0.50692123 0.5796685 0.032377236 -0.116258025 -0.114262104 0.46256682 -0.26583686 -0.025515748 0.43399152 0.32497573 0.4508538 0.22103028 -0.31160954 -0.09153604 0.027404832 -0.056054328 0.15645464 0.038603038 0.17387906 -0.19242619 -0.454278 -0.050944768 0.33921912 -0.113670245 0.027631527 0.012111027 -0.13284606 -0.25119895 -0.344288 0.05269939 -0.31385684 -0.12483133 0.32673958 -0.4132155 0.17951141 0.23461792 -0.1026994 -0.13119452 0.36082655 0.16972372 0.048512664 -0.16623294 -0.02522075 0.2963068 0.5361198 0.05647675 0.17701843 -0.17867574 -0.014018347 -0.39973173 -0.05073585 -0.30237976 -0.019939665 -0.010064819 0.25902382 0.34334528 -0.380526 0.034561753 0.13305326 -0.14914085 -0.39905548 0.26884475 -0.2450086 -0.07837847 0.07048113 -0.10090362 -0.111637615 -0.0067049433 0.24054727 -0.113449275 0.4342913 -0.38439736 0.18090755 0.30881268 -0.108298935 -0.12331847 0.035669703 0.05618666 -0.37361163 0.17262216 -0.31900346 -0.21705368 -0.15053907 0.6999351 -0.25131324 -0.13439326 -0.10768709 -0.1346683 0.052539255 -0.43487805 -0.24595985 -0.09193829 -0.093603455 0.46546388 0.20440009 0.20672186 0.016564857 0.15615459 -0.480892 0.012066967 0.021479031 0.18808109 -0.36058962 -0.24519327 -0.61554235 -0.036117777 0.5063426 -0.051769715 0.22281326 -0.019148955 0.4004965 0.6194181 0.031080015 0.034413464 0.20517255 0.15019809 -0.26263154 -0.24466068 0.26382223 0.14559434
538 -0.2677414 -0.3463257 0.36245492 -0.25060198 -0.3749654 -0.07836721 0.02135757 -0.31962425 0.023374904 0.066969775 0.17528017 0.20402908 0.3688736 0.03343405 0.36102307 0.24974659 0.1887557 -0.5360925 0.2662222 -0.25099528 -0.11475667 0.07352298 -0.074083075 0.0946133 -0.24513151 -0.020074384 -0.016947627 0.18838608 0.024832966 0.14161076 -0.19444148 -0.03266688 0.33818212 0.3160073 0.18909453 0.0023212372 0.017188305 -0.08435356 -0.2135208 0.53261185 -0.09507007 0.011344556 0.26032653 -0.03096447 -0.2808665 -0.1244858 0.11689546 0.13509214 -0.19446512 0.017751489 -0.021292277 0.18536325 0.008502517 -0.45181915 0.09936929 -0.14256804 0.048027553 -0.27199113 -0.15376437 -0.1322361 0.051639248 -0.014422198 0.15103759 0.073504165 0.4027401 -0.4969348 -0.23268832 0.29717097 0.43585876 0.064244874 0.0036258448 -0.25427368 0.0581806 0.2580022 0.037838977 -0.014297244 0.44340593 -0.36120674 0.047146853 0.22392318 -0.26968706 0.10645765 -0.123189 0.03411497 -0.11167718 0.62444144 -0.2878748 -0.12547904 -0.36663494 0.07184331 -0.12504657 0.63011235 -0.10712644 -0.052207064 0.048801288 0.09817251 -0.024777584 0.33895454 0.37306637 -0.2978978 0.0061858078 -0.18868919 0.28899872 0.6161829 -0.05811532 0.19428654 0.35928765 0.004159236 -0.5026615 -0.050997235 -0.04406944 0.21512792 0.09252803 -0.45406753 0.2477674 0.10692674 -0.02723038 0.020682195 -0.19917013 0.14838968 0.19293267 0.041837968 -0.14621226 0.051029496 0.25966182 -0.549684 -0.3231781 0.14797735
305 0.09255758 -0.009859034 0.38431513 -0.11091853 -0.6404288 0.14469987 -0.1720095 -0.12345243 -0.20682149 0.24208939 0.27701014 0.26729852 -0.16208741 0.38990492 0.106650926 0.12414092 -0.47169402 0.027138378 -0.05701777 0.023308262 0.16114122 -0.14048341 0.22048919 0.09192628 -0.20594345 0.23536225 -0.013152505 0.61517423 0.14497213 -0.35206515 0.3795611 -0.4467187 0.46244907 0.40047014 -0.10039939 -0.17276578 -0.22748354 -0.51993376 -0.3385253 -0.036546357 -0.24850371 0.24012288 0.66276795 -0.5843493 0.13631512 -0.14856108 -0.20617212 -0.113227375 -0.25602874 -0.12363594 0.45844132 -0.22343768 0.25794575 -0.025842667 0.13892034 -0.06149282 -0.008081382 0.20221491 -0.1126157 -0.0875514 0.5051709 -0.12542005 0.46970174 -0.10830208 -0.23321286 -0.17619352 0.20165087 -0.10116906 0.08073337 -0.3819047 0.11496584 -0.24870893 -0.26979825 -0.0053858054 0.1804013 -0.2998326 -0.29960033 0.09598654 -0.42969987 0.19809398 0.33972165 0.02397494 0.30917883 -0.29370216 0.08745295 0.5794172 -0.0570344 0.59697586 0.006323211 -0.3215797 -0.30391604 -0.03246152 -0.23953936 0.3821836 0.19261147 -0.18900102 0.3841313 -0.014328616 0.34484223 -0.09036622 0.033636164 -0.28303114 0.12665004 0.05396 -0.31476212 -0.09973602 0.04489584 -0.26465797 0.35362753 0.4716061 -0.26364034 0.0369078 -0.32779983 0.053950597 0.63801396 -0.576313 0.47564644 -0.2709095 -0.096274726 0.20684741 -0.19313078 -0.23100223 0.20205657 0.015605838 0.010388302 -0.044921495 -0.077797115 0.31709093
290 -0.16828966 0.40168753 -0.044466235 0.12163357 -0.2327194 -0.09726126 0.11095889 0.26125428 0.36283937 0.09553311 0.043361254 0.093210034 -0.038136825 0.08915276 0.119915076 -0.16630387 0.27449647 0.0218956 0.14432392 -0.015135254 -0.051316787 0.01608188 0.25427064 0.38914517 -0.547148 -0.2960768 -0.1563102 0.09187413 0.4390027 0.27304417 0.086831965 -0.17850101 -0.023426944 0.36325517 -0.07617722 0.05330536 -0.39723802 -0.09461101 -0.17224085 0.08064252 0.092822 -0.30221292 -0.12978002 0.027814277 0.14232601 0.34274468 0.09988048 0.43779486 -0.22655837 0.07824015 0.016633347 0.03411598 -0.036406968 -0.33822456 0.00887616 -0.3116959 -0.2388823 0.07065462 -0.20492361 -0.103758395 -0.4485351 -0.20609152 0.23417886 0.06651757 0.12132787 0.0035554443 -0.17553204 -0.040225513 -0.04029548 -0.23833145 0.014995753 0.21214913 0.1626048 -0.07085632 -0.27833575 0.64715147 -0.17254585 0.022868844 0.16577311 0.20851101 -0.1960723 -0.3843705 -0.4635936 0.038444787 0.16320562 0.120641224 -0.5391566 -0.12016893 -0.4620545 0.08528082 0.009653796 0.09971929 -0.18901022 -0.16758314 0.43425098 0.039783634 -0.049933556 -0.22897923 0.13200337 -0.09102835 0.16249458 0.10954619 0.07225807 -0.3430352 0.021870717 -0.07866777 0.23616324 -0.168534 0.21325207 -0.07857403 0.029673114 0.17603576 -0.43841738 -0.15409224 0.17865917 -0.0634618 -0.3224617 0.12271194 0.33424285 -0.0495046 -0.06300805 -0.25924832 -0.049656134 0.012239682 -0.1559852 -0.24010114 -0.09472096 0.29163682
449 -0.36661673 0.23046106 0.039056923 -0.25703764 0.28945443 -0.06924837 -0.12163393 -0.34351864 0.17682597 0.052823514 0.5655296 -0.051275883 0.10867138 0.2415714 0.18504857 -0.24444643 -0.05967347 -0.020245964 0.30116665 0.06571942 0.11689043 0.03696928 -0.42621785 0.20730466 -0.25378594 0.26487237 0.16101402 -0.17642489 -0.08402312 -0.1793106 0.17906994 -0.036468312 -0.016316902 -0.04346576 -0.12589371 -0.17497212 -0.49248308 -0.21623482 -0.19018579 0.05381228 0.18342984 0.20378593 0.020243509 0.4181816 0.11332641 0.05751601 -0.1052042 -0.00065225834 -0.5264102 -0.05384045 -0.578999 0.1506147 0.252849 0.16438317 0.15464024 -0.5215219 -0.07166618 -0.4780197 -0.1626992 -0.0003863461 -0.37162316 0.13725063 0.30751768 0.2732192 0.19460833 -0.08750286 -0.25503582 0.0853406 -0.30108237 0.40001944 -0.42676118 -0.029130945 -0.09287461 0.019168198 0.16301669 -0.009234637 -0.109438986 -0.020388044 0.12647745 -0.6270023 -0.022874271 -0.29503348 0.10889985 0.09094104 0.3485575 -0.27001777 0.00909096 0.0027771909 0.095719755 -0.1328281 -0.07822182 -0.07833204 -0.34831604 -0.23547016 -0.0012982707 -0.27280447 -0.044824496 -0.29191834 -0.653622 -0.094253935 0.23503947 0.5889084 0.21339612 -0.095573425 -0.29013154 -0.53693616 0.32318565 -0.25208554 0.21709508 0.32906163 0.41376096 0.043091286 -0.32557344 -0.25556841 0.13496123 0.11552824 0.48166996 -0.15982777 -0.23971246 0.3024116 -0.3536183 -0.42925555 0.35171396 0.22194013 0.034943428 0.06284111 -0.39506742 0.43547082
432 -0.4272716 0.34873357 0.38556215 -0.18195619 0.5146202 0.314089 -0.3439152 -0.050976105 -0.3899171 0.3556232 0.40552583 0.059089333 0.06312884 0.21732324 0.40922806 -0.14439113 -0.3901165 0.14018501 0.5622751 0.12209798 -0.2663059 -0.19149002 0.017903874 -0.23802628 0.018694166 0.45255432 0.059990335 -0.17384438 -0.10589578 -0.117097065 0.12224931 -0.19137435 0.08243284 -0.09091195 -0.2888706 0.05552262 -0.17947856 0.22326721 -0.08118462 0.12694079 -0.12019582 0.31292856 0.051307928 0.6649937 0.081097215 0.16091038 0.020905828 -0.11537091 -0.09484176 -0.3949793 -0.3188112 -0.18926941 0.002649626 0.18050808 0.26602256 -0.32413733 0.27893808 -0.038369644 -0.13355301 -0.06666451 -0.4620992 0.30191374 0.25964022 0.007026997 0.29334795 -0.06260336 -0.15126611 0.23372775 -0.13732597 0.22339721 0.02775801 -0.15373309 0.25257757 0.01440769 -0.048952322 0.024799865 0.3914168 0.48559004 0.5964688 -0.32093295 -0.08336883 -0.13045987 0.10572751 -0.24613415 0.1788909 -0.21000594 -0.015330151 -0.14905947 -0.0302077 -0.29453865 -0.60838956 -0.03544003 -0.1943628 -0.4676563 -0.20938276 0.12586446 -0.08074558 -0.5889214 -0.33771622 -0.10381992 0.13720173 0.006354912 0.18208706 -0.16964354 -0.1890801 0.22124012 0.32446104 0.23065534 0.540799 0.32198775 -0.09324625 -0.5752749 -0.44746336 -0.6228153 0.10334587 0.3566546 0.2116848 -0.45818517 -0.023171216 0.22186245 -0.7298949 -0.37066823 0.010774187 0.063236356 0.027050478 -0.015742527 -0.29602742 0.22932096
700 -0.003000627 0.6072402 0.16791296 0.13711454 0.3838114 -0.4495943 -0.6209029 -0.004047512 -0.35674846 -0.24332511 -0.31450438 -0.08538959 0.6524685 0.46498725 0.046457555 0.20400088 0.11827313 -0.13995579 0.17687656 -0.42020357 0.26474974 -0.08042622 0.4852205 0.04078065 0.03936669 -0.277305 0.19090785 -0.21140209 0.2437785 0.18100569 0.058611277 0.39237988 -0.30854294 -0.53660744 0.24844845 -0.3732687 -0.2113714 0.37298334 -0.08687917 -0.22671229 0.45294347 -0.24861571 -0.073539056 -0.07101814 -0.022550799 -0.5060162 -0.3773201 -0.1604695 -0.4114615 0.19321488 0.2557696 0.3120016 0.2545451 -0.5303776 0.007437692 0.13483305 0.05458231 -0.13517067 -0.26699227 -0.107812926 -0.041600127 -0.1896979 0.13674583 0.020090612 0.07226984 -0.15782502 0.18674591 0.27487653 -0.008726306 0.23354174 0.03817568 0.18978508 -0.12276512 -0.3268722 -0.15479977 0.36000752 -0.44883925 -0.10252629 -0.55215114 0.14299543 -0.33714977 -0.045781396 0.18501055 -0.2735711 0.36438707 0.3714147 0.34813848 0.33723903 0.2201424 0.33965597 -0.02231487 0.019678637 0.07469483 0.13108419 0.11359866 -0.48137453 0.14882469 -0.042958193 -0.0012973347 -0.017250858 -0.048078287 -0.045914557 0.15464082 -0.0064829155 0.29175955 -0.11815428 0.30216056 -0.5600593 -0.11713382 0.07942712 -0.08409585 -0.11134983 -0.3894162 -0.195726 -0.22072709 0.4385999 -0.51057 -0.2243814 0.064341486 0.12523763 0.22883081 -0.6318708 -0.043206684 0.29057628 0.31144777 0.5018742 0.22966808 0.332444
461 -0.1267508 0.31934988 0.32696673 0.44484308 -0.2823748 -0.40548623 -0.215963 -0.054264978 -0.45533893 0.38085455 0.42137796 -0.01933932 0.5368906 0.059749365 0.5383506 0.25475904 0.13673593 -0.07491684 -0.1448283 -0.69438297 -0.24927072 -0.59135586 0.06328086 0.05845079 0.038747128 0.18194544 -0.061200082 0.6876582 0.3726262 -0.08999921 0.06121538 0.20363821 0.56097484 0.28521937 0.022289246 -0.2318952 -0.10875094 0.018864 -0.09945196 -0.036220197 -0.1753358 0.39241892 0.6094722 -0.05361333 0.09157225 0.0023633263 0.30491734 0.2441358 -0.2999241 -0.6192495 -0.122569464 -0.119583435 0.31013027 -0.060863897 -0.13422078 -0.34084415 -0.15097728 0.2888979 -0.2696267 -0.07250196 0.2900459 0.18523908 -0.29030493 -0.09188792 -0.23046245 -0.15000941 -0.29718283 0.17372717 0.009026858 -0.04197696 -0.2406999 0.022836696 0.063663736 0.10669536 0.42521325 -0.29332936 0.06369315 -0.29771578 -0.10458133 0.2424338 -0.2831275 -0.1836814 -0.023196157 -0.3014328 -0.75493276 0.15086444 -0.0065314593 0.4269901 -0.030124638 -0.27210742 -0.098787956 0.02479742 -0.18849802 0.7562145 -0.30416518 0.37303475 -0.054418433 -0.07592282 0.2539298 0.17935868 -0.28973714 -0.1591738 0.19651878 0.1877477 -0.50770944 -0.30576804 -0.27378014 -0.56559646 0.18928164 -0.05144858 0.3022471 0.04870883 0.122378476 0.015668865 0.28766474 -0.23366179 0.37299767 -0.10569646 -0.16826105 -0.15210672 0.11549106 0.040752806 -0.09213436 0.08606259 0.09122563 0.34767494 0.2713816 0.11562342
374 -0.3958229 0.08904684 0.14892742 -0.04637676 -0.08472575 0.08182604 0.4060755 -0.16710302 -0.04816328 0.0688226 0.55996954 0.22816868 -0.12115042 0.31563118 -0.15460858 0.039255455 0.27488995 0.019899681 0.26177436 0.10087402 0.072955884 0.51371115 0.28849378 0.08209346 -0.17202456 0.52311623 0.20686756 -0.011328919 -0.09493915 -0.17163499 0.118618235 -0.6918774 0.13513511 -0.15149692 0.5416542 -0.13045709 -0.42981938 -0.2976621 0.16994867 0.042740665 0.31333885 0.03691822 0.04624897 -0.23820974 0.47988063 -0.21549441 -0.35740504 0.08803764 -0.54717255 -0.03611864 -0.40481597 -0.095035054 0.23803695 0.30194673 -0.019164579 0.06195605 0.17863666 0.17536634 0.074360535 0.25970197 0.017123396 0.12911145 0.18835098 0.2841308 0.33477458 0.32753643 -0.06274176 -0.12757114 0.4530568 0.5177406 0.39938405 0.011294923 -0.11053086 -0.20089395 -0.019452268 0.550335 -0.045760054 -0.3544626 0.067793205 0.61333674 0.3546935 -0.26276246 -0.10080356 -0.36781356 -0.3568471 -0.018811576 -0.12248405 0.05561468 -0.009081861 0.51892066 0.35933292 0.15898483 0.54214776 -0.045561943 -0.6329062 0.14834258 0.15556173 0.1369009 -0.21882685 -0.22480728 -0.011851882 -0.5065002 0.46446753 -0.15138209 0.094108984 -0.19172303 0.2214859 -0.33878264 -0.10557354 0.098663464 0.12888883 -0.17558168 -0.12513599 -0.07214417 -0.25070393 -0.34328195 -0.20151886 0.14152761 0.039022837 -0.037760083 -0.20354286 0.18506919 -0.10948217 0.27164158 -0.12715793 -0.056388084 0.04135373 -0.18433611
34 -0.078115 0.48249465 -0.04947248 -0.04715662 -0.23016751 -0.07906818 -0.020872554 -0.38652575 -0.40278715 -0.14120361 0.48225093 0.35907757 -0.03254234 0.25083235 -0.098962806 0.013851867 -0.20091769 0.21459 0.25484365 -0.115144834 0.10010837 -0.21639304 -0.22824037 -0.056504603 -0.42814073 0.1762464 0.46223158 -0.13664272 0.36044428 0.029923351 -0.2613089 0.04693358 0.092843294 0.11312535 -0.16420223 0.4286161 -0.4403139 -0.05961234 0.41191223 0.17065145 0.25535366 0.047891542 -0.11171595 0.06320045 -0.10044611 0.59622455 0.31025922 0.15275575 0.53296584 0.68562853 -0.057979085 -0.10411518 -0.19486506 0.24299224 0.28825817 -0.117151685 -0.12501517 0.23224835 0.16255008 0.24975803 -0.07018494 0.15937907 0.15055831 -0.19936383 0.102636 -0.13000593 0.20731829 -0.062141612 0.16440839 0.3318947 -0.04095568 -0.24349318 0.035341784 0.24699558 0.4128954 -0.2351992 -0.08307622 -0.31344992 -0.5567749 -0.60099053 -0.061013553 -0.5229102 -0.30821705 0.4316518 -0.09834308 -0.18011634 0.21169938 -0.20950058 -0.40864927 -0.27081946 0.15595596 -0.17091 0.16190813 -0.59351623 0.20939274 0.270813 0.64297295 -0.009688922 0.35951728 0.14046064 0.73505455 -0.44344482 0.43008548 -0.020158015 -0.13599879 0.38119575 -0.046469714 0.16472563 -0.16873252 0.018981004 0.084356956 0.010451503 -0.39061242 -0.14695707 0.38705102 -0.14223875 -0.06339911 -0.08111642 -0.053259015 0.48152342 0.44011223 -0.018703952 0.44201073 0.4613996 -0.26605147 -0.0741835 0.23537035 0.16697991
91 -0.1801838 0.24747773 -0.10138687 -0.19530445 -0.21534991 -0.21493034 0.017231535 -0.2663383 0.21702294 0.5656376 0.05641869 0.37205678 -0.019473838 -0.12698928 0.043960296 0.06329103 0.078932196 0.035775427 0.17983302 -0.2889725 0.010808637 -0.50164104 -0.34984887 -0.16838495 -0.08330349 0.076826826 -0.10231653 -0.025752034 -0.61851484 0.41586074 -0.04467114 -0.4047767 0.18902086 0.23622598 -0.03041211 0.05797388 -0.041197598 0.30268815 -0.42732325 0.17658801 0.42316723 -0.054339066 -0.51216626 -0.037016008 0.25521013 -0.27831143 0.03696228 0.060081564 -0.28320983 0.01526408 0.017597912 -0.39435798 -0.10086584 -0.38559693 -0.065452255 0.076585256 0.24042022 -0.31830743 0.13270211 0.0045369384 -0.66929924 -0.12383563 0.017474093 -0.057685614 -0.062177278 -0.6114124 0.33077666 0.18834716 0.09980572 0.20080808 0.22383559 -0.1319265 0.38602245 0.2384667 -0.065630056 -0.042333886 0.03179004 -0.21163087 0.17884344 0.2975601 0.09730977 -0.29111552 0.14165168 0.22766688 -0.3624492 0.39565483 -0.34696898 -0.12838648 -0.25174066 -0.095453896 -0.18360138 0.11651445 0.2594437 0.005432381 -0.25558552 -0.03917225 0.5563498 0.00033929717 -0.10141399 0.24821094 0.18015511 -0.26515213 0.08800972 0.37331083 0.053408343 -0.33521172 0.24426687 0.059359536 0.028648019 0.18135935 -0.61630183 0.30901408 0.41089326 -0.16780566 -0.1338161 -0.2985064 0.55870813 -0.17450511 -0.48238507 -0.019600898 -0.41342053 -0.12860939 -0.2046933 0.27339134 0.03755557 0.25632307 -0.0096376175 0.13641144
343 0.29576018 0.0537268 0.071033664 0.077233605 0.07327247 -0.30154213 0.08871902 0.37634766 -0.34838516 0.039539378 -0.45762503 -0.044459894 -0.31136698 0.08430302 -0.07295233 -0.14808013 0.22728641 -0.12635711 -0.05424876 -0.2108378 -0.46166873 0.05137195 -0.41399264 0.18679991 -0.054073412 0.173135 -0.06923144 0.06552384 -0.10608421 0.18831466 0.18647994 -0.4737596 0.29865652 0.113743134 0.28747126 -0.122078724 -0.7970784 -0.040406317 -0.16895227 0.2179621 0.15860824 0.1016032 0.035529535 0.23774749 0.06866632 -0.13177645 -0.33405343 -0.11215257 0.30054614 0.05321191 0.09342857 -0.029610852 0.19806072 -0.37526888 0.21041365 0.50403655 -0.15663692 0.013290952 -0.086376995 -0.16941234 0.1684547 -0.017493138 0.29800475 0.44885463 -0.0438718 0.16784789 -0.1583053 0.111518785 0.19016151 -0.14172514 -0.43472824 -0.6999595 0.5437738 0.18068194 -0.06630048 -0.34692395 -0.4572557 -0.5315783 -0.11728272 0.023580633 0.14292565 -0.17864169 -0.19380842 -0.23400278 -0.2813918 -0.06887431 -0.11711321 -0.51029575 -0.06730375 -0.51486576 -0.23169966 0.07888206 0.008599439 -0.1087363 0.09829128 0.42714572 0.0440532 -0.57018715 -0.23666053 0.056074236 0.06827769 -0.07545786 0.41279757 0.10103139 0.14087534 -0.17713393 0.3312308 -0.1323578 0.26905125 0.062053327 0.0034865413 -0.2096601 -0.30348602 -0.05453384 0.6992465 0.35164258 0.21685745 0.12810646 0.0811071 -0.21717201 -0.4032593 -0.21330348 0.32106003 0.2864922 -0.28378555 -0.37758306 -0.16530383 -0.017258521
149 -0.5368306 0.3035838 0.17631406 0.18507414 0.036626685 0.27119488 0.28348678 0.6153853 -0.075446635 0.1204079 0.2686312 -0.37643927 0.15182781 -0.20082246 0.04611299 0.28342 -0.19502454 0.099425726 0.51599365 -0.108052805 0.15476847 -0.13475204 0.022427503 0.4196976 0.14856097 0.0011505658 0.3889076 -0.118583746 -0.09702854 -0.21195976 0.28681678 -0.28511804 0.30645993 0.010327674 0.29905617 -0.29759884 0.27155384 -0.070283435 -0.31039008 0.31675526 0.22990087 -0.2705417 0.029933436 0.0029239422 0.093644954 -0.18548565 -0.10503953 -0.044374175 0.14257927 -0.29146764 -0.044938054 0.041404195 0.122308284 -0.31353408 0.41130078 -0.097020246 0.41872877 -0.31699276 0.2758999 -0.04420154 -0.09043323 0.0015566245 -0.103230834 -0.14316499 -0.18991692 -0.13252641 -0.20616244 0.15961418 -0.17151314 -0.102189094 0.3281557 0.43124416 0.41632077 0.15861389 -0.1227808 -0.28172985 -0.5349041 -0.16828044 -0.16016942 0.6117254 -0.17278591 0.13942884 0.26309416 -0.04086427 -0.37416518 -0.119392835 -0.016630903 -0.17045568 -0.28750375 0.29375246 0.44274712 0.07714433 0.09959602 -0.15645757 -0.14918783 0.12973067 -0.066356026 -0.19199312 0.18977977 -0.45669046 0.023325844 -0.15075918 0.8198271 -0.39726186 0.038849436 0.095870644 0.06577807 -0.37967795 -0.09731393 0.041944243 0.36860302 0.16198175 0.09457955 -0.057044044 -0.11246157 -0.095042445 -0.4699949 -0.18525909 -0.0036674177 0.22910051 0.11694631 -0.35937542 -0.00496951 -0.3367696 -0.104234345 -0.16086148 0.19836283 0.22716354
779 0.13123299 0.21246544 -0.16627398 -0.21556656 0.5065574 0.23602329 -0.37036684 0.108973116 0.18651766 0.20696928 -0.30298337 0.4628159 0.2679156 0.29675433 0.094935045 0.19287878 -0.006387772 -0.0882748 0.08639033 -0.16433233 -0.29272655 0.27085957 -0.007648027 -0.24419095 0.16194272 0.10842516 0.16378465 0.18374766 0.0518404 -0.013369078 0.48927173 0.03254315 0.56098324 0.51714927 0.16102354 -0.14966312 -0.28718463 -0.15827204 -0.3990611 -0.084727496 0.10465789 0.29745662 -0.0069574732 0.12384974 -0.30331665 0.34308934 -0.08077669 0.024873314 -0.44531727 -0.39671 0.003337283 0.17499524 0.5059211 0.31776372 -0.55978847 0.14207412 -0.20297603 -0.24081661 0.1233776 0.2048666 0.33192545 -0.20768009 0.040845092 0.16662656 -0.24433285 -0.2309045 0.13237837 0.2134441 0.2304919 0.06306095 0.051100615 0.26210135 0.32925808 0.15349026 0.1530757 -0.33083898 -0.270531 -0.01581366 0.14365728 0.046143487 -0.22938293 0.39250135 -0.5943434 0.0062373066 -0.043484688 0.03731951 0.12886082 0.16669162 0.008302868 0.5557828 -0.16479462 0.0785785 0.67079943 -0.1157834 -0.015636956 -0.17381923 0.30576986 -0.59407836 0.010808419 -0.10712673 -0.22405927 0.09130033 0.12506332 -0.6372617 0.47253433 0.033362422 0.45988396 -0.32413778 -0.019232165 -0.3835683 -0.11280605 -0.16155468 -0.11038414 -0.022362793 -0.18573359 -0.5338777 0.23305355 0.14526235 -0.13663694 0.10022288 0.40365988 -0.423237 0.22055563 -0.14058667 0.54117346 0.041121922 0.06568233 0.07510845
138 -0.33590066 0.72691226 -0.30850062 -0.02788734 -0.2645082 -0.3208807 -0.09334013 -0.04447024 -0.09875783 0.085691795 0.38626298 0.10775025 0.02369028 0.012327235 0.020159272 0.25141212 -0.06969772 -0.027668424 -0.020823611 -0.09659487 -0.08102306 -0.21344307 -0.26672736 0.12648733 -0.3983759 0.23898327 0.63389075 -0.21531819 0.06382584 0.059518624 -0.25987995 -0.28773257 0.037546165 0.076052204 -0.18267226 0.47044766 -0.14071341 0.4847337 0.2711117 0.22170664 0.1329791 -0.30867088 -0.19138132 -0.0047901096 -0.2737883 0.516153 0.09666733 0.23068348 -0.19236584 -0.03630643 0.18501958 0.20885666 0.102710135 0.37855837 0.39327234 -0.12611024 -0.23533396 0.5003751 0.5373221 -0.11576481 0.020005072 -0.009516826 0.06041516 -0.1892586 0.5129907 0.40168157 0.35767323 -0.21958943 0.27372974 0.35781097 0.50520474 -0.3444901 -0.1527235 -0.46572685 0.19909386 -0.18582456 0.09824359 -0.22385469 -0.34367144 -0.12751107 0.05550961 -0.27036947 0.09061748 0.21926457 -0.06313359 -0.08289205 -0.053051654 0.30299956 -0.05464685 0.27518997 -0.10579538 0.14861017 -0.52455163 -0.34728453 0.24143402 0.30378574 0.72818965 -0.62256867 0.23798597 0.0029577918 0.24531417 -0.24475095 0.47154465 0.023860287 -0.28867385 0.48848003 0.02673863 -0.06965371 0.08019215 -0.0041676736 -0.39305845 0.036593728 0.07205132 -0.05438518 0.36405423 0.35150483 -0.16662143 -0.3134545 -0.17401223 0.43279785 0.6881666 0.15159753 0.411854 0.047487114 -0.03571184 -0.19715059 0.2955738 0.11747785
313 -0.15264879 0.09665157 0.23258445 -0.07020925 0.20938313 0.008523329 0.034668274 0.07730495 -0.26453534 0.55108446 0.008181859 -0.060486097 0.34150654 0.2847674 0.087487824 -0.17360705 0.052637443 0.31685415 -0.06817544 -0.16963588 -0.25000548 0.42419416 -0.44647428 0.08579965 0.2923799 0.41639364 0.23428623 -0.48568463 0.21719982 -0.009351125 0.47293073 -0.024198309 0.039946165 0.051085748 0.38496575 0.22478226 -0.19863035 -0.009564792 -0.06999639 0.26439035 -0.15530702 0.085326664 -0.18267535 0.32223463 -0.099713966 -0.32499596 0.3428679 -0.33924758 -0.32151273 -0.27338037 -0.9185772 -0.063706525 0.2797623 -0.015139695 0.058707442 -0.2875014 -0.03498446 -0.25076404 0.44601387 0.16476402 -0.7195216 -0.08323791 -0.16862749 0.16347615 0.14794007 -0.007956297 -0.10465996 -0.0926719 -0.14108837 0.23624931 -0.09434145 -0.09668122 -0.17602181 0.014847993 -0.16086419 0.049422015 -0.00039214542 0.44410396 0.37179622 -0.27725688 0.22058451 -0.804531 -0.20102178 0.16551511 -0.34652674 0.12093601 -0.027137658 -0.05427984 0.3163925 -0.7894219 -0.23415883 0.22953156 -0.1456382 -0.2633846 -0.15993677 0.00820104 -0.016651545 -0.022450646 -0.17416121 0.16908 0.17259222 0.14242016 0.06145206 -0.30142653 -0.118775316 0.14296617 -0.38727927 -0.34400827 0.15715547 0.23280634 0.029666355 -0.08355319 -0.6010517 -0.51202923 0.76315016 0.30923343 0.40394714 -0.66928196 0.055812526 0.25800487 0.6084326 -0.45023358 0.46347383 0.14127456 -0.19658025 -0.032868203 0.011756346 -0.2109996
113 -0.19735117 0.44176075 -0.28565034 -0.609375 0.098081775 0.0051977257 0.37397516 -0.567905 0.022763597 -0.119964644 0.5951394 0.32257336 -0.15401827 -0.17286278 0.5262173 0.29735956 -0.15629682 -0.3057216 -0.35590935 0.14646465 0.20222169 -0.14104764 -0.14809173 -0.10154214 -0.1408315 0.1203418 0.24888465 0.29722247 0.30921844 0.62206256 -0.3908368 -0.063284375 0.111149006 -0.11839907 -0.09151422 0.6572261 0.0048813038 0.32469484 -0.057809465 -0.06608077 0.097795725 0.05745235 0.14100057 0.014056823 -0.04856118 0.046454713 0.119660795 0.40142405 0.7674714 0.17427215 0.124481425 0.067471564 -0.36497197 0.16440804 -0.22920637 0.18573204 -0.24753883 0.44142196 0.41075537 0.13989022 0.16955096 0.33070424 0.06885037 0.0254375 0.13115218 0.09102047 0.078914404 -0.38301307 -0.3568975 0.27947077 0.15029572 -0.33739576 -0.19852872 0.3182906 0.11357573 0.083825074 -0.0312672 -0.2695777 0.22860323 0.16786472 -0.3341274 -0.6365424 -0.10987201 0.19461454 0.5231079 -0.13953392 -0.32667786 0.26001608 -0.16752525 0.121936195 -0.62794435 -0.117484674 -0.052181758 -0.2688066 -0.36560544 -0.06787661 0.05719884 0.019045012 -0.39953157 0.011408612 -0.43062782 0.28349838 0.70231324 -0.8785008 0.08945958 0.10187038 0.08926714 -0.4717753 0.18396391 0.8952061 0.09678564 0.09934187 -0.21505778 -0.1913706 -0.054004777 -0.28803372 -0.53981423 -0.3997166 -0.5065286 0.42178494 -0.1617038 -0.18475367 0.41383323 -0.15709624 -0.1553326 -0.06816656 0.025797049 -0.033026755
498 -0.47312587 0.24389085 0.18816687 -0.54919505 -0.16358763 0.027870089 0.18910581 -0.045166906 -0.37299237 0.3732174 0.44023058 0.16308044 0.64437485 0.3424521 -0.16699713 -0.23331885 -0.05838604 -0.20598406 0.120246395 0.83778 -0.2579339 -0.25660098 -0.24386974 0.27833417 0.46309018 -0.21213241 0.7458706 0.5144941 0.20304419 0.13929209 -0.22051886 0.53279847 -0.35018617 0.2101943 0.10726657 -0.12739013 0.042367786 0.10874872 -0.010731381 -0.029161846 0.01326347 -0.00033638848 -0.41041178 -0.25131732 0.11427679 -0.4513435 -0.19304638 -0.143718 0.3044625 0.18025853 -0.20775574 -0.020775972 -0.011633793 -0.01519852 0.057049878 -0.0073486376 -0.2912245 0.10348888 0.22368303 0.093818896 0.28686118 -0.30317634 0.40464494 0.009696637 -0.22906412 -0.18170139 0.03798259 0.20423745 -0.12925576 0.10697302 0.05403486 0.13239037 -0.090753496 -0.2749812 0.6686922 0.056324273 0.25369093 -0.24015093 0.77798057 0.32053715 -0.48293427 0.4811097 -0.25904268 0.52068245 -0.24504323 -0.17717841 -0.38209268 0.16980357 -0.35506317 -0.5306729 0.2059215 -0.13902707 0.18354687 0.16560186 -0.029372858 -0.33692348 0.39200768 -0.46451995 0.14730808 -0.17115289 -0.35917702 0.09957684 0.16674124 0.17345425 -0.08186541 0.36110747 -0.045330476 0.07535979 -0.12134646 -0.17283529 -0.28386292 0.2644092 0.3421123 -0.64536977 0.509172 0.22430144 0.1828432 0.36180517 -0.098657615 -0.22796373 0.35879362 -0.3677708 -0.18561128 0.0036498199 0.038484216 0.5365944 0.043736923 0.046955146
289 -0.27936265 0.10546262 0.26076326 0.034666874 -0.06706828 -0.15180457 0.22261702 0.008656166 0.10199672 0.3184788 0.21480271 0.2768992 0.31948042 0.112866916 -0.24792875 0.078386866 0.26291955 -0.0150301 -0.37548932 0.51682943 -0.10270661 -0.12646444 -0.15526317 0.5407198 0.2844425 0.08352981 0.17976616 0.38896295 0.10986053 -0.04313997 0.13560782 0.09430378 -0.47551766 -0.22492574 0.2269396 -0.033365246 -0.2864061 0.38837257 -0.24800013 0.2901081 0.121796444 -0.122579895 -0.24369286 -0.21691631 -0.18164021 0.100814566 0.121012464 0.23132797 -0.27576348 0.2014207 -0.026002815 -0.32025608 0.10720225 0.26080436 0.2735999 -0.23628996 -0.18682209 -0.010306826 -0.11744485 0.13528304 0.47662285 -0.6476877 0.034288686 0.30981022 -0.5142579 -0.42547506 0.21651903 0.20566492 -0.078162 0.012108502 0.25204712 -0.48138312 0.07885038 0.061162606 0.66285866 0.43885565 0.16717076 -0.5575802 0.5552641 -0.08264003 -0.708559 0.5630581 -0.20415492 0.040015943 -0.14918937 -0.039453804 -0.2597875 -0.00084836077 -0.044603307 -0.90020496 0.08914824 0.121464215 -0.0699988 -0.037132952 0.040644873 -0.22934817 0.5440426 -0.38223907 -0.30196613 -0.42796746 -0.2958638 -0.15330507 0.18270293 -0.3417191 -0.21338975 0.5891277 -0.0317923 0.3300209 0.0004274821 0.015986543 0.06452193 0.21655445 -0.4910402 -0.12971388 0.22317305 -0.1563896 0.2722122 -0.012088245 0.2945277 -0.13392614 0.295961 -0.034109958 -0.27980036 -0.2219004 0.12544256 0.37378365 -0.37076822 0.43940043
504 -0.60945874 -0.150419 0.36202472 0.3086048 -0.2887537 0.50294334 -0.15658394 0.17373106 -0.14385924 0.12700726 0.29634753 0.008498114 0.28755927 0.12082576 0.07386613 -0.2743144 0.067365795 -0.05697573 -0.016895546 -0.07562109 0.061872315 -0.020340834 0.45270267 -0.019870266 0.076358356 -0.13073015 -0.14034335 -0.07339745 0.15029381 0.08903203 -0.38788557 -0.30866677 0.34768847 -0.104704134 0.3556863 -0.18946753 0.032453343 -0.1327096 -0.098520696 0.2837044 0.0036078305 -0.65466714 -0.3511042 -0.09707509 -0.2627181 -0.28223962 -0.11881402 0.17087841 -0.12876749 -0.3570181 -0.09918653 0.1919918 0.0489035 -0.09814145 0.3173844 0.45093802 0.5489556 0.10268477 -0.5459339 -0.35626101 -0.1028627 0.03497431 -0.4860259 0.28812718 -0.047980476 -0.27162662 -0.25913176 -0.31078652 0.10729067 0.36669928 0.287382 0.37193564 -0.14596221 0.21516223 -0.4854748 -0.18208976 -0.018362712 0.055787094 -0.37094137 0.47404137 -0.106759824 -0.04186603 0.23497248 0.18151501 -0.3471262 -0.06598425 0.11452586 -0.21119094 -0.21568266 -0.3005914 0.106647775 0.2511448 0.12363394 0.056975823 -0.12079259 0.18203853 0.22417974 -0.29973027 -0.24172315 -0.33659995 0.34822902 -0.2521376 0.24745627 -0.18534946 0.6331048 0.027965732 0.029427465 0.10971247 0.15293716 -0.014037565 0.17891103 0.09613037 -0.19441128 -0.38483667 -0.13443998 -0.33614603 0.41189915 -0.1525271 -0.39140245 -0.38173512 0.48758313 -0.21116732 0.17493445 -0.6626578 -0.4920332 -0.034676425 0.38724923 0.106939085
160 -0.30021134 0.13749854 -0.10408118 0.2807843 -0.09825964 -0.093116686 0.08560783 -0.15008906 0.11511591 -0.059004426 0.20836475 -0.23456082 -0.004212002 0.04745618 -0.1524194 0.2000541 -0.25779074 -0.58114547 0.08161706 -0.48857307 -0.5062539 0.069392495 0.52510214 0.38507837 -0.03640382 -0.020555673 0.16309926 -0.059738047 0.3230581 -0.04864624 -0.052658785 -0.24616343 0.19106176 0.12974738 0.31293535 0.021117322 -0.34298152 -0.2462857 0.073666215 0.30457413 -0.0449065 -0.19681635 -0.41934985 0.05438363 0.3322843 -0.06356482 0.094585545 -0.12944974 -0.34478265 -0.39459804 0.20581189 0.1328028 -0.09772432 -0.31423998 -0.33687735 -0.20968276 -0.37891418 0.24003258 -0.18681411 0.047951873 0.26725638 0.034809116 0.3482832 0.136908 0.011867664 0.28059214 0.011822207 0.05251409 0.08682607 -0.0071196626 -0.1871587 0.26339555 -0.048992585 0.058399208 -0.02554754 0.18818498 0.026850104 0.41373256 -0.1737111 0.122902066 -0.16090328 -0.20431647 0.2897135 -0.06585485 0.27354407 0.028449165 0.12574843 -0.06120671 -0.30488 0.17456882 -0.24393049 0.33282083 -0.024778739 -0.41570747 -0.21292517 0.10367572 0.13197622 -0.6797265 0.47648087 -0.40023345 -0.021308055 0.060559165 0.4682925 0.19271089 0.13807838 -0.1253472 -0.116246864 -0.34958073 0.011443762 0.08217977 0.18714294 0.44103533 -0.03396692 0.038240876 0.17384204 -0.19813974 0.48412853 0.38173234 -0.053969085 -0.24723256 -0.12715779 -0.21599157 0.15119866 -0.077473044 -0.059685815 -0.33024868 -0.26226336 0.08926301
478 -0.22194672 0.30490184 0.4655943 0.06991226 -0.3191389 0.46676588 -0.02208261 -0.22255233 -0.08217462 0.19214351 0.33541387 0.27246165 0.0030340422 -0.035770793 -0.017920261 0.29378703 0.05985801 -0.15991749 -0.42626232 -0.2884342 -0.17210586 -0.27302545 -0.374149 0.22718173 0.108807094 0.13032655 0.1662759 0.31231847 -0.014508397 0.3208928 0.07750311 0.06511285 0.31316903 0.053203747 0.22034808 -0.026202502 0.81502056 -0.2334078 -0.14824422 -0.38737684 -0.18070054 0.10206368 0.016693018 0.048318643 0.3040879 -0.08465371 -0.4522257 0.2020458 -0.29934967 -0.0747127 -0.0027705843 -0.13707511 0.3106573 -0.37297428 -0.09563914 -0.060519226 0.23880157 0.3257329 -0.1696261 0.64632124 0.13854016 -0.37734252 0.37141308 -0.284781 -0.04016925 -0.5004787 0.044038612 0.061913837 0.38018885 0.21465564 0.2705106 -0.123870715 0.21292013 0.4908747 -0.27328014 -0.27206972 -0.30465597 -0.09236283 0.54183024 -0.038050942 -0.11405686 0.17867991 0.096165955 0.18720315 -0.39194208 0.5996037 0.5486087 -0.16449259 -0.38597572 -0.272313 0.1636642 0.34388793 0.6813828 0.17403789 -0.5181129 0.15929712 0.543206 -0.4195254 0.18981272 0.32830453 -0.041125875 -0.061488766 -0.033239234 0.18880415 0.10340593 0.13047084 0.72956634 0.02663388 -0.1690414 0.13035378 0.37720522 0.2157195 -0.47826385 -0.14892608 -0.0014081252 0.049970746 -0.32733333 0.088398896 0.11900056 -0.005482017 0.38316023 -0.034728147 0.46264827 -0.10110803 -0.250649 -0.29908994 0.14944683 0.021481033
47 -0.019984752 0.29656348 -0.22163631 -0.046144273 0.016532453 -0.33791402 -0.018496169 0.31241915 0.21671537 -0.16218811 0.03617522 -0.1720864 0.0032469656 -0.042103224 0.36752144 -0.2536306 -0.1595805 -0.066434786 0.31410772 -0.37806958 0.121582896 0.0019688252 0.023696354 0.34081239 0.008845302 0.0012315946 -0.3237203 0.21245179 -0.8125636 0.08751219 -0.19679749 -0.12752552 0.48395723 0.12718104 0.10513048 0.043166388 -0.32778555 0.17161044 0.24529362 -0.09772712 -0.0484586 0.03552683 -0.42880598 -0.15457484 0.1297282 0.44078785 -0.36344042 0.30677316 0.11144844 -0.028926225 -0.28046727 0.053571828 0.09111724 0.17918456 -0.48536178 0.47377178 -0.18234247 0.36087444 -0.11827258 -0.06689901 0.060612764 0.13088402 0.14694299 0.44222653 0.06947331 0.19403729 -0.18528175 -0.08822128 -0.08898158 0.06417056 -0.4647967 -0.019361515 0.7089692 0.03320646 0.1444203 0.43274516 -0.16683559 -0.633249 -0.30263242 0.38047555 0.026991494 0.04902013 -0.02892523 0.13969602 -0.21956213 -0.16525501 -0.21861844 0.2571553 -0.40268376 -0.44714752 -0.8398246 0.16328956 -0.07942605 -0.47814956 0.05442111 -0.23446454 0.44015676 0.11801329 -0.43339267 -0.24295586 0.012617284 0.20621094 0.099391125 -0.37718734 0.027140817 0.15431696 0.23228884 -0.38442212 -0.31170157 0.5346663 0.43510506 -0.26602125 -0.9263089 0.20906417 0.5588054 0.3223134 -0.46281326 -0.20668706 -0.1479614 0.09040713 0.04273486 0.3527908 0.34304577 -0.16677777 -0.10690682 -0.014756071 0.021349365 0.2694978
106 0.19998728 -0.1821498 -0.04653508 -0.2135193 0.20501387 0.051760294 -0.598847 0.19111647 0.09137671 0.08591804 0.17938146 -0.0848339 0.22865075 0.5322551 -0.27107885 0.46017683 -0.21147846 0.2152253 0.19431718 -0.2710015 0.3301163 -0.12300836 -0.12127664 0.10426868 -0.26840138 -0.18533777 0.07130981 -0.117478974 0.6183732 0.057376787 0.28796834 0.2565345 0.21424958 -0.24585748 0.008871825 -0.39934015 0.20965801 -0.23825133 -0.12648624 -0.07701265 0.4923177 -0.19609264 -0.35050964 -0.030118695 0.23392698 -0.29447463 -0.04989454 0.12564133 -0.68431956 -0.308037 -0.31929004 0.010324663 -0.11854421 0.02279803 0.4387841 -0.0717213 0.08774311 0.14408876 -0.37456942 0.1839709 0.14683075 0.22909488 0.17776261 0.14122081 -0.24184836 0.08274799 -0.014855882 0.13979153 0.03289554 0.12700348 0.16280489 0.08105638 -0.064340495 0.019732993 0.3645652 0.25951424 0.13427605 -0.31177688 -0.3746208 -0.05319489 0.11867249 0.19705245 -0.13000654 0.2563773 0.24757217 0.18286243 0.24977872 -0.2174039 -0.008601035 -0.021100178 0.3524985 -0.36763576 -0.29062405 0.118916735 0.1129834 0.3798758 -0.15653445 -0.09638995 -0.11176093 0.11311983 0.25842518 0.49871558 0.5463154 -0.22403851 0.12901105 -0.4923537 -0.04576309 -0.12283561 0.061529577 -0.33553365 0.012948628 0.2718299 0.091494374 -0.41193944 0.52398527 -0.1594537 -0.15312968 -0.049891677 -0.17961188 0.114734866 -0.018746963 -0.30348 -0.079158425 -0.6345534 0.20896213 -0.03251772 -0.12540862 0.18472798
437 -0.0011456297 0.045409307 0.0037736415 -0.47423655 0.22767696 -0.091021106 0.0840876 0.5015248 0.25143358 0.41236612 -0.27610874 -0.19544353 -0.36048934 0.24983932 -0.019646337 -0.10873902 -0.033574793 -0.018695382 0.23890854 -0.46469066 -0.15144552 0.1406349 0.038385134 0.1997866 0.010885635 0.007559741 0.3183381 -0.24128926 0.39159903 0.008524165 0.10391142 0.29977655 0.045214422 -0.28511748 -0.118782006 -0.1688917 0.03983149 -0.1835654 -0.14383769 0.2038332 0.0408439 -0.3031853 -0.18948191 0.035167992 -0.10901173 -0.14859186 -0.21552502 0.072812125 -0.21843751 -0.31496727 -0.19103484 0.006208006 -0.27661926 0.23816061 0.124844104 -0.13404365 -0.1091708 -0.0034111314 -0.22858104 -0.44568282 0.41463888 0.30031174 0.3711474 0.10226052 0.23719051 -0.0011744824 0.24131432 -0.30542424 -0.036818642 0.04198201 0.07686738 0.07043708 0.17890835 -0.12649028 -0.052624036 -0.035843138 -0.006288419 -0.49190298 -0.24381246 0.06357164 0.14241266 -0.08142526 -0.58371824 0.18089248 -0.27880064 0.46173137 0.10867187 0.23579836 -0.24501063 0.15726043 0.016997483 -0.21188386 0.34018278 -0.00951153 -0.45739847 0.05053613 0.03963757 -0.4919612 0.26818055 -0.06731467 0.17279406 0.012619451 0.21838781 -0.46995464 0.17400856 -0.31498572 -0.24175894 0.031292908 -0.21982868 -0.13692632 -0.05302277 0.34879762 -0.040518682 0.068245806 0.11265605 -0.28542247 0.04452574 0.1558747 -0.11256581 0.2829426 0.30973592 -0.24804501 -0.11450943 -0.4762421 0.070183314 -0.28761417 0.25221655 0.0665455
162 -0.3520568 0.46083343 0.049151544 0.03146868 0.11605395 -0.07774298 0.5036151 0.32735327 -0.29356974 0.4104339 0.4024278 0.13870166 0.05909147 0.016714524 0.011677683 -0.2274923 0.18550153 -0.64883226 0.041858256 0.55263126 0.43340832 -0.28673914 -0.23605749 0.33308452 0.30493072 0.74664813 0.4366955 0.4942556 0.40769786 0.07783239 0.24779786 -0.021126628 -0.060624044 0.67962337 0.1333394 -0.06198086 0.2987222 0.32015464 -0.78516454 0.102517724 0.23272559 -0.06100966 -0.21957667 -0.23536308 0.5132551 -0.43964472 0.076934025 0.13324063 0.027269924 0.09957194 -0.058348864 -0.17869397 -0.16078655 0.16987269 -0.15543583 -0.06632101 0.093609646 -0.26436648 -0.10705123 -0.042337835 0.31342983 -0.8007412 0.36750948 -0.109335355 -0.14005458 0.012833865 -0.10962513 0.22219056 0.33343607 0.199635 0.000866044 -0.1345374 0.081214905 0.20453803 0.103083186 -0.44395283 -0.04816711 0.008206888 0.3608266 0.49883765 -0.3895762 0.3944356 -0.1697966 0.1263871 -0.014886581 -0.24397676 0.0016311681 0.15233837 0.05642452 -0.6836121 -0.28814858 -0.2687361 -0.3064372 0.06262567 -0.24608548 0.0062712575 0.41279617 -0.017297726 -0.22111242 -0.16002814 -0.16132265 0.1537916 -0.2171904 0.15523283 0.037921507 0.51836014 -0.023909457 0.1786001 -0.37018675 0.05320676 -0.13012794 0.31691277 -0.42404094 -0.34259233 0.52927154 -0.0026164462 -0.059932556 0.31095022 0.15531635 -0.20453979 0.20113832 -0.13614863 -0.083124384 -0.22773509 0.45111713 0.5497779 -0.22202465 -0.097787544
7 -0.45733598 0.13514817 0.39859086 -0.20714067 -0.12927073 0.07601584 -0.35657164 -0.14534086 0.12701264 0.07862702 -0.114447325 0.1548362 0.17696553 0.21592775 -0.14275806 0.14685066 -0.06289888 0.14533521 0.032590248 -0.3120617 0.19373997 -0.3117631 0.08542399 0.14050509 0.07571614 0.24447572 0.41509962 0.099776015 0.023467582 0.19698554 -0.3366822 0.061004743 -0.44711524 -0.15520433 0.1142738 -0.35120338 0.06924266 0.29848915 0.17825903 -0.38792124 0.67815536 -0.26377088 -0.035960767 -0.4158131 0.2252664 0.14866069 0.2227821 0.14770962 -0.5694674 0.39876008 -0.11091083 -0.011703359 0.17854086 -0.13581643 -0.70881647 0.27761146 -0.39380813 -0.37518 -0.27898237 -0.41086417 0.38012418 0.16556716 0.25789467 0.21566436 0.23245287 -0.45788997 0.21136425 0.09391422 -0.26968727 0.28810793 0.09835844 -0.07932124 -0.44208473 -0.2670846 0.42583513 0.028380936 -0.3864352 -0.57537955 -0.26216403 -0.012848734 0.08900047 -0.759058 -1.4832766e-05 -0.032247037 0.41217923 0.046550278 -0.105769336 0.36218172 0.31108257 0.25479698 -0.21796028 0.022301542 -0.5750585 -0.17078654 0.22288801 -0.23331892 -0.4856681 -0.09962009 0.19025844 0.41774 -0.22402759 0.05676482 0.38251954 0.3464952 0.5129999 -0.25185794 -0.030829744 -0.19470926 0.17783923 0.17779276 0.21180464 -0.7003358 -0.3906242 -0.08950943 0.13242216 0.27076176 -0.36284035 -0.02741225 0.007551037 0.009638448 -0.01223263 -0.22681569 -0.1538098 0.3550604 0.3188081 0.2803469 -0.03567961 -0.4785438
12 -0.6289444 -0.10708731 -0.0930645 0.26826096 -0.2499256 -0.083002314 -0.22397909 -0.19708213 0.11016832 -0.251515 0.2828711 0.36801088 -0.37961426 -0.021183861 0.19836365 0.2360773 -0.21065958 -0.23414972 0.14653638 -0.805142 -0.20972827 0.47559685 0.24027443 0.1756824 -0.27933034 0.23160926 0.7663344 0.06609149 -0.19398972 0.16655989 0.3594138 -0.42147222 -0.03470011 -0.018589586 -0.425513 0.4034463 -0.03291289 -0.2887144 -0.04923233 -0.4340207 0.39152285 -0.25996187 -0.07359639 -0.05567479 0.07623204 -0.3922031 0.10899964 0.4390749 0.0111499615 0.1661323 -0.22070937 -0.09482515 0.17053716 -0.18138796 0.04914829 -0.12317736 -0.062122278 -0.17467485 -0.1269163 0.072527386 -0.19178897 0.5144523 -0.3389371 0.033457235 0.32380742 -0.09201955 -0.4914195 -0.038197633 0.04341578 -0.39373013 -0.3040151 -0.025773857 -0.0016988548 0.1300284 0.3416791 -0.026107244 0.20332631 -0.35341877 0.54431623 -0.19018538 0.022869766 0.3368216 0.14034626 -0.5025482 0.25245422 0.272284 -0.1480721 0.14424673 0.058240682 -0.011982952 -0.122113496 0.034378104 -0.33815274 0.2540853 -0.025008244 0.0153651275 0.9052303 -0.016711226 0.018016469 0.46601695 -0.0087293 -0.17227776 0.13170284 -0.0070765014 0.70412654 0.05138034 0.12712476 0.0026289276 -0.048340105 -0.096667014 0.1986938 0.009700141 0.1907536 -0.5823987 0.2945027 0.058651756 0.2093664 0.20873332 0.056210767 -0.012478933 0.32475963 -0.012797699 -0.4810374 0.19093485 -0.10345327 0.0047258465 0.0054704454 0.21480449
54 -0.5560287 0.36291692 -0.15932253 -0.0005934387 -0.2264403 -0.5398596 0.21815868 -0.5638501 0.124363974 0.23959108 -0.48930204 0.8989266 0.288027 0.24004307 0.092475496 0.6119556 -0.24696554 0.23654336 0.1208619 0.22109342 0.050503876 -0.38549706 0.3747646 0.07646929 0.05480995 0.30705553 0.42515308 -0.12259977 -0.19533524 -0.042092025 0.15821779 -0.48997355 0.049354244 0.16574025 -0.42901176 0.500832 -0.3926907 0.12871933 0.0017206254 0.21386307 -0.11506682 -0.2733561 0.105682574 0.2604859 -0.09100029 -0.6253233 0.101149835 0.3397893 -0.13388766 0.042744696 -0.15619548 0.22925481 -0.012449066 0.17465265 -0.09898247 0.24267933 -0.08818454 0.18624863 0.087504536 0.39679506 0.34204647 0.33176523 -0.5243682 -0.3011821 0.059648864 -0.03003753 -0.1309531 -0.3227461 -0.28217024 0.466036 -0.4451975 0.76057005 0.35379118 -0.12709498 0.25271514 0.16504067 0.0066552567 -0.19929437 -0.10700158 -0.24755916 0.2045785 -0.20300446 -0.29163164 -0.022811955 -0.12253888 0.039022855 0.107674465 -0.4478845 -0.029880667 -0.30525422 -0.057211094 0.0661959 -0.07822858 -0.8341301 0.3134061 -0.12501857 -0.19878064 -0.044856027 -0.027847938 -0.0123919295 0.08043312 -0.24798146 0.2773864 0.028232941 -0.14286783 -0.14419882 0.31826732 0.21016517 0.3771803 0.11300262 -0.031163141 0.15565771 0.014984066 -0.17149092 0.48136774 -0.24376819 -0.3081289 -0.087594576 -0.13723613 -0.21740264 0.71235687 -0.18117407 0.22291367 0.18165234 -0.15251805 -0.12658301 -0.063660316 -0.117282815
145 -0.32152092 0.2202663 0.20454225 0.08059704 -0.25877604 0.28317034 -0.3247722 0.10968209 -0.18608117 -0.36946774 -0.15733387 0.34253922 0.22456832 0.022945251 -0.29567713 0.113583826 0.010264422 -0.23784903 0.15702674 -0.07309346 0.2312598 -1.0050732 -0.20709124 0.034908123 -0.36154512 0.34621358 -0.10005303 0.03841176 -0.06035007 0.30951843 0.15506375 0.04649296 -0.49200627 -0.10329141 0.22462146 -0.15791793 -0.013265775 -0.33970395 -0.23670015 0.31357807 -0.01136515 -0.069679745 -0.06684447 -0.021847492 -0.34425288 -0.16793984 0.33832952 -0.38320115 -0.24467772 -0.64577234 -0.13711192 -0.10059564 0.17066422 -0.16092364 0.019893408 0.501071 -0.14372122 -0.21661541 -0.40902022 -0.27858737 -0.11995024 0.1939089 0.21495995 -0.1133422 0.23827076 -0.14823718 -0.3378886 -0.31817538 -0.34025022 -0.23351578 0.14909044 -0.16642554 0.15749764 -0.18810283 0.24563393 0.37045005 -0.0054706386 0.2221588 -0.18821298 0.11382574 0.45808846 -0.030084541 0.06936898 -0.19884452 -0.16895437 -0.023923434 -0.22969693 -0.5194271 0.42575386 -0.044958968 -0.41700798 0.021715464 0.30265987 0.064074785 -0.30981895 0.33333477 -0.020011207 -0.5045754 0.14320448 0.22389406 -0.38153762 0.28685987 0.18443625 -0.09377161 0.37928945 0.48145315 0.5170324 0.12513497 -0.45144618 -0.25800782 0.16507016 0.47241145 -0.27429754 -0.35995975 -0.17264813 -0.5929615 -0.10005558 0.009820479 0.095885 0.72789544 0.010779451 0.15708953 -0.15862383 0.02963854 -0.14014545 0.15274495 0.16408612 -0.18120681
493 -0.5409522 0.16773859 0.13998868 0.45466447 -0.061803717 0.025255017 0.12891637 0.36240867 0.014553131 0.2694242 0.43071103 -0.45352843 -0.18747216 -0.33832228 -0.087142065 0.1694497 -0.0332618 -0.11808535 0.45065263 -0.109274045 -0.013358161 -0.21767996 0.0556528 0.2307207 -0.005787841 0.11231449 0.3437165 -0.20371178 -0.07525974 -0.12346983 0.07926129 -0.047747716 0.48411766 -0.05738326 0.3526146 -0.15559252 0.39692077 -0.07693426 -0.037813563 0.21541312 0.11924404 -0.27418453 -0.15661757 0.106246196 -0.06423232 -0.3332926 -0.1336698 -0.115269214 0.056817476 -0.17310637 -0.11042626 0.068575576 -0.019291025 -0.1747732 0.32005006 -0.0022058852 0.23399487 -0.13778508 0.055074655 0.008263916 -0.008719968 -0.014203503 0.13916187 -0.017232327 -0.26631206 -0.16416746 -0.27043244 -0.08928399 0.026416464 -0.118012935 0.35318106 0.50414133 0.100146994 0.056234285 0.019506633 -0.13881499 -0.24789102 -0.12778123 -0.10418096 0.6777778 -0.035862405 0.08868884 0.19227071 -0.10288887 -0.3607599 0.057702668 -0.24633871 -0.3210756 -0.3083684 0.21795449 0.2805172 0.08413982 0.03971252 -0.19295458 -0.04678627 0.31541273 -0.029220354 -0.27515626 0.014649446 -0.4314331 0.25360972 -0.28326225 0.7088293 -0.23687142 0.027223742 0.14462098 0.0654719 -0.17602871 -0.25426576 -0.07136523 0.43418825 0.12549041 0.035685662 -0.034265492 -0.15678549 -0.06641717 -0.38376862 0.022425927 0.026708877 0.10268571 0.3154236 -0.47324198 -0.08136631 -0.34492412 -0.1610344 -0.17938492 0.24971157 0.12624331
501 -0.14811768 0.11802524 0.6691428 -0.07215956 -0.19862883 0.045797326 -0.4321014 -0.28307405 0.3074428 0.17022194 0.15104285 0.45028347 -0.007455058 0.10071138 0.41643822 0.28397846 0.049638543 -0.64759755 -0.040956423 -0.14336607 -0.17701024 -0.36781082 -0.12856095 0.25309375 -0.19453035 -0.2371232 0.18785734 -0.10282487 -0.17753252 0.15814646 0.05629677 -0.25048643 0.09802286 0.13118218 -0.042422064 0.029799398 -0.04362942 -0.15877654 0.037788555 0.31188783 -0.0015837777 0.11279097 -0.2653909 0.23184425 -0.09115189 -0.2536069 -0.31084946 -0.056247454 -0.20448801 0.027379168 0.08799672 0.15996714 -0.21370704 -0.25380737 -0.34046575 -0.22591151 -0.20356797 -0.08353741 0.02652105 -0.09647154 0.2528982 -0.20415996 0.14870682 0.13108476 0.22588985 -0.34333616 -0.19192953 0.08826882 0.14135836 -0.03400026 0.2929455 -0.08343451 0.17975233 0.39306107 -0.06719157 -0.11840534 0.14671716 -0.2199841 -0.14778927 0.19322883 -0.042449873 0.16361487 -0.007011306 -0.41801628 -0.22196852 0.5070083 -0.016678113 -0.01911421 0.27862233 -0.15349615 0.089213505 0.5335607 -0.16417158 0.0042343736 -0.15546717 0.18573272 -0.11670078 0.0944382 0.30838406 -0.5409056 0.15821622 -0.14676759 0.21375489 0.6103332 0.08499274 0.16601388 0.19269836 -0.25390306 -0.28384888 0.32008976 -0.10521636 0.10696654 0.08303906 -0.31475335 0.3753659 -0.062340386 0.10843257 0.059130073 0.07415596 0.096192524 -0.16262646 0.24223998 -0.020288326 -0.045043632 -0.018626317 0.0929706 -0.24583773 0.39154935
